version: 100
cost-factor: 1
maxid: 10544
xsize: 145

0
1

U0:%x[0,0]
U1:%x[0,0]%x[0,1]
U2:%x[0,0]%x[0,28]
U3:%x[0,1]
U4:%x[0,1]%x[0,2]
U5:%x[0,1]%x[0,27]
U6:%x[0,2]
U7:%x[0,2]%x[0,3]
U8:%x[0,2]%x[0,26]
U9:%x[0,3]
U10:%x[0,3]%x[0,4]
U11:%x[0,3]%x[0,25]
U12:%x[0,4]
U13:%x[0,4]%x[0,5]
U14:%x[0,4]%x[0,24]
U15:%x[0,5]
U16:%x[0,5]%x[0,6]
U17:%x[0,5]%x[0,23]
U18:%x[0,6]
U19:%x[0,6]%x[0,7]
U20:%x[0,6]%x[0,22]
U21:%x[0,7]
U22:%x[0,7]%x[0,8]
U23:%x[0,7]%x[0,21]
U24:%x[0,8]
U25:%x[0,8]%x[0,9]
U26:%x[0,8]%x[0,20]
U27:%x[0,9]
U28:%x[0,9]%x[0,10]
U29:%x[0,9]%x[0,19]
U30:%x[0,10]
U31:%x[0,10]%x[0,11]
U32:%x[0,10]%x[0,18]
U33:%x[0,11]
U34:%x[0,11]%x[0,12]
U35:%x[0,11]%x[0,17]
U36:%x[0,12]
U37:%x[0,12]%x[0,13]
U38:%x[0,12]%x[0,16]
U39:%x[0,13]
U40:%x[0,13]%x[0,14]
U41:%x[0,13]%x[0,15]
U42:%x[0,14]
U43:%x[0,14]%x[0,15]
U44:%x[0,15]
U45:%x[0,15]%x[0,16]
U46:%x[0,16]
U47:%x[0,16]%x[0,17]
U48:%x[0,17]
U49:%x[0,17]%x[0,18]
U50:%x[0,18]
U51:%x[0,18]%x[0,19]
U52:%x[0,19]
U53:%x[0,19]%x[0,20]
U54:%x[0,20]
U55:%x[0,20]%x[0,21]
U56:%x[0,21]
U57:%x[0,21]%x[0,22]
U58:%x[0,22]
U59:%x[0,22]%x[0,23]
U60:%x[0,23]
U61:%x[0,23]%x[0,24]
U62:%x[0,24]
U63:%x[0,24]%x[0,25]
U64:%x[0,25]
U65:%x[0,25]%x[0,26]
U66:%x[0,26]
U67:%x[0,26]%x[0,27]
U68:%x[0,27]
U69:%x[0,27]%x[0,28]
U70:%x[0,28]
U71:%x[0,28]%x[0,29]
U72:%x[0,29]
U73:%x[0,29]%x[0,30]
U74:%x[0,29]%x[0,57]
U75:%x[0,30]
U76:%x[0,30]%x[0,31]
U77:%x[0,30]%x[0,56]
U78:%x[0,31]
U79:%x[0,31]%x[0,32]
U80:%x[0,31]%x[0,55]
U81:%x[0,32]
U82:%x[0,32]%x[0,33]
U83:%x[0,32]%x[0,54]
U84:%x[0,33]
U85:%x[0,33]%x[0,34]
U86:%x[0,33]%x[0,53]
U87:%x[0,34]
U88:%x[0,34]%x[0,35]
U89:%x[0,34]%x[0,52]
U90:%x[0,35]
U91:%x[0,35]%x[0,36]
U92:%x[0,35]%x[0,51]
U93:%x[0,36]
U94:%x[0,36]%x[0,37]
U95:%x[0,36]%x[0,50]
U96:%x[0,37]
U97:%x[0,37]%x[0,38]
U98:%x[0,37]%x[0,49]
U99:%x[0,38]
U100:%x[0,38]%x[0,39]
U101:%x[0,38]%x[0,48]
U102:%x[0,39]
U103:%x[0,39]%x[0,40]
U104:%x[0,39]%x[0,47]
U105:%x[0,40]
U106:%x[0,40]%x[0,41]
U107:%x[0,40]%x[0,46]
U108:%x[0,41]
U109:%x[0,41]%x[0,42]
U110:%x[0,41]%x[0,45]
U111:%x[0,42]
U112:%x[0,42]%x[0,43]
U113:%x[0,42]%x[0,44]
U114:%x[0,43]
U115:%x[0,43]%x[0,44]
U116:%x[0,44]
U117:%x[0,44]%x[0,45]
U118:%x[0,45]
U119:%x[0,45]%x[0,46]
U120:%x[0,46]
U121:%x[0,46]%x[0,47]
U122:%x[0,47]
U123:%x[0,47]%x[0,48]
U124:%x[0,48]
U125:%x[0,48]%x[0,49]
U126:%x[0,49]
U127:%x[0,49]%x[0,50]
U128:%x[0,50]
U129:%x[0,50]%x[0,51]
U130:%x[0,51]
U131:%x[0,51]%x[0,52]
U132:%x[0,52]
U133:%x[0,52]%x[0,53]
U134:%x[0,53]
U135:%x[0,53]%x[0,54]
U136:%x[0,54]
U137:%x[0,54]%x[0,55]
U138:%x[0,55]
U139:%x[0,55]%x[0,56]
U140:%x[0,56]
U141:%x[0,56]%x[0,57]
U142:%x[0,57]
U143:%x[0,57]%x[0,58]
U144:%x[0,58]
U145:%x[0,58]%x[0,59]
U146:%x[0,58]%x[0,86]
U147:%x[0,59]
U148:%x[0,59]%x[0,60]
U149:%x[0,59]%x[0,85]
U150:%x[0,60]
U151:%x[0,60]%x[0,61]
U152:%x[0,60]%x[0,84]
U153:%x[0,61]
U154:%x[0,61]%x[0,62]
U155:%x[0,61]%x[0,83]
U156:%x[0,62]
U157:%x[0,62]%x[0,63]
U158:%x[0,62]%x[0,82]
U159:%x[0,63]
U160:%x[0,63]%x[0,64]
U161:%x[0,63]%x[0,81]
U162:%x[0,64]
U163:%x[0,64]%x[0,65]
U164:%x[0,64]%x[0,80]
U165:%x[0,65]
U166:%x[0,65]%x[0,66]
U167:%x[0,65]%x[0,79]
U168:%x[0,66]
U169:%x[0,66]%x[0,67]
U170:%x[0,66]%x[0,78]
U171:%x[0,67]
U172:%x[0,67]%x[0,68]
U173:%x[0,67]%x[0,77]
U174:%x[0,68]
U175:%x[0,68]%x[0,69]
U176:%x[0,68]%x[0,76]
U177:%x[0,69]
U178:%x[0,69]%x[0,70]
U179:%x[0,69]%x[0,75]
U180:%x[0,70]
U181:%x[0,70]%x[0,71]
U182:%x[0,70]%x[0,74]
U183:%x[0,71]
U184:%x[0,71]%x[0,72]
U185:%x[0,71]%x[0,73]
U186:%x[0,72]
U187:%x[0,72]%x[0,73]
U188:%x[0,73]
U189:%x[0,73]%x[0,74]
U190:%x[0,74]
U191:%x[0,74]%x[0,75]
U192:%x[0,75]
U193:%x[0,75]%x[0,76]
U194:%x[0,76]
U195:%x[0,76]%x[0,77]
U196:%x[0,77]
U197:%x[0,77]%x[0,78]
U198:%x[0,78]
U199:%x[0,78]%x[0,79]
U200:%x[0,79]
U201:%x[0,79]%x[0,80]
U202:%x[0,80]
U203:%x[0,80]%x[0,81]
U204:%x[0,81]
U205:%x[0,81]%x[0,82]
U206:%x[0,82]
U207:%x[0,82]%x[0,83]
U208:%x[0,83]
U209:%x[0,83]%x[0,84]
U210:%x[0,84]
U211:%x[0,84]%x[0,85]
U212:%x[0,85]
U213:%x[0,85]%x[0,86]
U214:%x[0,86]
U215:%x[0,86]%x[0,87]
U216:%x[0,87]
U217:%x[0,87]%x[0,88]
U218:%x[0,87]%x[0,115]
U219:%x[0,88]
U220:%x[0,88]%x[0,89]
U221:%x[0,88]%x[0,114]
U222:%x[0,89]
U223:%x[0,89]%x[0,90]
U224:%x[0,89]%x[0,113]
U225:%x[0,90]
U226:%x[0,90]%x[0,91]
U227:%x[0,90]%x[0,112]
U228:%x[0,91]
U229:%x[0,91]%x[0,92]
U230:%x[0,91]%x[0,111]
U231:%x[0,92]
U232:%x[0,92]%x[0,93]
U233:%x[0,92]%x[0,110]
U234:%x[0,93]
U235:%x[0,93]%x[0,94]
U236:%x[0,93]%x[0,109]
U237:%x[0,94]
U238:%x[0,94]%x[0,95]
U239:%x[0,94]%x[0,108]
U240:%x[0,95]
U241:%x[0,95]%x[0,96]
U242:%x[0,95]%x[0,107]
U243:%x[0,96]
U244:%x[0,96]%x[0,97]
U245:%x[0,96]%x[0,106]
U246:%x[0,97]
U247:%x[0,97]%x[0,98]
U248:%x[0,97]%x[0,105]
U249:%x[0,98]
U250:%x[0,98]%x[0,99]
U251:%x[0,98]%x[0,104]
U252:%x[0,99]
U253:%x[0,99]%x[0,100]
U254:%x[0,99]%x[0,103]
U255:%x[0,100]
U256:%x[0,100]%x[0,101]
U257:%x[0,100]%x[0,102]
U258:%x[0,101]
U259:%x[0,101]%x[0,102]
U260:%x[0,102]
U261:%x[0,102]%x[0,103]
U262:%x[0,103]
U263:%x[0,103]%x[0,104]
U264:%x[0,104]
U265:%x[0,104]%x[0,105]
U266:%x[0,105]
U267:%x[0,105]%x[0,106]
U268:%x[0,106]
U269:%x[0,106]%x[0,107]
U270:%x[0,107]
U271:%x[0,107]%x[0,108]
U272:%x[0,108]
U273:%x[0,108]%x[0,109]
U274:%x[0,109]
U275:%x[0,109]%x[0,110]
U276:%x[0,110]
U277:%x[0,110]%x[0,111]
U278:%x[0,111]
U279:%x[0,111]%x[0,112]
U280:%x[0,112]
U281:%x[0,112]%x[0,113]
U282:%x[0,113]
U283:%x[0,113]%x[0,114]
U284:%x[0,114]
U285:%x[0,114]%x[0,115]
U286:%x[0,115]
U287:%x[0,115]%x[0,116]
U288:%x[0,116]
U289:%x[0,116]%x[0,117]
U290:%x[0,116]%x[0,144]
U291:%x[0,117]
U292:%x[0,117]%x[0,118]
U293:%x[0,117]%x[0,143]
U294:%x[0,118]
U295:%x[0,118]%x[0,119]
U296:%x[0,118]%x[0,142]
U297:%x[0,119]
U298:%x[0,119]%x[0,120]
U299:%x[0,119]%x[0,141]
U300:%x[0,120]
U301:%x[0,120]%x[0,121]
U302:%x[0,120]%x[0,140]
U303:%x[0,121]
U304:%x[0,121]%x[0,122]
U305:%x[0,121]%x[0,139]
U306:%x[0,122]
U307:%x[0,122]%x[0,123]
U308:%x[0,122]%x[0,138]
U309:%x[0,123]
U310:%x[0,123]%x[0,124]
U311:%x[0,123]%x[0,137]
U312:%x[0,124]
U313:%x[0,124]%x[0,125]
U314:%x[0,124]%x[0,136]
U315:%x[0,125]
U316:%x[0,125]%x[0,126]
U317:%x[0,125]%x[0,135]
U318:%x[0,126]
U319:%x[0,126]%x[0,127]
U320:%x[0,126]%x[0,134]
U321:%x[0,127]
U322:%x[0,127]%x[0,128]
U323:%x[0,127]%x[0,133]
U324:%x[0,128]
U325:%x[0,128]%x[0,129]
U326:%x[0,128]%x[0,132]
U327:%x[0,129]
U328:%x[0,129]%x[0,130]
U329:%x[0,129]%x[0,131]
U330:%x[0,130]
U331:%x[0,130]%x[0,131]
U332:%x[0,131]
U333:%x[0,131]%x[0,132]
U334:%x[0,132]
U335:%x[0,132]%x[0,133]
U336:%x[0,133]
U337:%x[0,133]%x[0,134]
U338:%x[0,134]
U339:%x[0,134]%x[0,135]
U340:%x[0,135]
U341:%x[0,135]%x[0,136]
U342:%x[0,136]
U343:%x[0,136]%x[0,137]
U344:%x[0,137]
U345:%x[0,137]%x[0,138]
U346:%x[0,138]
U347:%x[0,138]%x[0,139]
U348:%x[0,139]
U349:%x[0,139]%x[0,140]
U350:%x[0,140]
U351:%x[0,140]%x[0,141]
U352:%x[0,141]
U353:%x[0,141]%x[0,142]
U354:%x[0,142]
U355:%x[0,142]%x[0,143]
U356:%x[0,143]
U357:%x[0,143]%x[0,144]
U358:%x[0,144]

9826 U0:*
0 U0:C|
10026 U100:**
8056 U100:0|0|
9320 U100:0|1|
2498 U100:0|2|
8102 U100:0|3|
1666 U100:0|4|
9502 U100:1|0|
3242 U100:1|1|
8812 U100:1|2|
6600 U100:1|3|
6842 U100:1|4|
3074 U100:2|0|
8916 U100:2|1|
820 U100:2|2|
8240 U100:2|3|
200 U100:2|4|
4532 U100:3|0|
8462 U100:3|1|
1228 U100:4|0|
2048 U100:4|1|
4772 U100:4|2|
3480 U100:4|3|
4620 U100:4|4|
10028 U101:**
5590 U101:0|0|
6544 U101:0|1|
5366 U101:0|2|
1668 U101:0|4|
7476 U101:1|0|
9504 U101:1|1|
3244 U101:1|2|
5210 U101:1|4|
202 U101:2|0|
7242 U101:2|1|
3076 U101:2|2|
9700 U101:2|3|
822 U101:2|4|
4534 U101:3|4|
2312 U101:4|0|
2834 U101:4|1|
1230 U101:4|2|
6736 U101:4|3|
2050 U101:4|4|
10030 U102:*
1232 U102:0|
2052 U102:1|
824 U102:2|
3482 U102:3|
204 U102:4|
10032 U103:**
1234 U103:0|0|
4406 U103:0|1|
7382 U103:0|2|
9390 U103:0|3|
2314 U103:0|4|
9072 U103:1|0|
2836 U103:1|1|
5796 U103:1|2|
9560 U103:1|3|
2054 U103:1|4|
7244 U103:2|0|
5274 U103:2|2|
826 U103:2|4|
8404 U103:3|0|
3484 U103:3|1|
8242 U103:3|2|
4080 U103:3|4|
206 U103:4|0|
3794 U103:4|1|
4884 U103:4|2|
7632 U103:4|3|
1670 U103:4|4|
10034 U104:**
1236 U104:0|0|
5638 U104:0|1|
4944 U104:0|2|
6134 U104:0|3|
2316 U104:0|4|
3246 U104:1|0|
6278 U104:1|1|
2056 U104:1|2|
9656 U104:1|3|
2838 U104:1|4|
5276 U104:2|0|
8694 U104:2|1|
5696 U104:2|2|
828 U104:2|3|
2500 U104:2|4|
8244 U104:3|0|
4728 U104:3|2|
8678 U104:3|3|
3486 U104:3|4|
1672 U104:4|0|
6822 U104:4|1|
3796 U104:4|2|
3636 U104:4|3|
208 U104:4|4|
10036 U105:*
210 U105:0|
2840 U105:1|
4886 U105:2|
7634 U105:3|
830 U105:4|
10038 U106:**
6816 U106:0|0|
6844 U106:0|1|
6738 U106:0|2|
4622 U106:0|3|
212 U106:0|4|
3798 U106:1|0|
2842 U106:1|1|
3488 U106:1|2|
6812 U106:1|3|
3248 U106:1|4|
4888 U106:2|0|
5368 U106:2|1|
5278 U106:2|2|
8246 U106:2|3|
6546 U106:2|4|
7636 U106:3|0|
9392 U106:3|1|
9792 U106:3|2|
9578 U106:3|4|
1674 U106:4|0|
2318 U106:4|1|
4946 U106:4|2|
832 U106:4|3|
5972 U106:4|4|
10040 U107:**
1238 U107:0|0|
6740 U107:0|1|
5532 U107:0|2|
9036 U107:0|3|
214 U107:0|4|
2844 U107:1|0|
6280 U107:1|1|
3800 U107:1|2|
3250 U107:1|4|
4890 U107:2|0|
5280 U107:2|1|
5698 U107:2|2|
7142 U107:2|3|
5370 U107:2|4|
7638 U107:3|0|
9394 U107:3|2|
2502 U107:4|0|
834 U107:4|1|
2058 U107:4|2|
3078 U107:4|3|
1676 U107:4|4|
10042 U108:*
1678 U108:0|
2320 U108:1|
3490 U108:2|
836 U108:3|
216 U108:4|
10044 U109:**
5028 U109:0|0|
2060 U109:0|1|
4836 U109:0|2|
2504 U109:0|3|
1680 U109:0|4|
7606 U109:1|0|
4408 U109:1|1|
6846 U109:1|3|
2322 U109:1|4|
4948 U109:2|0|
5852 U109:2|2|
3492 U109:2|3|
6742 U109:2|4|
4322 U109:3|0|
8278 U109:3|1|
4624 U109:3|2|
838 U109:3|4|
5212 U109:4|0|
218 U109:4|1|
1240 U109:4|2|
8036 U109:4|3|
8228 U109:4|4|
9846 U10:**
4116 U10:A|A|
6416 U10:A|C|
20 U10:A|G|
2410 U10:A|T|
7646 U10:C|A|
6590 U10:C|C|
5346 U10:C|G|
8040 U10:C|T|
7982 U10:G|A|
722 U10:G|C|
5004 U10:G|G|
6868 U10:G|T|
4300 U10:T|A|
6056 U10:T|C|
1134 U10:T|G|
7466 U10:T|T|
10046 U110:**
1682 U110:0|0|
3638 U110:0|1|
3802 U110:0|2|
9750 U110:0|3|
2506 U110:0|4|
2324 U110:1|0|
2846 U110:1|1|
7552 U110:1|2|
9488 U110:1|3|
4410 U110:1|4|
6228 U110:2|0|
4950 U110:2|1|
5700 U110:2|2|
7928 U110:2|3|
3494 U110:2|4|
840 U110:3|0|
5822 U110:3|1|
4324 U110:3|2|
7544 U110:3|4|
220 U110:4|0|
5974 U110:4|1|
6418 U110:4|2|
7692 U110:4|3|
1242 U110:4|4|
10048 U111:*
4326 U111:0|
222 U111:1|
1244 U111:2|
2508 U111:3|
842 U111:4|
10050 U112:**
4952 U112:0|0|
5214 U112:0|1|
5824 U112:0|2|
4986 U112:0|3|
4328 U112:0|4|
4412 U112:1|0|
224 U112:1|1|
3640 U112:1|2|
2062 U112:1|3|
5108 U112:1|4|
1246 U112:2|0|
8472 U112:2|1|
7366 U112:2|2|
4626 U112:2|3|
5640 U112:2|4|
6376 U112:3|0|
2510 U112:3|1|
8128 U112:3|2|
7880 U112:3|4|
844 U112:4|0|
3080 U112:4|1|
4536 U112:4|2|
3804 U112:4|3|
1684 U112:4|4|
10052 U113:**
5282 U113:0|0|
4988 U113:0|1|
7010 U113:0|2|
5216 U113:0|3|
4330 U113:0|4|
4892 U113:1|0|
2064 U113:1|1|
8416 U113:1|2|
226 U113:1|3|
4414 U113:1|4|
1248 U113:2|0|
4838 U113:2|1|
5854 U113:2|2|
5976 U113:2|3|
6362 U113:2|4|
5994 U113:3|0|
3496 U113:3|1|
2512 U113:3|2|
8130 U113:3|3|
6848 U113:3|4|
1686 U113:4|0|
2848 U113:4|1|
7028 U113:4|2|
2326 U113:4|3|
846 U113:4|4|
10054 U114:*
848 U114:0|
228 U114:1|
3642 U114:2|
2066 U114:3|
1688 U114:4|
10056 U115:**
1250 U115:0|0|
2850 U115:0|1|
5856 U115:0|2|
2328 U115:0|3|
850 U115:0|4|
4894 U115:1|0|
3498 U115:1|1|
2514 U115:1|2|
230 U115:1|3|
3082 U115:1|4|
4538 U115:2|0|
8748 U115:2|2|
3644 U115:2|3|
5826 U115:2|4|
3806 U115:3|0|
2068 U115:3|1|
8106 U115:3|2|
5470 U115:3|4|
1690 U115:4|0|
5030 U115:4|1|
6066 U115:4|3|
4332 U115:4|4|
10058 U116:*
1252 U116:0|
2070 U116:1|
2516 U116:2|
232 U116:3|
852 U116:4|
10060 U117:**
1692 U117:0|0|
7060 U117:0|1|
3808 U117:0|2|
7694 U117:0|3|
1254 U117:0|4|
2072 U117:1|0|
2852 U117:1|1|
6992 U117:1|2|
8318 U117:1|3|
3500 U117:1|4|
7030 U117:2|0|
9816 U117:2|1|
6378 U117:2|2|
2518 U117:2|4|
234 U117:3|0|
3646 U117:3|1|
9346 U117:3|2|
6068 U117:3|4|
854 U117:4|0|
4954 U117:4|1|
4334 U117:4|2|
7930 U117:4|3|
4144 U117:4|4|
10062 U118:*
236 U118:0|
2854 U118:1|
3810 U118:2|
7696 U118:3|
1256 U118:4|
10064 U119:**
5242 U119:0|0|
856 U119:0|1|
2074 U119:0|2|
3084 U119:0|3|
238 U119:0|4|
2856 U119:1|0|
6110 U119:1|1|
3648 U119:1|2|
5978 U119:1|4|
4336 U119:2|0|
6994 U119:2|1|
3812 U119:2|2|
7742 U119:2|3|
4628 U119:2|4|
7932 U119:3|0|
8320 U119:3|1|
9794 U119:3|2|
7698 U119:3|4|
1258 U119:4|0|
5284 U119:4|1|
4416 U119:4|2|
5444 U119:4|3|
3252 U119:4|4|
9848 U11:**
22 U11:A|A|
1580 U11:A|C|
6528 U11:A|G|
2412 U11:A|T|
6592 U11:C|A|
8632 U11:C|C|
8042 U11:C|G|
5348 U11:C|T|
724 U11:G|A|
8910 U11:G|C|
9496 U11:G|G|
7752 U11:G|T|
1980 U11:T|A|
4302 U11:T|C|
6474 U11:T|G|
1136 U11:T|T|
10066 U120:*
1260 U120:0|
858 U120:1|
2076 U120:2|
3086 U120:3|
240 U120:4|
10068 U121:**
1262 U121:0|0|
5642 U121:0|1|
4146 U121:0|2|
6136 U121:0|3|
2520 U121:0|4|
5286 U121:1|0|
6282 U121:1|1|
6324 U121:1|2|
860 U121:1|3|
6112 U121:1|4|
4418 U121:2|0|
9110 U121:2|1|
2078 U121:2|2|
3650 U121:2|3|
4688 U121:2|4|
7076 U121:3|0|
7546 U121:3|2|
3088 U121:3|4|
1694 U121:4|0|
8620 U121:4|1|
5592 U121:4|2|
7246 U121:4|3|
242 U121:4|4|
10070 U122:*
1264 U122:0|
5644 U122:1|
2080 U122:2|
862 U122:3|
244 U122:4|
10072 U123:**
3960 U123:0|0|
4420 U123:0|1|
1266 U123:0|2|
8750 U123:0|3|
1696 U123:0|4|
9112 U123:1|0|
6950 U123:1|1|
9122 U123:1|2|
6744 U123:1|3|
5646 U123:1|4|
5594 U123:2|0|
8026 U123:2|1|
6968 U123:2|2|
2082 U123:2|4|
3652 U123:3|0|
7248 U123:3|1|
9658 U123:3|2|
864 U123:3|4|
246 U123:4|0|
2858 U123:4|1|
3090 U123:4|2|
2522 U123:4|4|
10074 U124:*
248 U124:0|
2860 U124:1|
1268 U124:2|
6746 U124:3|
866 U124:4|
10076 U125:**
5888 U125:0|0|
5596 U125:0|1|
8358 U125:0|2|
250 U125:0|3|
3654 U125:0|4|
4422 U125:1|0|
7250 U125:1|1|
2862 U125:1|3|
5110 U125:1|4|
3092 U125:2|0|
8510 U125:2|1|
9124 U125:2|3|
1270 U125:2|4|
8752 U125:3|0|
6748 U125:3|1|
8840 U125:3|4|
868 U125:4|0|
1698 U125:4|1|
7700 U125:4|2|
5244 U125:4|3|
7398 U125:4|4|
10078 U126:*
870 U126:0|
1700 U126:1|
7702 U126:2|
252 U126:3|
1272 U126:4|
10080 U127:**
3814 U127:0|0|
4774 U127:0|1|
2524 U127:0|2|
8058 U127:0|3|
872 U127:0|4|
6780 U127:1|0|
5598 U127:1|1|
1702 U127:1|3|
6750 U127:1|4|
7704 U127:2|0|
9810 U127:2|2|
8360 U127:2|4|
8826 U127:3|0|
8442 U127:3|1|
2864 U127:3|2|
254 U127:3|4|
5112 U127:4|0|
7324 U127:4|1|
3962 U127:4|2|
3254 U127:4|3|
1274 U127:4|4|
10082 U128:*
3816 U128:0|
4776 U128:1|
2526 U128:2|
1704 U128:3|
256 U128:4|
10084 U129:**
9506 U129:0|0|
9330 U129:0|1|
8872 U129:0|2|
8842 U129:0|3|
3818 U129:0|4|
6138 U129:1|0|
4778 U129:1|1|
5600 U129:1|4|
8330 U129:2|0|
6952 U129:2|1|
8150 U129:2|2|
2866 U129:2|3|
2528 U129:2|4|
3256 U129:3|0|
1706 U129:3|4|
3502 U129:4|0|
5890 U129:4|1|
258 U129:4|2|
8680 U129:4|3|
4424 U129:4|4|
9850 U12:*
4118 U12:A|
726 U12:C|
24 U12:G|
2414 U12:T|
10086 U130:*
3258 U130:0|
4780 U130:1|
260 U130:2|
2868 U130:3|
1708 U130:4|
10088 U131:**
3656 U131:0|0|
9014 U131:0|1|
9348 U131:0|2|
3504 U131:0|3|
3260 U131:0|4|
4782 U131:1|0|
9332 U131:1|3|
5892 U131:1|4|
2084 U131:2|0|
9760 U131:2|1|
262 U131:2|2|
9190 U131:2|4|
2870 U131:3|4|
7326 U131:4|0|
9296 U131:4|1|
1710 U131:4|2|
3820 U131:4|4|
10090 U132:*
2086 U132:0|
9016 U132:1|
264 U132:2|
3506 U132:3|
2872 U132:4|
10092 U133:**
7190 U133:0|0|
8512 U133:0|1|
7882 U133:0|2|
2088 U133:0|4|
9018 U133:1|0|
9298 U133:1|1|
9762 U133:1|3|
9400 U133:1|4|
2530 U133:2|0|
266 U133:2|2|
8874 U133:2|4|
7992 U133:3|0|
3508 U133:3|4|
6548 U133:4|0|
2874 U133:4|2|
8374 U133:4|4|
10094 U134:*
2532 U134:0|
8514 U134:1|
268 U134:2|
9764 U134:3|
2090 U134:4|
10096 U135:**
8152 U135:0|1|
2534 U135:0|2|
3964 U135:0|4|
9300 U135:1|0|
8516 U135:1|4|
1276 U135:2|0|
270 U135:2|2|
3262 U135:2|3|
7884 U135:2|4|
9766 U135:3|4|
4784 U135:4|0|
2092 U135:4|2|
9418 U135:4|3|
8948 U135:4|4|
10098 U136:*
1278 U136:0|
8154 U136:1|
272 U136:2|
3264 U136:3|
3966 U136:4|
10100 U137:**
7576 U137:0|0|
1712 U137:0|1|
8332 U137:0|2|
6492 U137:0|3|
1280 U137:0|4|
8156 U137:1|1|
274 U137:2|0|
5114 U137:2|2|
2536 U137:2|4|
9420 U137:3|1|
3266 U137:3|2|
3968 U137:4|0|
8792 U137:4|1|
8726 U137:4|2|
9670 U137:4|3|
9264 U137:4|4|
10102 U138:*
276 U138:0|
1714 U138:1|
3268 U138:2|
6494 U138:3|
1282 U138:4|
10104 U139:**
3658 U139:0|0|
278 U139:0|1|
6452 U139:0|2|
6380 U139:0|3|
3970 U139:0|4|
8794 U139:1|0|
1716 U139:1|1|
4338 U139:1|4|
5116 U139:2|0|
8280 U139:2|2|
3270 U139:2|4|
9672 U139:3|0|
6496 U139:3|1|
1284 U139:4|0|
4540 U139:4|1|
8640 U139:4|2|
7328 U139:4|3|
5560 U139:4|4|
9852 U13:**
8734 U13:A|A|
6772 U13:A|C|
4120 U13:A|T|
7844 U13:C|A|
7806 U13:C|C|
728 U13:C|T|
5006 U13:G|A|
1982 U13:G|C|
5516 U13:G|G|
26 U13:G|T|
4492 U13:T|A|
3920 U13:T|C|
2416 U13:T|T|
10106 U140:*
1286 U140:0|
280 U140:1|
6454 U140:2|
6382 U140:3|
3272 U140:4|
10108 U141:**
6970 U141:0|0|
1288 U141:0|2|
282 U141:1|0|
6456 U141:2|0|
7886 U141:2|2|
6384 U141:3|0|
3274 U141:4|0|
10110 U142:*
284 U142:0|
1290 U142:2|
10112 U143:**
286 U143:0|+|
1292 U143:2|+|
10114 U144:*
288 U144:+|
10116 U145:**
9508 U145:+|4|
290 U145:+|5|
10118 U146:**
3276 U146:+|2|
3972 U146:+|3|
292 U146:+|4|
1294 U146:+|5|
10120 U147:*
9510 U147:4|
294 U147:5|
10122 U148:**
9512 U148:4|3|
6140 U148:5|2|
874 U148:5|3|
296 U148:5|4|
10124 U149:**
9514 U149:4|2|
8282 U149:5|0|
5562 U149:5|1|
298 U149:5|2|
2538 U149:5|3|
1296 U149:5|4|
7888 U149:5|5|
9854 U14:**
4122 U14:A|A|
8736 U14:A|C|
7648 U14:A|T|
730 U14:C|A|
7234 U14:C|C|
7808 U14:C|T|
28 U14:G|A|
8142 U14:G|C|
3168 U14:G|G|
6530 U14:G|T|
4494 U14:T|A|
8494 U14:T|C|
9790 U14:T|G|
2418 U14:T|T|
10126 U150:*
6142 U150:2|
876 U150:3|
300 U150:4|
10128 U151:**
6144 U151:2|1|
6602 U151:3|1|
878 U151:3|2|
5032 U151:3|3|
1298 U151:4|2|
302 U151:4|3|
7478 U151:4|4|
8518 U151:4|5|
10130 U152:**
6146 U152:2|1|
7846 U152:3|0|
880 U152:3|1|
5034 U152:3|2|
7654 U152:3|3|
5118 U152:4|0|
304 U152:4|1|
3278 U152:4|2|
1300 U152:4|3|
8334 U152:4|4|
10132 U153:*
6148 U153:1|
882 U153:2|
306 U153:3|
7480 U153:4|
8520 U153:5|
10134 U154:**
7818 U154:1|0|
6150 U154:1|2|
8876 U154:2|1|
1302 U154:2|2|
884 U154:2|3|
6876 U154:2|4|
6030 U154:3|2|
308 U154:3|3|
2540 U154:3|4|
9580 U154:3|5|
7482 U154:4|5|
8522 U154:5|5|
10136 U155:**
6604 U155:1|0|
6152 U155:1|1|
7820 U155:1|2|
886 U155:2|0|
2094 U155:2|1|
1304 U155:2|2|
5472 U155:2|3|
7656 U155:2|4|
310 U155:3|0|
1718 U155:3|1|
3280 U155:3|2|
2542 U155:3|3|
7078 U155:3|4|
9460 U155:3|5|
7484 U155:4|0|
8524 U155:5|3|
10138 U156:*
7822 U156:0|
8878 U156:1|
1306 U156:2|
312 U156:3|
2544 U156:4|
7486 U156:5|
10140 U157:**
7824 U157:0|0|
8714 U157:0|2|
8880 U157:1|0|
8754 U157:2|0|
1308 U157:2|1|
2096 U157:2|2|
8120 U157:2|3|
314 U157:3|1|
888 U157:3|2|
3822 U157:3|3|
5764 U157:3|4|
6420 U157:4|2|
4630 U157:4|3|
2546 U157:4|4|
7488 U157:5|4|
8526 U157:5|5|
10142 U158:**
8716 U158:0|0|
7826 U158:0|2|
8882 U158:1|2|
1310 U158:2|0|
2098 U158:2|1|
3660 U158:2|2|
7994 U158:2|3|
7080 U158:2|4|
9350 U158:2|5|
316 U158:3|0|
2876 U158:3|1|
5798 U158:3|2|
3282 U158:3|3|
7890 U158:3|4|
8950 U158:3|5|
4632 U158:4|0|
9436 U158:4|1|
2548 U158:4|2|
9020 U158:4|3|
7490 U158:5|0|
8528 U158:5|2|
9582 U158:5|3|
10144 U159:*
7828 U159:0|
318 U159:1|
890 U159:2|
3824 U159:3|
2550 U159:4|
8530 U159:5|
9856 U15:*
4496 U15:A|
1984 U15:C|
5518 U15:G|
30 U15:T|
10146 U160:**
8756 U160:0|0|
7830 U160:0|2|
1312 U160:1|1|
320 U160:1|2|
4730 U160:1|3|
4340 U160:2|1|
892 U160:2|2|
2100 U160:2|3|
5218 U160:2|4|
6070 U160:3|2|
3826 U160:3|3|
7252 U160:3|4|
7706 U160:3|5|
5766 U160:4|2|
2552 U160:4|3|
8624 U160:4|4|
9742 U160:4|5|
8532 U160:5|4|
10148 U161:**
7832 U161:0|0|
9180 U161:0|1|
8758 U161:0|3|
8884 U161:0|5|
322 U161:1|0|
1720 U161:1|1|
4786 U161:1|2|
2878 U161:1|3|
9334 U161:1|4|
9192 U161:1|5|
894 U161:2|0|
2102 U161:2|1|
5474 U161:2|2|
8682 U161:2|3|
9718 U161:2|4|
3828 U161:3|0|
8122 U161:3|1|
6878 U161:3|2|
9134 U161:3|4|
8952 U161:3|5|
7492 U161:4|0|
2554 U161:4|1|
8626 U161:4|2|
9022 U161:4|3|
9516 U161:4|4|
8534 U161:5|1|
10150 U162:*
8760 U162:0|
1314 U162:1|
324 U162:2|
2104 U162:3|
5220 U162:4|
7708 U162:5|
10152 U163:**
8886 U163:0|0|
8762 U163:0|1|
6662 U163:1|0|
1316 U163:1|1|
2880 U163:1|2|
9720 U163:2|0|
896 U163:2|1|
1722 U163:2|2|
326 U163:2|3|
9734 U163:3|1|
2556 U163:3|2|
2106 U163:3|3|
3830 U163:3|4|
8628 U163:4|2|
5222 U163:4|3|
6630 U163:4|4|
9158 U163:5|4|
7710 U163:5|5|
10154 U164:**
9182 U164:0|2|
8764 U164:0|3|
8888 U164:0|5|
4426 U164:1|0|
1318 U164:1|1|
4788 U164:1|2|
2882 U164:1|3|
3662 U164:1|4|
6690 U164:1|5|
4148 U164:2|0|
328 U164:2|1|
5288 U164:2|2|
1724 U164:2|3|
5996 U164:2|4|
8954 U164:2|5|
7494 U164:3|0|
3974 U164:3|1|
2108 U164:3|2|
2558 U164:3|3|
7934 U164:3|4|
5224 U164:4|1|
7170 U164:4|2|
8536 U164:4|3|
9574 U164:5|0|
7712 U164:5|1|
9744 U164:5|4|
10156 U165:*
6664 U165:0|
898 U165:1|
1726 U165:2|
330 U165:3|
3832 U165:4|
7714 U165:5|
10158 U166:**
7412 U166:0|0|
6666 U166:0|1|
8890 U166:0|2|
9736 U166:1|0|
4082 U166:1|1|
2330 U166:1|2|
900 U166:1|3|
3976 U166:2|1|
2560 U166:2|2|
1728 U166:2|3|
5998 U166:2|4|
8300 U166:2|5|
2110 U166:3|1|
3510 U166:3|2|
4218 U166:3|3|
4634 U166:3|4|
332 U166:3|5|
6616 U166:4|2|
9082 U166:4|3|
6632 U166:4|4|
3834 U166:4|5|
7716 U166:5|5|
10160 U167:**
6668 U167:0|2|
7414 U167:0|3|
8892 U167:0|4|
8158 U167:1|0|
4428 U167:1|1|
902 U167:1|2|
1320 U167:1|3|
3664 U167:1|4|
9706 U167:2|0|
8932 U167:2|1|
2884 U167:2|2|
5446 U167:2|3|
1730 U167:2|4|
7496 U167:3|0|
7400 U167:3|1|
2112 U167:3|2|
334 U167:3|3|
8406 U167:3|4|
8418 U167:3|5|
7892 U167:4|1|
3836 U167:4|2|
6782 U167:4|3|
7718 U167:5|1|
10162 U168:*
7416 U168:0|
2114 U168:1|
2332 U168:2|
904 U168:3|
4636 U168:4|
336 U168:5|
10164 U169:**
7418 U169:0|0|
8814 U169:0|1|
8132 U169:0|2|
7254 U169:1|0|
3978 U169:1|1|
2116 U169:1|2|
9378 U169:1|3|
5702 U169:2|0|
3094 U169:2|1|
2562 U169:2|2|
2334 U169:2|3|
5768 U169:2|4|
7858 U169:3|1|
4220 U169:3|2|
1322 U169:3|3|
1732 U169:3|4|
906 U169:3|5|
6230 U169:4|2|
5680 U169:4|3|
4956 U169:4|4|
4638 U169:4|5|
8992 U169:5|3|
7498 U169:5|4|
338 U169:5|5|
9858 U16:**
8296 U16:A|A|
4498 U16:A|C|
5008 U16:A|G|
1986 U16:C|A|
2772 U16:C|C|
5430 U16:C|G|
5750 U16:C|T|
5520 U16:G|A|
7868 U16:G|G|
2420 U16:T|A|
5206 U16:T|C|
32 U16:T|G|
7672 U16:T|T|
10166 U170:**
9722 U170:0|1|
7452 U170:0|2|
8114 U170:0|3|
7420 U170:0|4|
9222 U170:0|5|
7256 U170:1|0|
8998 U170:1|1|
5036 U170:1|2|
2118 U170:1|3|
8028 U170:1|4|
9812 U170:2|0|
4790 U170:2|1|
3096 U170:2|2|
2336 U170:2|3|
5648 U170:2|4|
9458 U170:2|5|
8160 U170:3|0|
5602 U170:3|1|
1734 U170:3|2|
4840 U170:3|3|
908 U170:3|4|
1324 U170:3|5|
7402 U170:4|1|
5682 U170:4|2|
4640 U170:4|3|
5944 U170:4|4|
9570 U170:4|5|
7500 U170:5|1|
4150 U170:5|2|
340 U170:5|3|
8476 U170:5|4|
10168 U171:*
5704 U171:0|
3098 U171:1|
2120 U171:2|
1326 U171:3|
1736 U171:4|
342 U171:5|
10170 U172:**
5706 U172:0|0|
8994 U172:0|1|
7454 U172:0|2|
4896 U172:1|0|
5534 U172:1|1|
3100 U172:1|2|
6154 U172:1|3|
5290 U172:2|0|
3512 U172:2|1|
2122 U172:2|2|
4222 U172:2|3|
6670 U172:2|4|
7120 U172:3|1|
4792 U172:3|2|
1328 U172:3|3|
2338 U172:3|4|
3284 U172:3|5|
7502 U172:4|2|
4958 U172:4|3|
1738 U172:4|4|
3666 U172:4|5|
3838 U172:5|3|
344 U172:5|4|
4152 U172:5|5|
10172 U173:**
8866 U173:0|0|
7258 U173:0|1|
7422 U173:0|2|
5708 U173:0|3|
8468 U173:0|4|
9224 U173:0|5|
9000 U173:1|0|
7864 U173:1|1|
3102 U173:1|2|
3980 U173:1|3|
8420 U173:1|4|
8700 U173:1|5|
8454 U173:2|0|
2564 U173:2|1|
3514 U173:2|2|
2124 U173:2|3|
8438 U173:2|4|
8220 U173:3|0|
4794 U173:3|1|
2886 U173:3|2|
2340 U173:3|3|
1330 U173:3|4|
6972 U173:4|0|
4842 U173:4|1|
1740 U173:4|2|
3668 U173:4|3|
7744 U173:4|4|
9602 U173:5|0|
5966 U173:5|1|
4342 U173:5|2|
346 U173:5|3|
9236 U173:5|4|
10174 U174:*
4898 U174:0|
3516 U174:1|
2126 U174:2|
1332 U174:3|
348 U174:4|
3286 U174:5|
10176 U175:**
5292 U175:0|0|
4900 U175:0|1|
7424 U175:0|2|
7032 U175:1|0|
6498 U175:1|1|
3518 U175:1|2|
8844 U175:1|3|
7442 U175:2|0|
5604 U175:2|1|
2128 U175:2|2|
4084 U175:2|3|
8060 U175:2|4|
7012 U175:3|0|
8444 U175:3|1|
1334 U175:3|2|
3840 U175:3|3|
7384 U175:3|4|
2888 U175:3|5|
910 U175:4|2|
350 U175:4|3|
1742 U175:4|4|
7330 U175:4|5|
5736 U175:5|3|
3288 U175:5|4|
6550 U175:5|5|
10178 U176:**
6784 U176:0|1|
5294 U176:0|2|
5246 U176:0|3|
4902 U176:0|4|
5710 U176:0|5|
8766 U176:1|1|
3520 U176:1|2|
7034 U176:1|3|
7122 U176:1|4|
5536 U176:1|5|
6936 U176:2|0|
2566 U176:2|1|
4086 U176:2|2|
3104 U176:2|3|
6072 U176:2|4|
2130 U176:2|5|
4224 U176:3|0|
4990 U176:3|1|
4272 U176:3|2|
1336 U176:3|3|
4960 U176:3|4|
3842 U176:3|5|
6974 U176:4|0|
1744 U176:4|1|
4344 U176:4|2|
352 U176:4|3|
912 U176:4|4|
6526 U176:4|5|
5968 U176:5|0|
4844 U176:5|1|
5738 U176:5|2|
3670 U176:5|3|
3290 U176:5|4|
5226 U176:5|5|
10180 U177:*
5296 U177:0|
4904 U177:1|
914 U177:2|
354 U177:3|
1746 U177:4|
2890 U177:5|
10182 U178:**
5298 U178:0|0|
6786 U178:0|1|
7036 U178:0|2|
7936 U178:1|0|
4906 U178:1|1|
6718 U178:1|2|
6500 U178:1|3|
5980 U178:2|0|
4962 U178:2|1|
916 U178:2|2|
3106 U178:2|3|
6814 U178:2|4|
9702 U178:3|0|
6114 U178:3|1|
3844 U178:3|2|
356 U178:3|3|
5372 U178:3|4|
4430 U178:3|5|
1748 U178:4|2|
3672 U178:4|3|
5650 U178:4|4|
8230 U178:4|5|
6552 U178:5|3|
2892 U178:5|4|
8894 U178:5|5|
10184 U179:**
8200 U179:0|1|
6788 U179:0|2|
5300 U179:0|3|
8350 U179:0|4|
5712 U179:0|5|
9414 U179:1|0|
9118 U179:1|1|
7160 U179:1|2|
4908 U179:1|3|
6074 U179:1|4|
6502 U179:1|5|
7956 U179:2|0|
2568 U179:2|1|
1338 U179:2|2|
918 U179:2|3|
6422 U179:2|4|
2132 U179:2|5|
8184 U179:3|0|
4542 U179:3|1|
4226 U179:3|2|
4088 U179:3|3|
358 U179:3|4|
3846 U179:3|5|
6284 U179:4|0|
1750 U179:4|2|
5652 U179:4|3|
3292 U179:4|4|
5228 U179:4|5|
8852 U179:5|1|
2894 U179:5|2|
6554 U179:5|3|
9430 U179:5|4|
7332 U179:5|5|
9860 U17:**
4500 U17:A|A|
9396 U17:A|G|
7434 U17:A|T|
2774 U17:C|A|
9676 U17:C|C|
1988 U17:C|G|
6224 U17:C|T|
5522 U17:G|A|
7870 U17:G|T|
34 U17:T|A|
3170 U17:T|C|
5514 U17:T|G|
3606 U17:T|T|
10186 U180:*
5302 U180:0|
4910 U180:1|
920 U180:2|
360 U180:3|
2896 U180:4|
4432 U180:5|
10188 U181:**
7938 U181:0|0|
5304 U181:0|1|
8202 U181:0|2|
5858 U181:1|0|
4912 U181:1|1|
5606 U181:1|2|
9634 U181:1|3|
1340 U181:2|1|
3522 U181:2|2|
922 U181:2|3|
5828 U181:2|4|
7504 U181:2|5|
4228 U181:3|1|
2342 U181:3|2|
362 U181:3|3|
6364 U181:3|4|
7172 U181:3|5|
5684 U181:4|2|
2898 U181:4|3|
5374 U181:4|4|
8466 U181:4|5|
8232 U181:5|3|
4434 U181:5|4|
9172 U181:5|5|
10190 U182:**
7144 U182:0|2|
5306 U182:0|3|
7444 U182:0|4|
5714 U182:0|5|
8126 U182:1|0|
6116 U182:1|1|
4914 U182:1|2|
4964 U182:1|3|
5608 U182:1|4|
6326 U182:2|0|
1752 U182:2|1|
1342 U182:2|2|
924 U182:2|3|
3294 U182:2|4|
3848 U182:2|5|
5120 U182:3|1|
3674 U182:3|2|
364 U182:3|3|
5476 U182:3|4|
7554 U182:3|5|
9822 U182:4|0|
8062 U182:4|1|
2900 U182:4|2|
5654 U182:4|3|
6890 U182:4|4|
7334 U182:4|5|
9518 U182:5|1|
8896 U182:5|2|
4436 U182:5|3|
8732 U182:5|4|
10192 U183:*
5860 U183:0|
1344 U183:1|
2344 U183:2|
366 U183:3|
4438 U183:4|
7174 U183:5|
10194 U184:**
9194 U184:0|0|
6232 U184:0|1|
5862 U184:0|2|
6650 U184:1|0|
1754 U184:1|1|
1346 U184:1|2|
7014 U184:1|3|
3524 U184:2|1|
3676 U184:2|2|
2346 U184:2|3|
6386 U184:2|4|
2902 U184:3|1|
2134 U184:3|2|
5538 U184:3|3|
368 U184:3|4|
7608 U184:4|2|
5376 U184:4|3|
4440 U184:4|4|
6366 U184:4|5|
9174 U184:5|3|
7176 U184:5|4|
7368 U184:5|5|
10196 U185:**
9196 U185:0|0|
6828 U185:0|1|
6234 U185:0|2|
9370 U185:0|3|
5864 U185:0|4|
7124 U185:1|0|
4992 U185:1|1|
1756 U185:1|2|
1348 U185:1|3|
5716 U185:1|4|
7016 U185:1|5|
9326 U185:2|0|
4274 U185:2|1|
2348 U185:2|2|
4846 U185:2|3|
3850 U185:2|4|
6388 U185:2|5|
2904 U185:3|1|
2136 U185:3|2|
926 U185:3|3|
370 U185:3|4|
8248 U185:3|5|
7610 U185:4|1|
8186 U185:4|2|
5378 U185:4|3|
4442 U185:4|4|
7626 U185:4|5|
7178 U185:5|2|
7506 U185:5|3|
7370 U185:5|4|
8768 U185:5|5|
10198 U186:*
6652 U186:0|
1758 U186:1|
1350 U186:2|
2350 U186:3|
372 U186:4|
6368 U186:5|
10200 U187:**
7126 U187:0|0|
9040 U187:0|1|
6654 U187:0|2|
8204 U187:1|0|
2906 U187:1|1|
1760 U187:1|2|
6620 U187:1|3|
4796 U187:2|1|
2138 U187:2|2|
1352 U187:2|3|
3852 U187:2|4|
5122 U187:3|1|
2352 U187:3|2|
5380 U187:3|3|
4642 U187:3|4|
7018 U187:3|5|
7180 U187:4|2|
928 U187:4|3|
374 U187:4|4|
6390 U187:4|5|
6370 U187:5|3|
7372 U187:5|4|
8770 U187:5|5|
10202 U188:*
7128 U188:0|
2908 U188:1|
1762 U188:2|
930 U188:3|
376 U188:4|
6392 U188:5|
10204 U189:**
8956 U189:0|0|
8684 U189:0|1|
7130 U189:0|2|
6328 U189:1|0|
4544 U189:1|1|
2910 U189:1|2|
5982 U189:1|3|
1764 U189:2|1|
2570 U189:2|2|
2140 U189:2|3|
3296 U189:2|4|
6286 U189:3|1|
1354 U189:3|2|
932 U189:3|3|
5478 U189:3|4|
9328 U189:3|5|
8162 U189:4|2|
378 U189:4|3|
4154 U189:4|4|
3854 U189:4|5|
8772 U189:5|2|
6394 U189:5|4|
7020 U189:5|5|
9862 U18:*
1990 U18:A|
2776 U18:C|
36 U18:G|
5752 U18:T|
10206 U190:*
6330 U190:0|
1766 U190:1|
1356 U190:2|
380 U190:3|
3298 U190:4|
3856 U190:5|
10208 U191:**
7958 U191:0|0|
6332 U191:0|1|
8226 U191:0|2|
6288 U191:1|0|
4546 U191:1|1|
1768 U191:1|2|
8674 U191:2|0|
2572 U191:2|1|
1358 U191:2|2|
4916 U191:2|3|
6996 U191:2|4|
6824 U191:3|1|
4444 U191:3|2|
934 U191:3|3|
382 U191:3|4|
2142 U191:3|5|
8480 U191:4|2|
5480 U191:4|3|
3300 U191:4|4|
5230 U191:4|5|
9674 U191:5|3|
7556 U191:5|4|
3858 U191:5|5|
10210 U192:*
6290 U192:0|
2574 U192:1|
1360 U192:2|
936 U192:3|
384 U192:4|
2144 U192:5|
10212 U193:**
8188 U193:0|0|
9126 U193:0|1|
6292 U193:0|2|
8222 U193:1|0|
2576 U193:1|1|
5124 U193:1|2|
4230 U193:2|0|
1770 U193:2|1|
4276 U193:2|2|
1362 U193:2|3|
8940 U193:2|4|
8456 U193:3|1|
3526 U193:3|2|
3108 U193:3|3|
938 U193:3|4|
6622 U193:4|2|
386 U193:4|3|
3302 U193:4|4|
7758 U193:4|5|
7022 U193:5|3|
7374 U193:5|4|
2146 U193:5|5|
10214 U194:*
4232 U194:0|
1772 U194:1|
3528 U194:2|
388 U194:3|
940 U194:4|
2148 U194:5|
10216 U195:**
6976 U195:0|0|
4234 U195:0|1|
8458 U195:1|0|
2578 U195:1|1|
1774 U195:1|2|
8774 U195:1|3|
4278 U195:2|1|
3530 U195:2|2|
4446 U195:2|3|
9388 U195:3|1|
2912 U195:3|2|
390 U195:3|3|
1364 U195:3|4|
6752 U195:4|2|
942 U195:4|3|
6692 U195:4|4|
2150 U195:5|3|
7760 U195:5|4|
8702 U195:5|5|
10218 U196:*
6978 U196:0|
2580 U196:1|
1776 U196:2|
392 U196:3|
1366 U196:4|
8704 U196:5|
10220 U197:**
9002 U197:0|1|
6980 U197:0|2|
7260 U197:1|0|
4798 U197:1|1|
4236 U197:1|2|
2582 U197:1|3|
9814 U197:2|0|
6720 U197:2|1|
1778 U197:2|2|
2914 U197:2|3|
5946 U197:2|4|
8446 U197:3|1|
3304 U197:3|2|
394 U197:3|3|
944 U197:3|4|
8796 U197:4|2|
6954 U197:4|3|
6694 U197:4|4|
1368 U197:4|5|
8706 U197:5|3|
9226 U197:5|5|
10222 U198:*
7262 U198:0|
4800 U198:1|
1780 U198:2|
396 U198:3|
946 U198:4|
1370 U198:5|
10224 U199:**
8164 U199:0|0|
7264 U199:0|2|
7508 U199:1|0|
4802 U199:1|1|
5610 U199:1|2|
7578 U199:1|3|
4448 U199:2|1|
3110 U199:2|2|
4994 U199:2|3|
1782 U199:2|4|
8478 U199:3|1|
2152 U199:3|2|
398 U199:3|3|
2584 U199:3|4|
948 U199:4|2|
5740 U199:4|3|
3678 U199:4|4|
8422 U199:4|5|
1372 U199:5|3|
9864 U19:**
4678 U19:A|A|
6614 U19:A|C|
1992 U19:A|G|
2422 U19:A|T|
4718 U19:C|A|
2778 U19:C|C|
7924 U19:C|G|
4502 U19:C|T|
732 U19:G|A|
1582 U19:G|C|
3040 U19:G|G|
38 U19:G|T|
9276 U19:T|A|
9316 U19:T|C|
5754 U19:T|G|
7674 U19:T|T|
9828 U1:**
2 U1:C|A|
10226 U200:*
7510 U200:0|
4450 U200:1|
950 U200:2|
400 U200:3|
1784 U200:4|
8424 U200:5|
10228 U201:**
7512 U201:0|0|
9564 U201:0|2|
4452 U201:1|0|
5126 U201:1|1|
4804 U201:1|2|
9422 U201:1|3|
4156 U201:2|0|
952 U201:2|1|
2154 U201:2|2|
2916 U201:2|3|
402 U201:3|1|
4732 U201:3|2|
3532 U201:3|3|
6000 U201:3|4|
9452 U201:4|2|
1786 U201:4|3|
3680 U201:4|4|
6696 U201:4|5|
8426 U201:5|3|
10230 U202:*
4158 U202:0|
404 U202:1|
2156 U202:2|
1788 U202:3|
3682 U202:4|
6698 U202:5|
10232 U203:**
4160 U203:0|0|
406 U203:1|0|
3982 U203:1|1|
7558 U203:1|2|
3860 U203:2|0|
2158 U203:2|1|
4806 U203:2|2|
6556 U203:2|3|
9136 U203:2|4|
1790 U203:3|1|
4848 U203:3|2|
2918 U203:3|3|
9336 U203:3|4|
9738 U203:3|5|
6002 U203:4|2|
3684 U203:4|3|
9462 U203:4|4|
9198 U203:4|5|
6700 U203:5|3|
8898 U203:5|5|
10234 U204:*
408 U204:0|
1792 U204:1|
4808 U204:2|
2920 U204:3|
9138 U204:4|
8900 U204:5|
10236 U205:**
410 U205:0|0|
8166 U205:0|1|
7658 U205:0|2|
1794 U205:1|0|
2160 U205:1|1|
2586 U205:1|2|
4850 U205:2|0|
5894 U205:2|1|
5308 U205:2|2|
4810 U205:2|3|
7894 U205:2|4|
2922 U205:3|1|
3686 U205:3|2|
3306 U205:3|3|
7082 U205:3|4|
9140 U205:4|3|
9464 U205:4|4|
8902 U205:5|2|
9200 U205:5|4|
8958 U205:5|5|
10238 U206:*
412 U206:0|
2162 U206:1|
2588 U206:2|
3308 U206:3|
7084 U206:4|
8960 U206:5|
10240 U207:**
414 U207:0|0|
1796 U207:0|1|
1374 U207:0|2|
2924 U207:1|0|
2164 U207:1|1|
5382 U207:1|2|
9402 U207:2|0|
3688 U207:2|1|
3984 U207:2|2|
2590 U207:2|3|
7660 U207:2|4|
9338 U207:3|1|
3310 U207:3|2|
7996 U207:3|3|
7896 U207:4|3|
7086 U207:4|4|
9466 U207:4|5|
8962 U207:5|3|
10242 U208:*
416 U208:0|
1798 U208:1|
1376 U208:2|
2592 U208:3|
7088 U208:4|
9468 U208:5|
10244 U209:**
5128 U209:0|0|
418 U209:0|1|
4280 U209:0|2|
9340 U209:1|0|
1800 U209:1|1|
3690 U209:1|2|
9740 U209:1|3|
3534 U209:2|1|
3312 U209:2|2|
1378 U209:2|3|
8336 U209:2|4|
9584 U209:3|1|
5482 U209:3|2|
2594 U209:3|3|
9482 U209:3|4|
7090 U209:4|3|
9202 U209:4|4|
9470 U209:5|3|
9866 U20:**
1994 U20:A|A|
8738 U20:A|C|
3776 U20:A|G|
6938 U20:A|T|
4504 U20:C|A|
2780 U20:C|C|
4720 U20:C|G|
8236 U20:C|T|
40 U20:G|A|
3608 U20:G|C|
3452 U20:G|G|
3172 U20:G|T|
7676 U20:T|A|
9318 U20:T|C|
5756 U20:T|G|
9498 U20:T|T|
10246 U210:*
5130 U210:0|
420 U210:1|
3314 U210:2|
1380 U210:3|
8338 U210:4|
10248 U211:**
8284 U211:0|0|
8828 U211:0|1|
5132 U211:0|2|
5564 U211:1|1|
422 U211:1|2|
7426 U211:1|3|
3316 U211:2|2|
4346 U211:2|3|
3692 U211:2|4|
8854 U211:2|5|
8538 U211:3|2|
2596 U211:3|3|
1382 U211:3|4|
7898 U211:3|5|
9204 U211:4|3|
8340 U211:4|4|
10250 U212:*
8286 U212:0|
5566 U212:1|
424 U212:2|
2598 U212:3|
1384 U212:4|
7900 U212:5|
10252 U213:**
8288 U213:0|2|
5568 U213:1|2|
8830 U213:1|3|
3318 U213:2|2|
3986 U213:2|3|
426 U213:2|4|
5134 U213:2|5|
4644 U213:3|2|
4348 U213:3|3|
4454 U213:3|4|
2600 U213:3|5|
7580 U213:4|4|
1386 U213:4|5|
7902 U213:5|5|
10254 U214:*
3320 U214:2|
3988 U214:3|
428 U214:4|
1388 U214:5|
10256 U215:**
3322 U215:2|+|
3990 U215:3|+|
430 U215:4|+|
1390 U215:5|+|
10258 U216:*
432 U216:+|
10260 U217:**
434 U217:+|0.4|
10262 U218:**
436 U218:+|-0.3|
3992 U218:+|-0.6|
3324 U218:+|-0.7|
1392 U218:+|0.1|
10264 U219:*
438 U219:0.4|
9868 U21:*
734 U21:A|
1584 U21:C|
1996 U21:G|
42 U21:T|
10266 U220:**
6156 U220:0.4|-0.3|
440 U220:0.4|-0.6|
8540 U220:0.4|-0.7|
10268 U221:**
442 U221:0.4|-0.1|
1394 U221:0.4|-0.3|
2602 U221:0.4|-0.6|
5136 U221:0.4|-0.7|
3326 U221:0.4|0.1|
3994 U221:0.4|0.4|
6458 U221:0.4|0.7|
10270 U222:*
6158 U222:-0.3|
444 U222:-0.6|
8542 U222:-0.7|
10272 U223:**
9520 U223:-0.3|-0.1|
9586 U223:-0.3|-0.6|
6160 U223:-0.3|0.1|
5384 U223:-0.6|-0.1|
1396 U223:-0.6|-0.3|
446 U223:-0.6|0.4|
954 U223:-0.6|0.7|
8544 U223:-0.7|0.1|
10274 U224:**
6162 U224:-0.3|-0.1|
9522 U224:-0.3|-0.6|
1802 U224:-0.6|-0.1|
6076 U224:-0.6|-0.3|
448 U224:-0.6|-0.6|
3996 U224:-0.6|-0.7|
1398 U224:-0.6|0.1|
2604 U224:-0.6|0.4|
3328 U224:-0.6|0.7|
8546 U224:-0.7|-0.6|
9266 U224:-0.7|0.1|
10276 U225:*
5386 U225:-0.1|
1400 U225:-0.3|
9588 U225:-0.6|
6164 U225:0.1|
450 U225:0.4|
956 U225:0.7|
10278 U226:**
6606 U226:-0.1|-0.1|
8064 U226:-0.1|-0.3|
7662 U226:-0.1|0.4|
5388 U226:-0.1|0.7|
4350 U226:-0.3|0.1|
1402 U226:-0.3|0.4|
9590 U226:-0.6|0.1|
9268 U226:0.1|-0.1|
6166 U226:0.1|-0.3|
8548 U226:0.1|0.1|
9240 U226:0.1|0.4|
452 U226:0.4|-0.3|
6424 U226:0.4|-0.6|
2606 U226:0.4|-0.7|
4162 U226:0.4|0.1|
5038 U226:0.7|-0.1|
958 U226:0.7|-0.3|
6880 U226:0.7|-0.6|
7998 U226:0.7|0.1|
10280 U227:**
8066 U227:-0.1|-0.3|
8642 U227:-0.1|-0.6|
5390 U227:-0.1|-0.7|
6608 U227:-0.1|0.1|
9524 U227:-0.1|0.4|
6504 U227:-0.3|-0.3|
4352 U227:-0.3|-0.6|
1404 U227:-0.3|-0.7|
2166 U227:-0.3|0.1|
8964 U227:-0.3|0.4|
9592 U227:-0.6|-0.3|
6168 U227:0.1|-0.6|
9242 U227:0.1|0.1|
8550 U227:0.1|0.4|
8168 U227:0.4|-0.1|
3330 U227:0.4|-0.3|
1804 U227:0.4|-0.6|
4548 U227:0.4|-0.7|
454 U227:0.4|0.1|
6558 U227:0.4|0.4|
8918 U227:0.7|-0.6|
7762 U227:0.7|-0.7|
960 U227:0.7|0.1|
10282 U228:*
5040 U228:-0.1|
456 U228:-0.3|
6426 U228:-0.6|
2608 U228:-0.7|
4164 U228:0.1|
1406 U228:0.4|
5392 U228:0.7|
10284 U229:**
7834 U229:-0.1|-0.1|
5770 U229:-0.1|-0.3|
7764 U229:-0.1|-0.6|
5042 U229:-0.1|0.1|
7848 U229:-0.1|0.4|
5540 U229:-0.3|-0.1|
962 U229:-0.3|-0.3|
458 U229:-0.3|-0.6|
6032 U229:-0.3|0.1|
8822 U229:-0.6|-0.1|
6428 U229:-0.6|-0.3|
6882 U229:-0.6|0.1|
9438 U229:-0.6|0.4|
2610 U229:-0.7|0.1|
8966 U229:0.1|-0.1|
6078 U229:0.1|-0.3|
6790 U229:0.1|-0.6|
4166 U229:0.1|-0.7|
7514 U229:0.1|0.1|
2168 U229:0.4|-0.3|
1408 U229:0.4|-0.6|
7664 U229:0.4|-0.7|
6334 U229:0.4|0.1|
8644 U229:0.7|-0.3|
5394 U229:0.7|-0.6|
9870 U22:**
6658 U22:A|A|
1138 U22:A|C|
3174 U22:A|G|
736 U22:A|T|
1586 U22:C|A|
5076 U22:C|C|
6308 U22:C|G|
2782 U22:C|T|
3042 U22:G|A|
7108 U22:G|C|
6476 U22:G|G|
1998 U22:G|T|
2424 U22:T|A|
6832 U22:T|C|
4506 U22:T|G|
44 U22:T|T|
10286 U230:**
9526 U230:-0.1|-0.3|
7836 U230:-0.1|-0.7|
5044 U230:-0.1|0.1|
9302 U230:-0.3|-0.1|
7192 U230:-0.3|-0.6|
6560 U230:-0.3|-0.7|
460 U230:-0.3|0.1|
3536 U230:-0.3|0.4|
3332 U230:-0.3|0.7|
7266 U230:-0.6|-0.6|
8728 U230:-0.6|-0.7|
6430 U230:-0.6|0.1|
8808 U230:-0.7|-0.6|
2612 U230:-0.7|-0.7|
4550 U230:-0.7|0.1|
9796 U230:-0.7|0.4|
8552 U230:0.1|-0.1|
8000 U230:0.1|-0.3|
9234 U230:0.1|-0.7|
4168 U230:0.1|0.1|
9142 U230:0.1|0.4|
7666 U230:0.4|-0.7|
1410 U230:0.4|0.1|
5396 U230:0.7|0.1|
10288 U231:*
5542 U231:-0.1|
964 U231:-0.3|
462 U231:-0.6|
4170 U231:-0.7|
2614 U231:0.1|
7850 U231:0.4|
10290 U232:**
7838 U232:-0.1|-0.1|
5544 U232:-0.1|0.1|
8718 U232:-0.1|0.4|
8824 U232:-0.1|0.7|
2926 U232:-0.3|-0.1|
5772 U232:-0.3|-0.3|
7268 U232:-0.3|0.1|
966 U232:-0.3|0.4|
5448 U232:-0.3|0.7|
9220 U232:-0.6|-0.1|
4690 U232:-0.6|0.1|
464 U232:-0.6|0.4|
7612 U232:-0.6|0.7|
5484 U232:-0.7|0.1|
4172 U232:-0.7|0.4|
5046 U232:0.1|-0.3|
4552 U232:0.1|-0.6|
2616 U232:0.1|0.1|
3998 U232:0.1|0.4|
9238 U232:0.1|0.7|
7852 U232:0.4|-0.3|
9616 U232:0.4|-0.6|
10292 U233:**
7904 U233:-0.1|-0.7|
5546 U233:-0.1|0.1|
9166 U233:-0.3|-0.1|
2170 U233:-0.3|-0.3|
8646 U233:-0.3|-0.6|
6236 U233:-0.3|-0.7|
968 U233:-0.3|0.1|
2928 U233:-0.3|0.4|
9304 U233:-0.6|-0.1|
3538 U233:-0.6|-0.3|
9052 U233:-0.6|-0.6|
5800 U233:-0.6|-0.7|
466 U233:-0.6|0.1|
5896 U233:-0.6|0.4|
9692 U233:-0.6|0.7|
8002 U233:-0.7|-0.3|
5310 U233:-0.7|-0.7|
4174 U233:-0.7|0.1|
9074 U233:-0.7|0.4|
9024 U233:0.1|-0.1|
8776 U233:0.1|-0.3|
8554 U233:0.1|-0.6|
7446 U233:0.1|-0.7|
2618 U233:0.1|0.1|
7092 U233:0.1|0.4|
9782 U233:0.4|-0.3|
7854 U233:0.4|0.1|
9440 U233:0.4|0.4|
10294 U234:*
2930 U234:-0.1|
5048 U234:-0.3|
4554 U234:-0.6|
2620 U234:0.1|
468 U234:0.4|
5450 U234:0.7|
10296 U235:**
2932 U235:-0.1|-0.1|
6850 U235:-0.1|-0.3|
7906 U235:-0.1|-0.6|
4734 U235:-0.1|0.4|
7448 U235:-0.3|-0.1|
6336 U235:-0.3|-0.3|
7376 U235:-0.3|-0.6|
5050 U235:-0.3|0.1|
5774 U235:-0.3|0.4|
4556 U235:-0.6|-0.3|
9096 U235:-0.6|0.4|
9784 U235:-0.6|0.7|
8720 U235:0.1|-0.1|
5548 U235:0.1|-0.3|
6924 U235:0.1|-0.6|
2622 U235:0.1|-0.7|
4692 U235:0.1|0.1|
5232 U235:0.1|0.4|
7940 U235:0.1|0.7|
3112 U235:0.4|-0.1|
1806 U235:0.4|-0.3|
470 U235:0.4|-0.6|
3862 U235:0.4|-0.7|
970 U235:0.4|0.1|
7312 U235:0.7|-0.1|
9730 U235:0.7|-0.3|
7194 U235:0.7|-0.6|
5452 U235:0.7|0.1|
10298 U236:**
2934 U236:-0.1|-0.3|
9680 U236:-0.1|-0.6|
8250 U236:-0.1|-0.7|
6238 U236:-0.1|0.1|
8428 U236:-0.1|0.4|
5776 U236:-0.3|-0.3|
7094 U236:-0.3|-0.6|
8100 U236:-0.3|-0.7|
5052 U236:-0.3|0.1|
8068 U236:-0.3|0.4|
4558 U236:-0.6|0.1|
8778 U236:0.1|-0.1|
8124 U236:0.1|-0.3|
7942 U236:0.1|-0.6|
6940 U236:0.1|-0.7|
2624 U236:0.1|0.1|
7270 U236:0.1|0.4|
4812 U236:0.4|-0.1|
3334 U236:0.4|-0.3|
3694 U236:0.4|-0.6|
4852 U236:0.4|-0.7|
472 U236:0.4|0.1|
1808 U236:0.4|0.4|
9768 U236:0.4|0.7|
7614 U236:0.7|-0.6|
5454 U236:0.7|0.1|
8448 U236:0.7|0.4|
10300 U237:*
2936 U237:-0.1|
1810 U237:-0.3|
474 U237:-0.6|
2626 U237:-0.7|
972 U237:0.1|
4736 U237:0.4|
7944 U237:0.7|
10302 U238:**
7404 U238:-0.1|-0.1|
2938 U238:-0.1|-0.3|
3540 U238:-0.1|-0.6|
3114 U238:-0.1|0.1|
8290 U238:-0.1|0.7|
5138 U238:-0.3|-0.1|
5802 U238:-0.3|-0.3|
2172 U238:-0.3|-0.6|
4000 U238:-0.3|0.1|
1812 U238:-0.3|0.4|
6338 U238:-0.3|0.7|
6926 U238:-0.6|-0.1|
6618 U238:-0.6|-0.3|
476 U238:-0.6|0.1|
6170 U238:-0.6|0.4|
2628 U238:-0.7|0.1|
8630 U238:-0.7|0.4|
3336 U238:0.1|-0.3|
1412 U238:0.1|-0.6|
974 U238:0.1|-0.7|
6672 U238:0.1|0.1|
9160 U238:0.1|0.4|
9528 U238:0.4|-0.1|
5234 U238:0.4|-0.3|
5778 U238:0.4|-0.6|
4738 U238:0.4|-0.7|
7272 U238:0.4|0.1|
9786 U238:0.7|-0.1|
7946 U238:0.7|-0.6|
10304 U239:**
8450 U239:-0.1|-0.1|
7406 U239:-0.1|-0.3|
7516 U239:-0.1|0.1|
3116 U239:-0.1|0.4|
2940 U239:-0.1|0.7|
7336 U239:-0.3|-0.1|
1814 U239:-0.3|-0.3|
8968 U239:-0.3|-0.6|
9102 U239:-0.3|-0.7|
8252 U239:-0.3|0.1|
2174 U239:-0.3|0.4|
4002 U239:-0.3|0.7|
6172 U239:-0.6|-0.1|
9060 U239:-0.6|-0.3|
7582 U239:-0.6|-0.6|
4176 U239:-0.6|0.1|
478 U239:-0.6|0.4|
8856 U239:-0.7|-0.1|
3864 U239:-0.7|-0.3|
6792 U239:-0.7|-0.6|
2630 U239:-0.7|0.1|
7314 U239:-0.7|0.4|
4814 U239:0.1|-0.1|
3338 U239:0.1|-0.3|
9042 U239:0.1|-0.6|
7778 U239:0.1|-0.7|
5898 U239:0.1|0.1|
976 U239:0.1|0.4|
6034 U239:0.1|0.7|
7274 U239:0.4|-0.1|
8070 U239:0.4|-0.3|
9530 U239:0.4|-0.6|
9632 U239:0.4|0.1|
4740 U239:0.4|0.4|
9344 U239:0.4|0.7|
7948 U239:0.7|0.4|
9872 U23:**
738 U23:A|A|
3176 U23:A|C|
4390 U23:A|G|
6686 U23:A|T|
5786 U23:C|A|
1588 U23:C|C|
2784 U23:C|G|
9058 U23:C|T|
2000 U23:G|A|
8044 U23:G|C|
3922 U23:G|G|
8860 U23:G|T|
46 U23:T|A|
6130 U23:T|C|
4508 U23:T|G|
2426 U23:T|T|
10306 U240:*
5140 U240:-0.1|
2942 U240:-0.3|
1414 U240:-0.6|
978 U240:-0.7|
480 U240:0.1|
1816 U240:0.4|
6340 U240:0.7|
10308 U241:**
7518 U241:-0.1|-0.1|
7976 U241:-0.1|-0.3|
6506 U241:-0.1|-0.6|
7146 U241:-0.1|0.1|
5142 U241:-0.1|0.4|
9374 U241:-0.1|0.7|
3340 U241:-0.3|-0.1|
7800 U241:-0.3|-0.3|
6080 U241:-0.3|-0.6|
5054 U241:-0.3|0.1|
2944 U241:-0.3|0.4|
8920 U241:-0.3|0.7|
7860 U241:-0.6|-0.1|
5398 U241:-0.6|-0.3|
4238 U241:-0.6|0.1|
1416 U241:-0.6|0.4|
9044 U241:-0.6|0.7|
980 U241:-0.7|0.1|
4090 U241:-0.7|0.4|
6852 U241:0.1|-0.1|
7616 U241:0.1|-0.3|
2632 U241:0.1|-0.6|
6562 U241:0.1|-0.7|
482 U241:0.1|0.1|
7720 U241:0.1|0.4|
8254 U241:0.1|0.7|
7054 U241:0.4|-0.1|
4560 U241:0.4|-0.3|
7196 U241:0.4|-0.6|
1818 U241:0.4|-0.7|
5718 U241:0.4|0.1|
8292 U241:0.7|-0.1|
6342 U241:0.7|-0.6|
8216 U241:0.7|0.1|
10310 U242:**
9568 U242:-0.1|-0.1|
7450 U242:-0.1|-0.3|
6508 U242:-0.1|-0.6|
5144 U242:-0.1|0.1|
7338 U242:-0.1|0.4|
6912 U242:-0.3|-0.1|
2946 U242:-0.3|-0.3|
5056 U242:-0.3|-0.6|
9746 U242:-0.3|-0.7|
8138 U242:-0.3|0.1|
3342 U242:-0.3|0.4|
5612 U242:-0.6|-0.1|
3542 U242:-0.6|-0.3|
2176 U242:-0.6|-0.6|
8686 U242:-0.6|-0.7|
1418 U242:-0.6|0.1|
8798 U242:-0.6|0.4|
9046 U242:-0.7|-0.1|
2354 U242:-0.7|-0.3|
982 U242:-0.7|-0.6|
7560 U242:-0.7|-0.7|
3696 U242:-0.7|0.1|
9434 U242:-0.7|0.4|
6794 U242:0.1|-0.1|
484 U242:0.1|-0.3|
3118 U242:0.1|-0.6|
2634 U242:0.1|-0.7|
4004 U242:0.1|0.1|
8342 U242:0.1|0.4|
8970 U242:0.1|0.7|
1820 U242:0.4|-0.1|
8780 U242:0.4|-0.3|
4562 U242:0.4|-0.6|
7584 U242:0.4|0.1|
9084 U242:0.4|0.4|
9054 U242:0.7|-0.3|
6982 U242:0.7|-0.6|
8934 U242:0.7|-0.7|
6344 U242:0.7|0.1|
10312 U243:*
3344 U243:-0.1|
4564 U243:-0.3|
2636 U243:-0.6|
1822 U243:-0.7|
486 U243:0.1|
1420 U243:0.4|
8256 U243:0.7|
10314 U244:**
3346 U244:-0.1|-0.1|
6610 U244:-0.1|-0.3|
9532 U244:-0.1|-0.6|
7520 U244:-0.1|0.1|
6854 U244:-0.1|0.4|
8816 U244:-0.1|0.7|
8464 U244:-0.3|-0.1|
4566 U244:-0.3|-0.3|
8072 U244:-0.3|-0.6|
5400 U244:-0.3|0.1|
5614 U244:-0.3|0.4|
9604 U244:-0.6|-0.1|
6082 U244:-0.6|0.1|
6510 U244:-0.6|0.4|
2638 U244:-0.6|0.7|
1824 U244:-0.7|0.1|
8648 U244:-0.7|0.4|
5804 U244:0.1|-0.1|
2356 U244:0.1|-0.3|
4240 U244:0.1|-0.6|
3120 U244:0.1|-0.7|
488 U244:0.1|0.1|
4646 U244:0.1|0.4|
4816 U244:0.1|0.7|
2178 U244:0.4|-0.1|
1422 U244:0.4|-0.3|
5486 U244:0.4|-0.6|
5146 U244:0.4|-0.7|
4918 U244:0.4|0.1|
8922 U244:0.7|-0.1|
8258 U244:0.7|-0.3|
9732 U244:0.7|-0.6|
9376 U244:0.7|0.1|
10316 U245:**
9534 U245:-0.1|-0.1|
8430 U245:-0.1|-0.3|
7522 U245:-0.1|-0.6|
9648 U245:-0.1|-0.7|
3348 U245:-0.1|0.1|
6294 U245:-0.1|0.4|
9128 U245:-0.1|0.7|
9322 U245:-0.3|-0.1|
9748 U245:-0.3|-0.3|
5616 U245:-0.3|-0.6|
7780 U245:-0.3|-0.7|
4568 U245:-0.3|0.1|
7978 U245:-0.3|0.4|
9668 U245:-0.3|0.7|
7198 U245:-0.6|-0.3|
6346 U245:-0.6|-0.6|
7340 U245:-0.6|-0.7|
2640 U245:-0.6|0.1|
7408 U245:-0.6|0.4|
6564 U245:-0.7|-0.1|
8650 U245:-0.7|-0.3|
9086 U245:-0.7|-0.6|
6674 U245:-0.7|0.1|
1826 U245:-0.7|0.4|
7276 U245:0.1|-0.1|
490 U245:0.1|-0.3|
5948 U245:0.1|-0.6|
5742 U245:0.1|-0.7|
3122 U245:0.1|0.1|
984 U245:0.1|0.4|
8556 U245:0.1|0.7|
2948 U245:0.4|-0.1|
3544 U245:0.4|-0.3|
5900 U245:0.4|-0.6|
8362 U245:0.4|-0.7|
1424 U245:0.4|0.1|
5248 U245:0.4|0.4|
9404 U245:0.4|0.7|
8924 U245:0.7|0.1|
8260 U245:0.7|0.4|
10318 U246:*
2180 U246:-0.1|
1426 U246:-0.3|
4242 U246:-0.6|
3124 U246:-0.7|
492 U246:0.1|
4648 U246:0.4|
2642 U246:0.7|
10320 U247:**
2950 U247:-0.1|-0.1|
9562 U247:-0.1|-0.3|
9076 U247:-0.1|-0.6|
2182 U247:-0.1|0.1|
6240 U247:-0.1|0.4|
5806 U247:-0.1|0.7|
3546 U247:-0.3|-0.1|
8408 U247:-0.3|-0.3|
1428 U247:-0.3|-0.6|
2358 U247:-0.3|0.1|
4092 U247:-0.3|0.4|
8262 U247:-0.3|0.7|
8322 U247:-0.6|-0.1|
6754 U247:-0.6|-0.3|
8074 U247:-0.6|0.1|
4244 U247:-0.6|0.4|
7960 U247:-0.6|0.7|
3126 U247:-0.7|0.1|
7562 U247:-0.7|0.4|
3866 U247:0.1|-0.1|
494 U247:0.1|-0.3|
8004 U247:0.1|-0.6|
7200 U247:0.1|-0.7|
4920 U247:0.1|0.1|
986 U247:0.1|0.4|
5402 U247:0.1|0.7|
6432 U247:0.4|-0.1|
4650 U247:0.4|-0.3|
8092 U247:0.4|-0.6|
9380 U247:0.4|-0.7|
5618 U247:0.4|0.1|
2644 U247:0.7|0.1|
10322 U248:**
6296 U248:-0.1|-0.1|
9324 U248:-0.1|-0.3|
7668 U248:-0.1|-0.6|
3350 U248:-0.1|-0.7|
2184 U248:-0.1|0.1|
2952 U248:-0.1|0.4|
5656 U248:-0.3|-0.1|
4456 U248:-0.3|-0.3|
1430 U248:-0.3|-0.6|
9432 U248:-0.3|-0.7|
3548 U248:-0.3|0.1|
2360 U248:-0.3|0.4|
6756 U248:-0.6|-0.1|
5488 U248:-0.6|-0.3|
6396 U248:-0.6|-0.6|
5686 U248:-0.6|-0.7|
4246 U248:-0.6|0.1|
5950 U248:-0.6|0.4|
9824 U248:-0.6|0.7|
9176 U248:-0.7|-0.1|
5148 U248:-0.7|-0.3|
4006 U248:-0.7|-0.6|
8618 U248:-0.7|-0.7|
6624 U248:-0.7|0.1|
3128 U248:-0.7|0.4|
6826 U248:0.1|-0.1|
988 U248:0.1|-0.3|
1828 U248:0.1|-0.6|
6904 U248:0.1|-0.7|
3868 U248:0.1|0.1|
496 U248:0.1|0.4|
6348 U248:0.1|0.7|
6856 U248:0.4|-0.1|
4652 U248:0.4|-0.3|
8558 U248:0.4|-0.6|
9382 U248:0.4|-0.7|
5620 U248:0.4|0.1|
7640 U248:0.4|0.4|
9120 U248:0.7|-0.3|
8818 U248:0.7|-0.6|
9412 U248:0.7|0.1|
2646 U248:0.7|0.4|
10324 U249:*
2954 U249:-0.1|
498 U249:-0.3|
1432 U249:-0.6|
7202 U249:-0.7|
2186 U249:0.1|
990 U249:0.4|
5404 U249:0.7|
9874 U24:*
1590 U24:A|
1140 U24:C|
3178 U24:G|
48 U24:T|
10326 U250:**
2956 U250:-0.1|-0.1|
3870 U250:-0.1|-0.3|
8652 U250:-0.1|-0.6|
3352 U250:-0.1|0.1|
8190 U250:-0.1|0.4|
3550 U250:-0.1|0.7|
6858 U250:-0.3|-0.1|
4654 U250:-0.3|-0.3|
6818 U250:-0.3|-0.6|
6758 U250:-0.3|0.1|
500 U250:-0.3|0.4|
9798 U250:-0.3|0.7|
9206 U250:-0.6|-0.1|
8006 U250:-0.6|-0.3|
1434 U250:-0.6|0.1|
8094 U250:-0.6|0.4|
7204 U250:-0.7|0.1|
9650 U250:-0.7|0.4|
2362 U250:0.1|-0.1|
2188 U250:0.1|-0.3|
4008 U250:0.1|-0.6|
3130 U250:0.1|-0.7|
4966 U250:0.1|0.1|
7342 U250:0.1|0.4|
4570 U250:0.4|-0.1|
992 U250:0.4|-0.3|
3698 U250:0.4|-0.6|
1830 U250:0.4|-0.7|
4996 U250:0.4|0.1|
5406 U250:0.7|-0.1|
8264 U250:0.7|-0.3|
5808 U250:0.7|-0.6|
7962 U250:0.7|0.1|
10328 U251:**
6298 U251:-0.1|-0.1|
2958 U251:-0.1|-0.3|
9386 U251:-0.1|-0.6|
3552 U251:-0.1|-0.7|
3872 U251:-0.1|0.1|
3354 U251:-0.1|0.4|
8484 U251:-0.1|0.7|
6760 U251:-0.3|-0.1|
6860 U251:-0.3|-0.3|
7642 U251:-0.3|-0.6|
6820 U251:-0.3|-0.7|
502 U251:-0.3|0.1|
7278 U251:-0.3|0.4|
9724 U251:-0.3|0.7|
1436 U251:-0.6|-0.3|
8034 U251:-0.6|-0.7|
8032 U251:-0.6|0.1|
8008 U251:-0.6|0.4|
9038 U251:-0.7|-0.3|
9490 U251:-0.7|-0.7|
7428 U251:-0.7|0.1|
7206 U251:-0.7|0.4|
5312 U251:0.1|-0.1|
3132 U251:0.1|-0.3|
4922 U251:0.1|-0.6|
2648 U251:0.1|-0.7|
2190 U251:0.1|0.1|
5622 U251:0.1|0.4|
7386 U251:0.1|0.7|
994 U251:0.4|-0.1|
4282 U251:0.4|-0.3|
4354 U251:0.4|-0.6|
4094 U251:0.4|-0.7|
4572 U251:0.4|0.1|
1832 U251:0.4|0.4|
3700 U251:0.4|0.7|
7964 U251:0.7|-0.1|
9080 U251:0.7|-0.3|
9210 U251:0.7|-0.6|
5810 U251:0.7|-0.7|
7766 U251:0.7|0.1|
5408 U251:0.7|0.4|
9178 U251:0.7|0.7|
10330 U252:*
2364 U252:-0.1|
996 U252:-0.3|
3702 U252:-0.6|
1834 U252:-0.7|
1438 U252:0.1|
504 U252:0.4|
3554 U252:0.7|
10332 U253:**
4458 U253:-0.1|-0.1|
6862 U253:-0.1|-0.3|
7618 U253:-0.1|-0.6|
2960 U253:-0.1|0.1|
2366 U253:-0.1|0.4|
2192 U253:-0.3|-0.1|
2650 U253:-0.3|-0.3|
5058 U253:-0.3|-0.6|
4096 U253:-0.3|0.1|
998 U253:-0.3|0.4|
4656 U253:-0.3|0.7|
3704 U253:-0.6|-0.1|
7782 U253:-0.6|-0.3|
7802 U253:-0.6|0.1|
4010 U253:-0.6|0.4|
4854 U253:-0.6|0.7|
3134 U253:-0.7|0.1|
1836 U253:-0.7|0.4|
7062 U253:0.1|-0.1|
4968 U253:0.1|-0.3|
6036 U253:0.1|-0.6|
8116 U253:0.1|-0.7|
1440 U253:0.1|0.1|
6762 U253:0.1|0.4|
6956 U253:0.1|0.7|
506 U253:0.4|-0.1|
8038 U253:0.4|-0.3|
8076 U253:0.4|-0.6|
7344 U253:0.4|-0.7|
8324 U253:0.4|0.1|
3556 U253:0.7|-0.3|
9800 U253:0.7|-0.6|
10334 U254:**
2962 U254:-0.1|-0.1|
2368 U254:-0.1|-0.3|
4574 U254:-0.1|0.1|
4460 U254:-0.1|0.4|
4284 U254:-0.3|-0.1|
1000 U254:-0.3|-0.3|
6246 U254:-0.3|-0.6|
5490 U254:-0.3|-0.7|
2652 U254:-0.3|0.1|
4098 U254:-0.3|0.4|
7968 U254:-0.3|0.7|
3706 U254:-0.6|-0.1|
5250 U254:-0.6|-0.3|
7038 U254:-0.6|-0.6|
4012 U254:-0.6|-0.7|
5812 U254:-0.6|0.1|
4856 U254:-0.6|0.4|
8208 U254:-0.6|0.7|
5952 U254:-0.7|-0.1|
3136 U254:-0.7|-0.3|
1838 U254:-0.7|-0.6|
9008 U254:-0.7|-0.7|
6906 U254:-0.7|0.1|
4178 U254:-0.7|0.4|
4970 U254:0.1|-0.1|
5236 U254:0.1|-0.3|
9712 U254:0.1|-0.6|
9806 U254:0.1|-0.7|
1442 U254:0.1|0.1|
6038 U254:0.1|0.4|
6998 U254:0.1|0.7|
8078 U254:0.4|-0.1|
508 U254:0.4|-0.3|
9642 U254:0.4|-0.6|
8846 U254:0.4|-0.7|
7346 U254:0.4|0.1|
7856 U254:0.4|0.4|
9802 U254:0.7|-0.3|
3558 U254:0.7|0.4|
10336 U255:*
510 U255:-0.1|
2654 U255:-0.3|
5060 U255:-0.6|
7348 U255:-0.7|
1444 U255:0.1|
1002 U255:0.4|
4658 U255:0.7|
10338 U256:**
512 U256:-0.1|-0.1|
2194 U256:-0.1|-0.3|
4462 U256:-0.1|-0.6|
5150 U256:-0.1|0.1|
7064 U256:-0.1|0.4|
3708 U256:-0.1|0.7|
2656 U256:-0.3|-0.1|
4998 U256:-0.3|-0.3|
4972 U256:-0.3|-0.6|
4356 U256:-0.3|0.1|
7784 U256:-0.3|0.4|
8134 U256:-0.3|0.7|
7746 U256:-0.6|-0.1|
6300 U256:-0.6|-0.3|
5062 U256:-0.6|0.1|
6040 U256:-0.6|0.4|
9214 U256:-0.6|0.7|
7350 U256:-0.7|0.1|
8198 U256:-0.7|0.4|
3138 U256:0.1|-0.1|
3356 U256:0.1|-0.3|
1446 U256:0.1|-0.6|
5866 U256:0.1|-0.7|
4576 U256:0.1|0.1|
8730 U256:0.1|0.4|
8936 U256:0.1|0.7|
8010 U256:0.4|-0.1|
2370 U256:0.4|-0.3|
1004 U256:0.4|-0.6|
7456 U256:0.4|-0.7|
1840 U256:0.4|0.1|
8474 U256:0.7|-0.1|
4660 U256:0.7|-0.3|
8376 U256:0.7|-0.6|
10340 U257:**
2196 U257:-0.1|-0.1|
514 U257:-0.1|-0.3|
5410 U257:-0.1|-0.6|
5152 U257:-0.1|-0.7|
4464 U257:-0.1|0.1|
5252 U257:-0.1|0.4|
3560 U257:-0.3|-0.1|
5238 U257:-0.3|-0.3|
6434 U257:-0.3|-0.6|
9636 U257:-0.3|-0.7|
4974 U257:-0.3|0.1|
4358 U257:-0.3|0.4|
2658 U257:-0.3|0.7|
5064 U257:-0.6|-0.1|
6084 U257:-0.6|-0.3|
8080 U257:-0.6|-0.6|
6042 U257:-0.6|-0.7|
6302 U257:-0.6|0.1|
8848 U257:-0.6|0.4|
7352 U257:-0.7|-0.3|
8698 U257:-0.7|-0.6|
8118 U257:-0.7|-0.7|
8972 U257:-0.7|0.1|
2964 U257:0.1|-0.1|
1448 U257:0.1|-0.3|
3358 U257:0.1|-0.6|
5868 U257:0.1|0.1|
3140 U257:0.1|0.4|
9644 U257:0.1|0.7|
5550 U257:0.4|-0.1|
1842 U257:0.4|-0.3|
6524 U257:0.4|-0.6|
4014 U257:0.4|0.1|
1006 U257:0.4|0.4|
7040 U257:0.4|0.7|
4858 U257:0.7|-0.1|
4662 U257:0.7|-0.3|
8788 U257:0.7|-0.6|
8378 U257:0.7|0.1|
8108 U257:0.7|0.7|
10342 U258:*
516 U258:-0.1|
2198 U258:-0.3|
1008 U258:-0.6|
5870 U258:-0.7|
1844 U258:0.1|
6044 U258:0.4|
3710 U258:0.7|
10344 U259:**
3562 U259:-0.1|-0.1|
518 U259:-0.1|-0.3|
6436 U259:-0.1|-0.6|
9808 U259:-0.1|0.1|
3142 U259:-0.1|0.4|
2660 U259:-0.1|0.7|
2200 U259:-0.3|-0.1|
2372 U259:-0.3|-0.3|
3360 U259:-0.3|-0.6|
4016 U259:-0.3|0.1|
5492 U259:-0.3|0.4|
8110 U259:-0.3|0.7|
2966 U259:-0.6|-0.1|
1450 U259:-0.6|-0.3|
4180 U259:-0.6|0.1|
1010 U259:-0.6|0.4|
7042 U259:-0.6|0.7|
5872 U259:-0.7|0.1|
7950 U259:-0.7|0.4|
5066 U259:0.1|-0.1|
1846 U259:0.1|-0.3|
5412 U259:0.1|-0.6|
5154 U259:0.1|-0.7|
5830 U259:0.1|0.1|
4360 U259:0.1|0.4|
7786 U259:0.4|-0.1|
6086 U259:0.4|-0.3|
7066 U259:0.4|-0.6|
6046 U259:0.4|-0.7|
8974 U259:0.4|0.1|
3712 U259:0.7|-0.3|
5920 U259:0.7|-0.6|
9876 U25:**
3044 U25:A|A|
2428 U25:A|C|
7598 U25:A|G|
1592 U25:A|T|
1142 U25:C|A|
6834 U25:C|C|
8238 U25:C|G|
5350 U25:C|T|
5010 U25:G|A|
4510 U25:G|C|
3180 U25:G|G|
6058 U25:G|T|
4212 U25:T|A|
2286 U25:T|C|
2002 U25:T|G|
50 U25:T|T|
10346 U260:*
2202 U260:-0.1|
520 U260:-0.3|
3362 U260:-0.6|
5156 U260:-0.7|
4018 U260:0.1|
1012 U260:0.4|
2662 U260:0.7|
10348 U261:**
2968 U261:-0.1|-0.1|
2204 U261:-0.1|-0.3|
7788 U261:-0.1|0.1|
3564 U261:-0.1|0.4|
7000 U261:-0.1|0.7|
3714 U261:-0.3|-0.1|
522 U261:-0.3|-0.3|
1848 U261:-0.3|-0.6|
1452 U261:-0.3|0.1|
4924 U261:-0.3|0.4|
9352 U261:-0.3|0.7|
7068 U261:-0.6|-0.1|
5414 U261:-0.6|-0.3|
3364 U261:-0.6|0.1|
5922 U261:-0.6|0.4|
9474 U261:-0.6|0.7|
7388 U261:-0.7|0.1|
5158 U261:-0.7|0.4|
4976 U261:0.1|-0.1|
6634 U261:0.1|-0.3|
7524 U261:0.1|-0.6|
4020 U261:0.1|-0.7|
5874 U261:0.1|0.1|
4182 U261:0.1|0.4|
7970 U261:0.1|0.7|
1014 U261:0.4|-0.3|
6248 U261:0.4|-0.6|
5494 U261:0.4|-0.7|
4362 U261:0.4|0.1|
9818 U261:0.7|-0.1|
7044 U261:0.7|-0.6|
2664 U261:0.7|0.1|
10350 U262:*
2970 U262:-0.1|
524 U262:-0.3|
1850 U262:-0.6|
4022 U262:-0.7|
1454 U262:0.1|
3566 U262:0.4|
7002 U262:0.7|
10352 U263:**
6118 U263:-0.1|-0.1|
2972 U263:-0.1|-0.3|
9274 U263:-0.1|0.1|
5984 U263:-0.1|0.4|
3716 U263:-0.1|0.7|
1016 U263:-0.3|-0.1|
3144 U263:-0.3|-0.3|
5254 U263:-0.3|-0.6|
526 U263:-0.3|0.1|
4248 U263:-0.3|0.4|
9804 U263:-0.3|0.7|
6250 U263:-0.6|-0.1|
7526 U263:-0.6|-0.3|
7046 U263:-0.6|0.1|
1852 U263:-0.6|0.4|
4024 U263:-0.7|0.1|
5314 U263:0.1|-0.1|
1456 U263:0.1|-0.3|
4364 U263:0.1|-0.6|
2666 U263:0.1|-0.7|
3874 U263:0.1|0.1|
3366 U263:0.1|0.4|
7390 U263:0.1|0.7|
6764 U263:0.4|-0.1|
5456 U263:0.4|-0.3|
4926 U263:0.4|-0.6|
3568 U263:0.4|-0.7|
4466 U263:0.4|0.1|
7004 U263:0.7|-0.1|
7748 U263:0.7|-0.3|
8210 U263:0.7|-0.6|
7972 U263:0.7|0.1|
10354 U264:*
1018 U264:-0.1|
1458 U264:-0.3|
4366 U264:-0.6|
2668 U264:-0.7|
528 U264:0.1|
1854 U264:0.4|
3718 U264:0.7|
10356 U265:**
6304 U265:-0.1|-0.1|
1020 U265:-0.1|-0.3|
7586 U265:-0.1|-0.6|
7364 U265:-0.1|0.1|
6120 U265:-0.1|0.4|
6350 U265:-0.1|0.7|
6864 U265:-0.3|-0.1|
6174 U265:-0.3|-0.3|
1460 U265:-0.3|-0.6|
4286 U265:-0.3|0.1|
2974 U265:-0.3|0.4|
7548 U265:-0.3|0.7|
5658 U265:-0.6|-0.1|
7316 U265:-0.6|-0.3|
4928 U265:-0.6|0.1|
4368 U265:-0.6|0.4|
3570 U265:-0.7|0.1|
2670 U265:-0.7|0.4|
8696 U265:0.1|-0.1|
4468 U265:0.1|-0.3|
4026 U265:0.1|-0.6|
5688 U265:0.1|-0.7|
2206 U265:0.1|0.1|
530 U265:0.1|0.4|
8352 U265:0.1|0.7|
8622 U265:0.4|-0.1|
6722 U265:0.4|-0.3|
1856 U265:0.4|-0.6|
3368 U265:0.4|-0.7|
4250 U265:0.4|0.1|
9114 U265:0.7|-0.1|
3720 U265:0.7|-0.3|
5832 U265:0.7|-0.6|
5000 U265:0.7|0.1|
10358 U266:*
5660 U266:-0.1|
1022 U266:-0.3|
1462 U266:-0.6|
3370 U266:-0.7|
2208 U266:0.1|
532 U266:0.4|
6352 U266:0.7|
10360 U267:**
6958 U267:-0.1|-0.1|
6766 U267:-0.1|-0.3|
9116 U267:-0.1|-0.6|
6866 U267:-0.1|0.1|
5662 U267:-0.1|0.4|
9130 U267:-0.1|0.7|
4470 U267:-0.3|-0.1|
3722 U267:-0.3|-0.3|
8206 U267:-0.3|-0.6|
4578 U267:-0.3|0.1|
1024 U267:-0.3|0.4|
9660 U267:-0.3|0.7|
6566 U267:-0.6|-0.1|
4028 U267:-0.6|-0.3|
1464 U267:-0.6|0.1|
1858 U267:-0.6|0.4|
8560 U267:-0.6|0.7|
3372 U267:-0.7|0.1|
5690 U267:-0.7|0.4|
3572 U267:0.1|-0.3|
5624 U267:0.1|-0.6|
5744 U267:0.1|-0.7|
2210 U267:0.1|0.1|
5256 U267:0.1|0.4|
2976 U267:0.4|-0.1|
534 U267:0.4|-0.3|
5954 U267:0.4|-0.6|
7750 U267:0.4|-0.7|
2672 U267:0.4|0.1|
8030 U267:0.7|-0.1|
6354 U267:0.7|-0.6|
7550 U267:0.7|0.1|
10362 U268:*
2978 U268:-0.1|
536 U268:-0.3|
5626 U268:-0.6|
5746 U268:-0.7|
1466 U268:0.1|
1026 U268:0.4|
8562 U268:0.7|
10364 U269:**
7280 U269:-0.1|-0.1|
2980 U269:-0.1|-0.3|
4472 U269:-0.1|-0.6|
5160 U269:-0.1|0.1|
8344 U269:-0.1|0.4|
6768 U269:-0.3|-0.1|
538 U269:-0.3|-0.3|
7208 U269:-0.3|-0.6|
3724 U269:-0.3|0.1|
8850 U269:-0.3|0.4|
5628 U269:-0.6|-0.1|
5902 U269:-0.6|-0.3|
5956 U269:-0.6|0.1|
7528 U269:-0.6|0.4|
8976 U269:-0.6|0.7|
5748 U269:-0.7|0.1|
7354 U269:-0.7|0.4|
6914 U269:0.1|-0.1|
7096 U269:0.1|-0.3|
2212 U269:0.1|-0.6|
2674 U269:0.1|-0.7|
1468 U269:0.1|0.1|
3374 U269:0.1|0.4|
1860 U269:0.4|-0.1|
5258 U269:0.4|-0.3|
1028 U269:0.4|-0.6|
7564 U269:0.4|-0.7|
7410 U269:0.4|0.1|
8564 U269:0.7|-0.1|
9132 U269:0.7|-0.3|
9878 U26:**
7568 U26:A|A|
3046 U26:A|C|
1594 U26:A|G|
2430 U26:A|T|
5078 U26:C|A|
1144 U26:C|C|
9608 U26:C|G|
4392 U26:C|T|
6310 U26:G|A|
4512 U26:G|C|
3182 U26:G|G|
7182 U26:G|T|
8836 U26:T|A|
52 U26:T|C|
6774 U26:T|G|
4124 U26:T|T|
10366 U270:*
1862 U270:-0.1|
540 U270:-0.3|
1030 U270:-0.6|
2676 U270:-0.7|
1470 U270:0.1|
3376 U270:0.4|
8978 U270:0.7|
10368 U271:**
5630 U271:-0.1|-0.1|
1864 U271:-0.1|-0.3|
6796 U271:-0.1|-0.6|
9144 U271:-0.1|0.1|
6770 U271:-0.1|0.4|
8452 U271:-0.3|-0.1|
8082 U271:-0.3|-0.3|
5904 U271:-0.3|0.1|
542 U271:-0.3|0.4|
2982 U271:-0.3|0.7|
4818 U271:-0.6|-0.1|
3876 U271:-0.6|-0.3|
7210 U271:-0.6|0.1|
1032 U271:-0.6|0.4|
4580 U271:-0.6|0.7|
2678 U271:-0.7|0.1|
8688 U271:-0.7|0.4|
8140 U271:0.1|-0.1|
5162 U271:0.1|-0.3|
7588 U271:0.1|-0.6|
7790 U271:0.1|-0.7|
8170 U271:0.1|0.1|
1472 U271:0.1|0.4|
4030 U271:0.1|0.7|
7356 U271:0.4|-0.1|
3378 U271:0.4|-0.3|
9454 U271:0.4|-0.6|
9104 U271:0.4|-0.7|
7530 U271:0.4|0.1|
8980 U271:0.7|-0.6|
10370 U272:*
4820 U272:-0.1|
1866 U272:-0.3|
6798 U272:-0.6|
7792 U272:-0.7|
2680 U272:0.1|
544 U272:0.4|
2984 U272:0.7|
10372 U273:**
4822 U273:-0.1|-0.1|
6176 U273:-0.1|-0.3|
7358 U273:-0.1|0.1|
5632 U273:-0.1|0.4|
9342 U273:-0.3|-0.1|
3380 U273:-0.3|-0.3|
9682 U273:-0.3|-0.6|
5164 U273:-0.3|0.1|
1868 U273:-0.3|0.4|
9536 U273:-0.6|-0.3|
6800 U273:-0.6|0.1|
7590 U273:-0.6|0.4|
7794 U273:-0.7|0.1|
8316 U273:-0.7|0.4|
5906 U273:0.1|-0.1|
8346 U273:0.1|-0.3|
7098 U273:0.1|-0.6|
8266 U273:0.1|-0.7|
2682 U273:0.1|0.1|
8410 U273:0.1|0.4|
9770 U273:0.1|0.7|
3574 U273:0.4|-0.3|
3726 U273:0.4|-0.6|
4860 U273:0.4|-0.7|
546 U273:0.4|0.1|
6960 U273:0.7|-0.1|
2986 U273:0.7|-0.3|
8380 U273:0.7|-0.6|
4032 U273:0.7|0.1|
10374 U274:*
4824 U274:-0.1|
2988 U274:-0.3|
3728 U274:-0.6|
4862 U274:-0.7|
548 U274:0.1|
1870 U274:0.4|
9772 U274:0.7|
10376 U275:**
4826 U275:-0.1|-0.3|
6962 U275:-0.1|0.1|
5908 U275:-0.1|0.4|
9026 U275:-0.3|-0.1|
3576 U275:-0.3|-0.3|
8654 U275:-0.3|-0.6|
3382 U275:-0.3|0.1|
2990 U275:-0.3|0.4|
3730 U275:-0.6|-0.3|
6568 U275:-0.6|0.1|
6004 U275:-0.6|0.4|
9694 U275:-0.6|0.7|
4864 U275:-0.7|0.1|
9078 U275:-0.7|0.4|
2214 U275:0.1|-0.3|
8566 U275:0.1|-0.6|
5316 U275:0.1|-0.7|
550 U275:0.1|0.1|
6702 U275:0.1|0.4|
9306 U275:0.4|-0.1|
8858 U275:0.4|-0.3|
9472 U275:0.4|-0.7|
1872 U275:0.4|0.1|
9774 U275:0.7|-0.1|
10378 U276:*
9028 U276:-0.1|
2216 U276:-0.3|
8568 U276:-0.6|
5318 U276:-0.7|
552 U276:0.1|
2992 U276:0.4|
9696 U276:0.7|
10380 U277:**
9308 U277:-0.1|-0.1|
9776 U277:-0.1|-0.3|
9030 U277:-0.1|-0.6|
9406 U277:-0.1|0.1|
8012 U277:-0.3|-0.3|
7212 U277:-0.3|-0.6|
2218 U277:-0.3|0.1|
3578 U277:-0.3|0.4|
8570 U277:-0.6|-0.1|
8656 U277:-0.6|0.1|
9594 U277:-0.6|0.4|
5320 U277:-0.7|0.1|
9538 U277:0.1|-0.3|
7282 U277:0.1|-0.6|
2684 U277:0.1|-0.7|
554 U277:0.1|0.1|
9146 U277:0.1|0.4|
3384 U277:0.1|0.7|
7100 U277:0.4|-0.7|
2994 U277:0.4|0.1|
9698 U277:0.7|0.1|
10382 U278:*
8572 U278:-0.1|
8014 U278:-0.3|
7214 U278:-0.6|
2686 U278:-0.7|
556 U278:0.1|
3580 U278:0.4|
3386 U278:0.7|
10384 U279:**
9310 U279:-0.1|-0.6|
8574 U279:-0.1|0.4|
8016 U279:-0.3|0.1|
9540 U279:-0.3|0.4|
8172 U279:-0.6|-0.1|
7216 U279:-0.6|0.1|
7284 U279:-0.6|0.4|
2688 U279:-0.7|0.1|
6570 U279:-0.7|0.4|
6512 U279:0.1|-0.3|
1874 U279:0.1|-0.6|
1474 U279:0.1|-0.7|
558 U279:0.1|0.1|
8982 U279:0.1|0.4|
9148 U279:0.4|-0.3|
9208 U279:0.4|-0.7|
3582 U279:0.4|0.1|
3388 U279:0.7|-0.3|
9684 U279:0.7|0.1|
9880 U27:*
1146 U27:A|
2288 U27:C|
2004 U27:G|
54 U27:T|
10386 U280:*
8174 U280:-0.1|
3390 U280:-0.3|
1876 U280:-0.6|
1476 U280:-0.7|
560 U280:0.1|
6572 U280:0.4|
10388 U281:**
8176 U281:-0.1|-0.1|
9424 U281:-0.3|-0.1|
6514 U281:-0.3|-0.3|
9062 U281:-0.3|-0.6|
8084 U281:-0.3|0.1|
3392 U281:-0.3|0.7|
1878 U281:-0.6|-0.1|
7592 U281:-0.6|-0.3|
9312 U281:-0.6|0.1|
8658 U281:-0.6|0.4|
1478 U281:-0.7|0.1|
4742 U281:-0.7|0.4|
8800 U281:0.1|-0.1|
6088 U281:0.1|-0.3|
562 U281:0.1|-0.6|
4034 U281:0.1|-0.7|
5166 U281:0.1|0.1|
2690 U281:0.1|0.4|
7286 U281:0.4|-0.3|
6574 U281:0.4|-0.6|
9270 U281:0.4|0.1|
10390 U282:*
1880 U282:-0.1|
6090 U282:-0.3|
564 U282:-0.6|
4036 U282:-0.7|
1480 U282:0.1|
2692 U282:0.4|
3394 U282:0.7|
10392 U283:**
1882 U283:-0.1|-0.1|
8802 U283:-0.1|-0.3|
4370 U283:-0.1|0.4|
6092 U283:-0.3|-0.1|
6398 U283:-0.3|-0.3|
7430 U283:-0.3|-0.6|
6356 U283:-0.3|0.1|
8926 U283:-0.3|0.4|
566 U283:-0.6|-0.1|
3732 U283:-0.6|-0.3|
6576 U283:-0.6|0.1|
4664 U283:-0.6|0.4|
6460 U283:-0.6|0.7|
4288 U283:-0.7|0.1|
4038 U283:-0.7|0.4|
4582 U283:0.1|-0.1|
1482 U283:0.1|-0.3|
6984 U283:0.1|-0.6|
5168 U283:0.1|-0.7|
8294 U283:0.1|0.1|
8782 U283:0.1|0.4|
9216 U283:0.1|0.7|
4744 U283:0.4|-0.1|
7360 U283:0.4|-0.3|
2694 U283:0.4|-0.6|
5570 U283:0.4|0.1|
3396 U283:0.7|0.1|
10394 U284:*
568 U284:-0.1|
1484 U284:-0.3|
2696 U284:-0.6|
5170 U284:-0.7|
3398 U284:0.1|
4040 U284:0.4|
6462 U284:0.7|
10396 U285:**
570 U285:-0.1|-0.3|
4746 U285:-0.1|-0.6|
6400 U285:-0.3|-0.3|
8086 U285:-0.3|-0.6|
1486 U285:-0.3|0.1|
6986 U285:-0.6|-0.3|
2698 U285:-0.6|0.1|
5172 U285:-0.7|0.1|
4474 U285:0.1|-0.3|
3400 U285:0.1|-0.7|
7908 U285:0.1|0.1|
4042 U285:0.4|-0.6|
4372 U285:0.4|-0.7|
6464 U285:0.7|-0.6|
10398 U286:*
572 U286:-0.3|
4044 U286:-0.6|
3402 U286:-0.7|
1488 U286:0.1|
10400 U287:**
574 U287:-0.3|+|
4046 U287:-0.6|+|
3404 U287:-0.7|+|
1490 U287:0.1|+|
10402 U288:*
576 U288:+|
10404 U289:**
9360 U289:+|3|
6178 U289:+|4|
578 U289:+|5|
9882 U28:**
5266 U28:A|A|
4214 U28:A|C|
1148 U28:A|G|
3048 U28:A|T|
4606 U28:C|A|
5788 U28:C|C|
2432 U28:C|G|
2290 U28:C|T|
4874 U28:G|A|
3454 U28:G|C|
2006 U28:G|G|
8046 U28:G|T|
6060 U28:T|A|
56 U28:T|C|
5574 U28:T|G|
740 U28:T|T|
10406 U290:**
1492 U290:+|0|
580 U290:+|1|
4048 U290:+|5|
10408 U291:*
9362 U291:3|
6180 U291:4|
582 U291:5|
10410 U292:**
9364 U292:3|2|
8576 U292:4|1|
6182 U292:4|2|
9542 U292:4|3|
9596 U292:4|4|
1034 U292:5|4|
584 U292:5|5|
10412 U293:**
9366 U293:3|3|
6184 U293:4|2|
9272 U293:4|3|
8578 U293:4|5|
5174 U293:5|0|
1494 U293:5|1|
1884 U293:5|2|
586 U293:5|3|
4748 U293:5|4|
6466 U293:5|5|
10414 U294:*
8580 U294:1|
6186 U294:2|
9544 U294:3|
1036 U294:4|
588 U294:5|
10416 U295:**
8582 U295:1|0|
9244 U295:1|1|
6188 U295:2|1|
9546 U295:3|2|
6094 U295:4|2|
4374 U295:4|3|
1038 U295:4|4|
6884 U295:4|5|
2700 U295:5|3|
590 U295:5|4|
6438 U295:5|5|
10418 U296:**
9246 U296:1|2|
8584 U296:1|4|
9368 U296:2|2|
6190 U296:2|3|
9548 U296:3|5|
5720 U296:4|0|
1496 U296:4|1|
1040 U296:4|2|
5068 U296:4|3|
4376 U296:4|4|
4476 U296:5|0|
4290 U296:5|1|
592 U296:5|2|
1886 U296:5|3|
6578 U296:5|4|
10420 U297:*
8586 U297:0|
6192 U297:1|
6096 U297:2|
2702 U297:3|
594 U297:4|
6440 U297:5|
10422 U298:**
8588 U298:0|0|
6194 U298:1|2|
9248 U298:1|3|
7532 U298:2|0|
6098 U298:2|1|
9550 U298:2|3|
2704 U298:3|1|
4050 U298:3|2|
5416 U298:3|3|
1042 U298:4|2|
2220 U298:4|3|
596 U298:4|4|
6886 U298:5|3|
6442 U298:5|4|
9442 U298:5|5|
10424 U299:**
8590 U299:0|4|
9250 U299:1|1|
6196 U299:1|2|
6100 U299:2|0|
7168 U299:2|1|
8984 U299:2|2|
9150 U299:2|4|
4584 U299:3|0|
2706 U299:3|1|
4378 U299:3|2|
7840 U299:3|3|
8660 U299:3|4|
1498 U299:4|0|
598 U299:4|1|
1888 U299:4|2|
3406 U299:4|3|
6444 U299:5|0|
6888 U299:5|1|
8382 U299:5|2|
8708 U299:5|3|
7288 U299:5|4|
9884 U29:**
3050 U29:A|A|
5882 U29:A|C|
4394 U29:A|G|
1150 U29:A|T|
2434 U29:C|A|
9288 U29:C|C|
2292 U29:C|G|
8412 U29:C|T|
2008 U29:G|A|
7600 U29:G|C|
2786 U29:G|G|
3184 U29:G|T|
742 U29:T|A|
5576 U29:T|C|
58 U29:T|G|
3610 U29:T|T|
9830 U2:**
4 U2:C|T|
10426 U300:*
7534 U300:0|
2708 U300:1|
1044 U300:2|
2222 U300:3|
600 U300:4|
9444 U300:5|
10428 U301:**
8592 U301:0|0|
7536 U301:0|1|
8904 U301:1|0|
2710 U301:1|1|
4380 U301:1|2|
8302 U301:2|0|
5070 U301:2|1|
4052 U301:2|2|
1046 U301:2|3|
6198 U301:2|4|
5552 U301:3|1|
2996 U301:3|2|
3878 U301:3|3|
2224 U301:3|4|
7290 U301:4|2|
4694 U301:4|3|
602 U301:4|4|
1500 U301:4|5|
9446 U301:5|4|
9618 U301:5|5|
10430 U302:**
7538 U302:0|0|
8594 U302:0|4|
2712 U302:1|0|
4382 U302:1|1|
8018 U302:1|2|
8810 U302:1|3|
9032 U302:1|4|
1048 U302:2|0|
4054 U302:2|1|
6200 U302:2|3|
2226 U302:3|0|
2998 U302:3|1|
9552 U302:3|2|
7218 U302:3|3|
8662 U302:3|5|
604 U302:4|0|
1890 U302:4|1|
3408 U302:4|2|
7292 U302:4|3|
9168 U302:4|4|
9788 U302:5|0|
9448 U302:5|1|
10432 U303:*
8304 U303:0|
2714 U303:1|
3000 U303:2|
1050 U303:3|
606 U303:4|
1502 U303:5|
10434 U304:**
8306 U304:0|0|
8596 U304:0|1|
9162 U304:0|2|
7722 U304:1|0|
2716 U304:1|1|
5322 U304:1|2|
4184 U304:1|3|
9184 U304:2|0|
6942 U304:2|1|
3002 U304:2|2|
5780 U304:2|3|
7220 U304:2|4|
8710 U304:3|1|
1052 U304:3|2|
4586 U304:3|3|
9280 U304:3|4|
6928 U304:3|5|
5722 U304:4|2|
2228 U304:4|3|
1892 U304:4|4|
608 U304:4|5|
1504 U304:5|4|
5958 U304:5|5|
10436 U305:**
8308 U305:0|0|
8906 U305:0|1|
8598 U305:0|3|
4186 U305:1|0|
2718 U305:1|1|
8690 U305:1|2|
7102 U305:1|3|
9598 U305:1|4|
4056 U305:2|0|
6242 U305:2|1|
3004 U305:2|2|
7294 U305:2|3|
1054 U305:3|0|
6612 U305:3|1|
3880 U305:3|2|
7620 U305:3|3|
610 U305:4|0|
1894 U305:4|1|
3410 U305:4|2|
3584 U305:4|3|
8384 U305:4|4|
1506 U305:5|0|
5002 U305:5|1|
5910 U305:5|2|
3734 U305:5|3|
10438 U306:*
7724 U306:0|
2720 U306:1|
1056 U306:2|
2230 U306:3|
1508 U306:4|
612 U306:5|
10440 U307:**
7726 U307:0|0|
8784 U307:0|1|
9726 U307:1|0|
5072 U307:1|1|
2722 U307:1|2|
5496 U307:1|3|
3882 U307:2|1|
1058 U307:2|2|
7056 U307:2|3|
5324 U307:2|4|
4696 U307:3|1|
4750 U307:3|2|
4188 U307:3|3|
2232 U307:3|4|
2374 U307:4|2|
1510 U307:4|3|
1896 U307:4|4|
9088 U307:4|5|
614 U307:5|3|
6930 U307:5|4|
6202 U307:5|5|
10442 U308:**
7728 U308:0|0|
8310 U308:0|1|
9186 U308:0|2|
9408 U308:0|3|
9484 U308:1|0|
2724 U308:1|1|
6944 U308:1|2|
8600 U308:1|3|
7104 U308:1|4|
9050 U308:1|5|
6358 U308:2|0|
1060 U308:2|1|
3884 U308:2|2|
3006 U308:2|3|
8386 U308:2|4|
9662 U308:2|5|
7910 U308:3|0|
4190 U308:3|1|
2234 U308:3|2|
6802 U308:3|3|
7622 U308:3|4|
7952 U308:3|5|
5176 U308:4|0|
1512 U308:4|1|
1898 U308:4|2|
3586 U308:4|3|
3736 U308:4|4|
6006 U308:4|5|
9708 U308:5|0|
616 U308:5|1|
5970 U308:5|2|
7594 U308:5|3|
10444 U309:*
7730 U309:0|
3886 U309:1|
1062 U309:2|
618 U309:3|
1900 U309:4|
6204 U309:5|
9886 U30:*
4608 U30:A|
60 U30:C|
1152 U30:G|
744 U30:T|
10446 U310:**
8312 U310:0|0|
8908 U310:0|1|
7732 U310:0|2|
3888 U310:1|0|
4698 U310:1|1|
8268 U310:1|2|
8722 U310:1|3|
1064 U310:2|0|
3146 U310:2|1|
4100 U310:2|2|
2726 U310:2|3|
5554 U310:2|4|
620 U310:3|1|
4666 U310:3|2|
5178 U310:3|3|
1514 U310:3|4|
1902 U310:4|2|
4588 U310:4|3|
2236 U310:4|4|
6636 U310:4|5|
9090 U310:5|3|
6206 U310:5|4|
9098 U310:5|5|
10448 U311:**
7734 U311:0|1|
8314 U311:0|2|
9410 U311:0|3|
9188 U311:0|4|
9486 U311:1|0|
8786 U311:1|1|
5458 U311:1|2|
4700 U311:1|3|
3890 U311:1|4|
9094 U311:1|5|
7912 U311:2|0|
2728 U311:2|1|
2376 U311:2|2|
1066 U311:2|3|
3738 U311:2|4|
6626 U311:2|5|
6704 U311:3|0|
4192 U311:3|1|
622 U311:3|2|
4668 U311:3|3|
4478 U311:3|4|
6008 U311:3|5|
9286 U311:4|1|
7862 U311:4|2|
1904 U311:4|3|
5782 U311:4|4|
9686 U311:4|5|
9092 U311:5|2|
6208 U311:5|3|
9714 U311:5|4|
10450 U312:*
1068 U312:0|
624 U312:1|
1906 U312:2|
2730 U312:3|
1516 U312:4|
6638 U312:5|
10452 U313:**
1070 U313:0|0|
2378 U313:0|1|
626 U313:1|0|
4702 U313:1|1|
3412 U313:1|2|
4292 U313:1|3|
4978 U313:2|0|
5814 U313:2|1|
1908 U313:2|2|
6102 U313:2|3|
6724 U313:2|4|
7162 U313:3|1|
4752 U313:3|2|
3008 U313:3|3|
2732 U313:3|4|
5498 U313:3|5|
9638 U313:4|2|
5326 U313:4|3|
1518 U313:4|4|
4252 U313:4|5|
9100 U313:5|3|
7222 U313:5|4|
6640 U313:5|5|
10454 U314:**
8862 U314:0|1|
3740 U314:0|2|
2380 U314:0|3|
4866 U314:0|4|
1072 U314:0|5|
8432 U314:1|0|
7914 U314:1|1|
3414 U314:1|2|
628 U314:1|3|
4704 U314:1|4|
6656 U314:1|5|
9450 U314:2|1|
7736 U314:2|2|
1910 U314:2|3|
4670 U314:2|4|
7980 U314:2|5|
2734 U314:3|0|
5180 U314:3|1|
5418 U314:3|2|
3010 U314:3|3|
4754 U314:3|4|
6306 U314:3|5|
8364 U314:4|0|
8614 U314:4|1|
1520 U314:4|2|
3588 U314:4|3|
2238 U314:4|4|
7966 U314:4|5|
8832 U314:5|2|
7224 U314:5|3|
6642 U314:5|4|
9620 U314:5|5|
10456 U315:*
630 U315:0|
2382 U315:1|
1912 U315:2|
3012 U315:3|
1522 U315:4|
4254 U315:5|
10458 U316:**
632 U316:0|0|
1074 U316:0|1|
3742 U316:0|2|
7148 U316:1|0|
2384 U316:1|1|
4706 U316:1|2|
7458 U316:1|3|
5724 U316:2|0|
6908 U316:2|1|
1914 U316:2|2|
5572 U316:2|3|
4102 U316:2|4|
5328 U316:3|1|
5784 U316:3|2|
3014 U316:3|3|
4294 U316:3|4|
9820 U316:3|5|
2240 U316:4|2|
2736 U316:4|3|
1524 U316:4|4|
6932 U316:4|5|
4256 U316:5|4|
5500 U316:5|5|
10460 U317:**
9228 U317:0|0|
4194 U317:0|1|
3744 U317:0|2|
634 U317:0|3|
1076 U317:0|4|
5834 U317:0|5|
9704 U317:1|0|
5986 U317:1|1|
5816 U317:1|2|
2386 U317:1|3|
5664 U317:1|4|
7392 U317:1|5|
9254 U317:2|0|
3416 U317:2|1|
4104 U317:2|2|
4672 U317:2|3|
1916 U317:2|4|
7132 U317:2|5|
8020 U317:3|0|
6830 U317:3|1|
4590 U317:3|2|
3016 U317:3|3|
5960 U317:3|4|
6402 U317:3|5|
9278 U317:4|1|
1526 U317:4|2|
2242 U317:4|3|
9212 U317:4|4|
9688 U317:4|5|
6252 U317:5|0|
8366 U317:5|1|
4258 U317:5|2|
5502 U317:5|3|
6706 U317:5|4|
6644 U317:5|5|
10462 U318:*
636 U318:0|
1078 U318:1|
1918 U318:2|
2738 U318:3|
1528 U318:4|
5504 U318:5|
10464 U319:**
5726 U319:0|0|
6580 U319:0|1|
638 U319:0|2|
5330 U319:1|0|
2388 U319:1|1|
1080 U319:1|2|
4058 U319:1|3|
6988 U319:2|0|
2244 U319:2|1|
1920 U319:2|2|
4674 U319:2|3|
3746 U319:2|4|
6104 U319:3|1|
2740 U319:3|2|
3590 U319:3|3|
7156 U319:3|4|
7460 U319:3|5|
6726 U319:4|2|
1530 U319:4|3|
4260 U319:4|4|
5924 U319:4|5|
7308 U319:5|3|
5506 U319:5|4|
8388 U319:5|5|
9888 U31:**
4876 U31:A|A|
7984 U31:A|C|
4610 U31:A|G|
7184 U31:A|T|
1596 U31:C|A|
3456 U31:C|C|
5352 U31:C|G|
62 U31:C|T|
2010 U31:G|A|
7630 U31:G|C|
2788 U31:G|G|
1154 U31:G|T|
3052 U31:T|A|
2294 U31:T|C|
746 U31:T|G|
6532 U31:T|T|
10466 U320:**
8470 U320:0|0|
5728 U320:0|1|
640 U320:0|2|
7296 U320:0|3|
6582 U320:0|4|
9640 U320:0|5|
8192 U320:1|0|
3892 U320:1|1|
2390 U320:1|2|
1082 U320:1|3|
5666 U320:1|4|
7134 U320:1|5|
6916 U320:2|0|
2246 U320:2|1|
3748 U320:2|2|
4930 U320:2|3|
6048 U320:2|4|
1922 U320:2|5|
9384 U320:3|0|
3592 U320:3|1|
2742 U320:3|2|
3018 U320:3|3|
7596 U320:3|4|
9614 U320:3|5|
8224 U320:4|0|
4106 U320:4|1|
1532 U320:4|2|
6210 U320:4|3|
5962 U320:4|4|
7738 U320:4|5|
8390 U320:5|0|
6254 U320:5|1|
5508 U320:5|2|
5912 U320:5|3|
6646 U320:5|4|
9004 U320:5|5|
10468 U321:*
5332 U321:0|
2248 U321:1|
642 U321:2|
1534 U321:3|
3750 U321:4|
5926 U321:5|
10470 U322:**
5334 U322:0|0|
6804 U322:0|1|
8234 U322:0|2|
4708 U322:1|0|
2250 U322:1|1|
2392 U322:1|2|
3894 U322:1|3|
8712 U322:2|0|
3418 U322:2|1|
2744 U322:2|2|
644 U322:2|3|
1084 U322:2|4|
5876 U322:3|1|
4108 U322:3|2|
1536 U322:3|3|
4060 U322:3|4|
8218 U322:3|5|
4296 U322:4|2|
4262 U322:4|3|
3752 U322:4|4|
6676 U322:4|5|
9106 U322:5|3|
5928 U322:5|4|
6892 U322:5|5|
10472 U323:**
5730 U323:0|0|
5336 U323:0|1|
7164 U323:0|2|
6806 U323:0|3|
7150 U323:0|4|
9664 U323:0|5|
2252 U323:1|0|
4980 U323:1|1|
2394 U323:1|2|
3148 U323:1|3|
5460 U323:1|4|
5240 U323:2|0|
4196 U323:2|1|
646 U323:2|2|
3020 U323:2|3|
5420 U323:2|4|
1924 U323:2|5|
4592 U323:3|0|
5692 U323:3|1|
3594 U323:3|2|
1538 U323:3|3|
7670 U323:3|4|
7644 U323:3|5|
6934 U323:4|0|
5510 U323:4|1|
4264 U323:4|2|
3754 U323:4|3|
6648 U323:4|4|
8096 U323:5|0|
9108 U323:5|1|
5930 U323:5|2|
7866 U323:5|3|
7462 U323:5|4|
9622 U323:5|5|
10474 U324:*
4710 U324:0|
2254 U324:1|
2396 U324:2|
648 U324:3|
1086 U324:4|
6678 U324:5|
10476 U325:**
7540 U325:0|0|
4712 U325:0|1|
7024 U325:0|2|
3420 U325:1|0|
3150 U325:1|1|
2256 U325:1|2|
7006 U325:1|3|
5988 U325:2|0|
4594 U325:2|1|
2746 U325:2|2|
2398 U325:2|3|
6106 U325:2|4|
5836 U325:3|1|
1926 U325:3|2|
650 U325:3|3|
5556 U325:3|4|
7048 U325:3|5|
7566 U325:4|2|
3756 U325:4|3|
1088 U325:4|4|
6516 U325:4|5|
7464 U325:5|3|
8104 U325:5|4|
6680 U325:5|5|
10478 U326:**
5732 U326:0|0|
4714 U326:0|1|
7166 U326:0|2|
7152 U326:0|3|
9666 U326:0|4|
6728 U326:1|0|
2258 U326:1|1|
4828 U326:1|2|
3152 U326:1|3|
5668 U326:1|4|
9476 U326:1|5|
4596 U326:2|0|
2748 U326:2|1|
2400 U326:2|2|
5462 U326:2|3|
4932 U326:2|4|
3896 U326:3|0|
4756 U326:3|1|
652 U326:3|2|
4266 U326:3|3|
1928 U326:3|4|
9064 U326:3|5|
8098 U326:4|0|
4062 U326:4|1|
4868 U326:4|2|
1090 U326:4|3|
5932 U326:4|4|
6894 U326:5|1|
6682 U326:5|2|
8212 U326:5|3|
9752 U326:5|4|
9624 U326:5|5|
10480 U327:*
3422 U327:0|
3154 U327:1|
1930 U327:2|
654 U327:3|
1092 U327:4|
6518 U327:5|
10482 U328:**
5878 U328:0|0|
5670 U328:0|1|
3424 U328:0|2|
4598 U328:1|0|
5182 U328:1|1|
3156 U328:1|2|
6212 U328:1|3|
9282 U328:2|0|
6404 U328:2|1|
1932 U328:2|2|
2750 U328:2|3|
6256 U328:2|4|
7922 U328:3|1|
656 U328:3|2|
2402 U328:3|3|
4198 U328:3|4|
8178 U328:3|5|
4064 U328:4|2|
4870 U328:4|3|
5558 U328:4|4|
1094 U328:4|5|
8194 U328:5|3|
6520 U328:5|4|
8088 U328:5|5|
10484 U329:**
7378 U329:0|0|
5880 U329:0|1|
5672 U329:0|2|
3426 U329:0|3|
7804 U329:1|0|
4600 U329:1|1|
4716 U329:1|2|
3158 U329:1|3|
6214 U329:1|4|
6406 U329:2|0|
6010 U329:2|1|
1934 U329:2|2|
4298 U329:2|3|
4110 U329:2|4|
6258 U329:2|5|
3898 U329:3|1|
658 U329:3|2|
1540 U329:3|3|
5464 U329:3|4|
9284 U329:3|5|
4066 U329:4|1|
5818 U329:4|2|
4872 U329:4|3|
1096 U329:4|4|
6896 U329:5|2|
6522 U329:5|3|
6684 U329:5|4|
7050 U329:5|5|
9890 U32:**
7008 U32:A|A|
7110 U32:A|C|
6836 U32:A|G|
4612 U32:A|T|
64 U32:C|A|
3612 U32:C|C|
4830 U32:C|G|
1598 U32:C|T|
5578 U32:G|A|
6274 U32:G|C|
2436 U32:G|G|
1156 U32:G|T|
2296 U32:T|A|
748 U32:T|C|
4514 U32:T|G|
4938 U32:T|T|
10486 U330:*
4602 U330:0|
5184 U330:1|
660 U330:2|
2404 U330:3|
4200 U330:4|
1098 U330:5|
10488 U331:**
7380 U331:0|0|
4604 U331:0|1|
7628 U331:0|2|
6408 U331:1|0|
5964 U331:1|1|
5186 U331:1|2|
7542 U331:1|3|
4068 U331:2|1|
662 U331:2|2|
1542 U331:2|3|
6900 U331:2|4|
3900 U331:3|1|
2406 U331:3|2|
3022 U331:3|3|
4112 U331:3|4|
9646 U331:3|5|
6898 U331:4|2|
4202 U331:4|3|
6108 U331:4|4|
6260 U331:4|5|
9356 U331:5|3|
1100 U331:5|4|
9626 U331:5|5|
10490 U332:*
6410 U332:0|
3902 U332:1|
664 U332:2|
1544 U332:3|
1102 U332:4|
6262 U332:5|
10492 U333:**
8270 U333:0|0|
6412 U333:0|1|
3904 U333:1|0|
4070 U333:1|1|
5838 U333:1|2|
8986 U333:2|0|
2260 U333:2|1|
666 U333:2|2|
4268 U333:2|3|
1936 U333:2|4|
4982 U333:3|1|
1546 U333:3|2|
3160 U333:3|3|
4934 U333:3|4|
9478 U333:3|5|
4114 U333:4|2|
1104 U333:4|3|
5934 U333:4|4|
9066 U333:4|5|
7052 U333:5|3|
6264 U333:5|4|
9628 U333:5|5|
10494 U334:*
3906 U334:0|
2262 U334:1|
668 U334:2|
1106 U334:3|
1938 U334:4|
9068 U334:5|
10496 U335:**
3908 U335:0|0|
7362 U335:0|1|
7026 U335:0|2|
2264 U335:1|0|
4984 U335:1|1|
2752 U335:1|2|
4072 U335:1|3|
6446 U335:2|0|
4204 U335:2|1|
670 U335:2|2|
1548 U335:2|3|
6584 U335:2|4|
7070 U335:3|1|
1108 U335:3|2|
3162 U335:3|3|
5466 U335:3|4|
6050 U335:3|5|
5260 U335:4|2|
4936 U335:4|3|
5422 U335:4|4|
1940 U335:4|5|
9480 U335:5|3|
9070 U335:5|4|
9630 U335:5|5|
10498 U336:*
2266 U336:0|
4206 U336:1|
672 U336:2|
1550 U336:3|
5424 U336:4|
1942 U336:5|
10500 U337:**
6918 U337:0|0|
2268 U337:0|1|
4676 U337:0|2|
7974 U337:1|0|
4208 U337:1|1|
5338 U337:1|2|
5914 U337:1|3|
8196 U337:2|0|
3428 U337:2|1|
674 U337:2|2|
1110 U337:2|3|
6708 U337:2|4|
6266 U337:3|1|
1552 U337:3|2|
3024 U337:3|3|
5840 U337:3|4|
7154 U337:4|2|
5426 U337:4|3|
5674 U337:4|4|
7136 U337:4|5|
8930 U337:5|3|
6052 U337:5|4|
1944 U337:5|5|
10502 U338:*
6920 U338:0|
2270 U338:1|
676 U338:2|
1112 U338:3|
5676 U338:4|
1946 U338:5|
10504 U339:**
9230 U339:0|0|
6922 U339:0|1|
8392 U339:0|2|
6268 U339:1|0|
3430 U339:1|1|
3596 U339:1|2|
2272 U339:1|3|
9572 U339:2|0|
5990 U339:2|1|
1554 U339:2|2|
678 U339:2|3|
7768 U339:2|4|
8938 U339:3|1|
4074 U339:3|2|
3026 U339:3|3|
1114 U339:3|4|
7158 U339:3|5|
8434 U339:4|2|
6054 U339:4|3|
5678 U339:4|4|
5842 U339:4|5|
7740 U339:5|3|
1948 U339:5|4|
7138 U339:5|5|
9892 U33:*
1600 U33:A|
2298 U33:C|
750 U33:G|
66 U33:T|
10506 U340:*
6270 U340:0|
3432 U340:1|
1556 U340:2|
680 U340:3|
1116 U340:4|
5844 U340:5|
10508 U341:**
9256 U341:0|0|
8616 U341:0|1|
6272 U341:0|2|
8368 U341:1|0|
5188 U341:1|1|
3434 U341:1|2|
5992 U341:1|3|
2754 U341:2|0|
8864 U341:2|1|
1558 U341:2|2|
3598 U341:2|3|
5262 U341:2|4|
9354 U341:3|1|
5916 U341:3|2|
682 U341:3|3|
2274 U341:3|4|
8988 U341:3|5|
6710 U341:4|2|
1950 U341:4|3|
6216 U341:4|4|
1118 U341:4|5|
8804 U341:5|3|
5846 U341:5|4|
7140 U341:5|5|
10510 U342:*
2756 U342:0|
5190 U342:1|
1560 U342:2|
684 U342:3|
2276 U342:4|
1120 U342:5|
10512 U343:**
8370 U343:0|0|
2758 U343:0|1|
8436 U343:0|2|
7916 U343:1|0|
5192 U343:1|1|
7796 U343:1|2|
9314 U343:1|3|
6712 U343:2|0|
4210 U343:2|1|
1562 U343:2|2|
3436 U343:2|3|
3758 U343:2|4|
8806 U343:3|1|
686 U343:3|2|
1952 U343:3|3|
3910 U343:3|4|
6628 U343:3|5|
5264 U343:4|2|
2278 U343:4|3|
4480 U343:4|4|
6012 U343:4|5|
1122 U343:5|3|
8136 U343:5|4|
9006 U343:5|5|
10514 U344:*
6714 U344:0|
2760 U344:1|
688 U344:2|
1124 U344:3|
3760 U344:4|
6014 U344:5|
10516 U345:**
7918 U345:0|0|
6716 U345:0|2|
5194 U345:1|0|
2762 U345:1|1|
5918 U345:1|2|
6360 U345:2|0|
690 U345:2|1|
5428 U345:2|2|
8022 U345:2|3|
8664 U345:2|4|
1126 U345:3|1|
1954 U345:3|2|
3028 U345:3|3|
7106 U345:3|4|
3912 U345:4|2|
6808 U345:4|3|
3762 U345:4|4|
7954 U345:4|5|
9456 U345:5|3|
8394 U345:5|4|
6016 U345:5|5|
10518 U346:*
5196 U346:0|
692 U346:1|
1956 U346:2|
3030 U346:3|
3764 U346:4|
6018 U346:5|
10520 U347:**
5198 U347:0|0|
8180 U347:0|1|
9152 U347:0|2|
694 U347:1|0|
2764 U347:1|1|
7226 U347:1|2|
4482 U347:2|0|
1958 U347:2|1|
3438 U347:2|2|
7298 U347:2|3|
6810 U347:3|1|
3032 U347:3|2|
3600 U347:3|3|
9426 U347:3|4|
8692 U347:4|2|
3766 U347:4|3|
8396 U347:4|4|
6020 U347:5|3|
10522 U348:*
696 U348:0|
1960 U348:1|
3034 U348:2|
3602 U348:3|
8398 U348:4|
10524 U349:**
698 U349:0|0|
3164 U349:0|1|
8990 U349:0|2|
2280 U349:1|0|
1962 U349:1|1|
8182 U349:1|2|
6218 U349:1|3|
3914 U349:2|0|
3036 U349:2|1|
3440 U349:2|2|
7228 U349:2|3|
3768 U349:3|1|
3604 U349:3|2|
7300 U349:3|3|
8602 U349:3|4|
8666 U349:3|5|
8400 U349:4|2|
9428 U349:4|3|
9600 U349:4|4|
9894 U34:**
4940 U34:A|A|
3614 U34:A|C|
2012 U34:A|G|
1602 U34:A|T|
7318 U34:C|A|
2300 U34:C|C|
3458 U34:C|G|
3778 U34:C|T|
3186 U34:G|A|
752 U34:G|C|
2790 U34:G|G|
5790 U34:G|T|
1158 U34:T|A|
6946 U34:T|C|
68 U34:T|G|
6730 U34:T|T|
10526 U350:*
700 U350:0|
1964 U350:1|
3442 U350:2|
6220 U350:3|
8604 U350:4|
8668 U350:5|
10528 U351:**
1564 U351:0|0|
702 U351:0|1|
2282 U351:0|2|
7624 U351:1|0|
3038 U351:1|1|
1966 U351:1|2|
3770 U351:1|3|
8612 U351:2|0|
8024 U351:2|1|
8402 U351:2|2|
3444 U351:2|3|
9154 U351:2|4|
9056 U351:3|1|
6222 U351:3|2|
7230 U351:3|3|
7302 U351:3|4|
9034 U351:4|3|
8606 U351:4|4|
8670 U351:5|4|
10530 U352:*
1566 U352:0|
704 U352:1|
1968 U352:2|
3446 U352:3|
7304 U352:4|
10532 U353:**
4484 U353:0|0|
1568 U353:0|1|
7432 U353:0|2|
5340 U353:1|0|
5512 U353:1|1|
706 U353:1|2|
2766 U353:1|3|
2284 U353:2|2|
1970 U353:2|3|
4384 U353:2|4|
7232 U353:3|1|
3448 U353:3|2|
7842 U353:3|3|
6586 U353:3|4|
9156 U353:4|2|
7306 U353:4|3|
8608 U353:4|4|
9554 U353:4|5|
10534 U354:*
4486 U354:0|
1570 U354:1|
708 U354:2|
1972 U354:3|
4386 U354:4|
9556 U354:5|
10536 U355:**
5200 U355:0|0|
4488 U355:0|1|
8834 U355:0|2|
7920 U355:1|0|
1572 U355:1|1|
6414 U355:1|2|
5936 U355:1|3|
3450 U355:2|1|
3772 U355:2|2|
710 U355:2|3|
4758 U355:2|4|
8672 U355:3|1|
1974 U355:3|2|
2768 U355:3|3|
6468 U355:3|5|
4388 U355:4|2|
6588 U355:4|3|
8928 U355:4|4|
8610 U355:4|5|
9558 U355:5|5|
10538 U356:*
5202 U356:0|
1574 U356:1|
1976 U356:2|
712 U356:3|
4760 U356:4|
6470 U356:5|
10540 U357:**
5204 U357:0|0|
8348 U357:0|1|
1576 U357:1|0|
4490 U357:1|1|
3774 U357:2|0|
1978 U357:2|1|
8090 U357:2|5|
2770 U357:3|0|
714 U357:3|1|
4076 U357:3|5|
9710 U357:4|1|
4762 U357:4|5|
6472 U357:5|5|
10542 U358:*
1578 U358:0|
716 U358:1|
4078 U358:5|
9896 U35:**
3924 U35:A|A|
3054 U35:A|C|
1604 U35:A|G|
2014 U35:A|T|
6964 U35:C|A|
2302 U35:C|C|
8482 U35:C|G|
3460 U35:C|T|
3188 U35:G|A|
4304 U35:G|C|
754 U35:G|G|
2792 U35:G|T|
6534 U35:T|A|
70 U35:T|C|
1160 U35:T|G|
7058 U35:T|T|
9898 U36:*
1162 U36:A|
756 U36:C|
72 U36:G|
1606 U36:T|
9900 U37:**
1164 U37:A|A|
6022 U37:A|C|
4942 U37:A|G|
7320 U37:A|T|
758 U37:C|A|
3616 U37:C|C|
4614 U37:C|G|
4306 U37:C|T|
2794 U37:G|A|
2438 U37:G|C|
74 U37:G|G|
5012 U37:G|T|
5432 U37:T|A|
3056 U37:T|C|
1608 U37:T|G|
5634 U37:T|T|
9902 U38:**
1166 U38:A|A|
3190 U38:A|C|
6024 U38:A|G|
5208 U38:A|T|
4308 U38:C|A|
3618 U38:C|C|
760 U38:C|G|
2304 U38:C|T|
2440 U38:G|A|
2796 U38:G|C|
5080 U38:G|G|
76 U38:G|T|
4126 U38:T|A|
5938 U38:T|C|
3058 U38:T|G|
1610 U38:T|T|
9904 U39:*
762 U39:A|
2442 U39:C|
78 U39:G|
4310 U39:T|
9832 U3:*
6 U3:A|
9906 U40:**
4516 U40:A|A|
764 U40:A|C|
2306 U40:A|G|
5848 U40:A|T|
6026 U40:C|A|
2444 U40:C|C|
3620 U40:C|G|
6276 U40:C|T|
1612 U40:G|A|
2016 U40:G|C|
80 U40:G|G|
4128 U40:G|T|
8112 U40:T|A|
4312 U40:T|C|
6062 U40:T|G|
5820 U40:T|T|
9908 U41:**
766 U41:A|A|
2308 U41:A|C|
4518 U41:A|G|
1168 U41:A|T|
3060 U41:C|A|
3462 U41:C|C|
2446 U41:C|G|
4878 U41:C|T|
5468 U41:G|A|
82 U41:G|C|
1614 U41:G|G|
3780 U41:G|T|
4314 U41:T|A|
5014 U41:T|C|
7770 U41:T|G|
6902 U41:T|T|
9910 U42:*
1616 U42:A|
768 U42:C|
84 U42:G|
4130 U42:T|
9912 U43:**
5354 U43:A|C|
1618 U43:A|G|
5082 U43:A|T|
770 U43:C|A|
2018 U43:C|C|
2448 U43:C|G|
1170 U43:C|T|
3926 U43:G|A|
86 U43:G|C|
7772 U43:G|G|
3192 U43:G|T|
6870 U43:T|A|
4132 U43:T|C|
7926 U43:T|G|
5850 U43:T|T|
9914 U44:*
772 U44:A|
88 U44:C|
1620 U44:G|
1172 U44:T|
9916 U45:**
4316 U45:A|A|
6244 U45:A|C|
774 U45:A|G|
3928 U45:A|T|
3464 U45:C|A|
2798 U45:C|C|
6990 U45:C|G|
90 U45:C|T|
2450 U45:G|A|
7678 U45:G|C|
7570 U45:G|G|
1622 U45:G|T|
1174 U45:T|A|
3194 U45:T|C|
4880 U45:T|G|
3782 U45:T|T|
9918 U46:*
1176 U46:A|
2800 U46:C|
776 U46:G|
92 U46:T|
9920 U47:**
4396 U47:A|A|
4318 U47:A|C|
1178 U47:A|G|
2452 U47:A|T|
3196 U47:C|A|
5268 U47:C|C|
3622 U47:C|G|
2802 U47:C|T|
5084 U47:G|A|
3062 U47:G|C|
778 U47:G|G|
4882 U47:G|T|
3930 U47:T|A|
94 U47:T|C|
1624 U47:T|G|
2020 U47:T|T|
9922 U48:*
3198 U48:A|
96 U48:C|
780 U48:G|
2022 U48:T|
9924 U49:**
5580 U49:A|A|
3932 U49:A|C|
4398 U49:A|G|
3200 U49:A|T|
98 U49:C|A|
5636 U49:C|C|
6312 U49:C|G|
4616 U49:C|T|
4216 U49:G|A|
782 U49:G|C|
6732 U49:G|G|
1180 U49:G|T|
3466 U49:T|A|
7754 U49:T|C|
2454 U49:T|G|
2024 U49:T|T|
9834 U4:**
8 U4:A|C|
6122 U4:A|G|
8486 U4:A|T|
9926 U50:*
100 U50:A|
784 U50:C|
2456 U50:G|
1182 U50:T|
9928 U51:**
3064 U51:A|A|
5582 U51:A|C|
102 U51:A|G|
5734 U51:A|T|
786 U51:C|A|
6536 U51:C|C|
8496 U51:C|G|
3624 U51:C|T|
2458 U51:G|A|
6734 U51:G|C|
2804 U51:G|G|
5940 U51:G|T|
2026 U51:T|A|
6910 U51:T|C|
1626 U51:T|G|
1184 U51:T|T|
9930 U52:*
788 U52:A|
5584 U52:C|
104 U52:G|
1186 U52:T|
9932 U53:**
7680 U53:A|A|
790 U53:A|C|
7872 U53:A|G|
2460 U53:A|T|
8326 U53:C|A|
5586 U53:C|C|
8942 U53:C|G|
5884 U53:C|T|
5086 U53:G|A|
106 U53:G|C|
1628 U53:G|G|
4400 U53:G|T|
6314 U53:T|A|
1188 U53:T|C|
3202 U53:T|G|
8354 U53:T|T|
9934 U54:*
5088 U54:A|
108 U54:C|
1630 U54:G|
2462 U54:T|
9936 U55:**
8144 U55:A|A|
7572 U55:A|C|
5090 U55:A|G|
7774 U55:A|T|
110 U55:C|A|
4764 U55:C|C|
2806 U55:C|G|
3784 U55:C|T|
7468 U55:G|A|
1632 U55:G|C|
7322 U55:G|G|
6776 U55:G|T|
4134 U55:T|A|
5886 U55:T|C|
4402 U55:T|G|
2464 U55:T|T|
9938 U56:*
112 U56:A|
1634 U56:C|
2808 U56:G|
2466 U56:T|
9940 U57:**
114 U57:A|A|
3626 U57:A|C|
3468 U57:A|G|
4832 U57:A|T|
1636 U57:C|A|
4766 U57:C|C|
9754 U57:C|G|
3204 U57:C|T|
3934 U57:G|A|
2810 U57:G|C|
6948 U57:G|G|
6538 U57:G|T|
2468 U57:T|A|
6688 U57:T|C|
3786 U57:T|G|
8868 U57:T|T|
9942 U58:*
116 U58:A|
2812 U58:C|
3470 U58:G|
3206 U58:T|
9944 U59:**
118 U59:A|A|
8498 U59:A|C|
2028 U59:A|G|
5270 U59:A|T|
2814 U59:C|A|
9690 U59:C|G|
3628 U59:C|T|
3788 U59:G|A|
3472 U59:G|C|
9010 U59:G|G|
8634 U59:G|T|
4834 U59:T|A|
3208 U59:T|C|
8372 U59:T|G|
8870 U59:T|T|
9836 U5:**
3166 U5:A|A|
10 U5:A|C|
3916 U5:A|G|
1128 U5:A|T|
9946 U60:*
120 U60:A|
3210 U60:C|
2030 U60:G|
3630 U60:T|
9948 U61:**
122 U61:A|A|
7236 U61:A|C|
2470 U61:A|T|
3474 U61:C|A|
8500 U61:C|C|
3212 U61:C|G|
7986 U61:C|T|
2032 U61:G|A|
9756 U61:G|C|
9290 U61:G|G|
7186 U61:G|T|
3632 U61:T|A|
8740 U61:T|C|
9416 U61:T|G|
7874 U61:T|T|
9950 U62:*
124 U62:A|
7238 U62:C|
3214 U62:G|
2472 U62:T|
9952 U63:**
126 U63:A|A|
1638 U63:A|C|
6478 U63:A|G|
1190 U63:A|T|
7240 U63:C|A|
8146 U63:C|C|
8742 U63:C|T|
9678 U63:G|A|
3216 U63:G|C|
9292 U63:G|T|
3936 U63:T|A|
8790 U63:T|C|
6540 U63:T|G|
2474 U63:T|T|
9954 U64:*
128 U64:A|
1640 U64:C|
6480 U64:G|
1192 U64:T|
9956 U65:**
5092 U65:A|A|
130 U65:A|C|
6064 U65:A|G|
3938 U65:A|T|
8636 U65:C|A|
1642 U65:C|C|
3218 U65:C|G|
7574 U65:C|T|
8048 U65:G|A|
6482 U65:G|C|
6542 U65:G|T|
7072 U65:T|A|
1194 U65:T|C|
2476 U65:T|G|
8328 U65:T|T|
9958 U66:*
5094 U66:A|
132 U66:C|
2478 U66:G|
3940 U66:T|
9960 U67:**
8272 U67:A|A|
6966 U67:A|C|
8050 U67:A|G|
5096 U67:A|T|
4320 U67:C|A|
134 U67:C|C|
6448 U67:C|G|
1196 U67:C|T|
3220 U67:G|A|
6372 U67:G|C|
4722 U67:G|G|
2480 U67:G|T|
4270 U67:T|A|
4404 U67:T|C|
3942 U67:T|G|
7876 U67:T|T|
9962 U68:*
3222 U68:A|
136 U68:C|
3944 U68:G|
1198 U68:T|
9964 U69:**
3224 U69:A|T|
138 U69:C|T|
3946 U69:G|T|
1200 U69:T|T|
9838 U6:*
12 U6:C|
6124 U6:G|
8488 U6:T|
9966 U70:*
140 U70:T|
9968 U71:**
142 U71:T|+|
9970 U72:*
144 U72:+|
9972 U73:**
146 U73:+|4|
9974 U74:**
148 U74:+|0|
1202 U74:+|2|
9976 U75:*
150 U75:4|
9978 U76:**
152 U76:4|0|
9980 U77:**
1204 U77:4|0|
154 U77:4|1|
6450 U77:4|2|
6374 U77:4|3|
3226 U77:4|4|
9982 U78:*
156 U78:0|
9984 U79:**
1206 U79:0|0|
5356 U79:0|1|
792 U79:0|2|
158 U79:0|4|
9840 U7:**
14 U7:C|A|
5342 U7:C|C|
718 U7:C|G|
1130 U7:C|T|
6126 U7:G|A|
9492 U7:G|G|
9576 U7:G|T|
9358 U7:T|A|
9258 U7:T|C|
8490 U7:T|T|
9986 U80:**
160 U80:0|0|
1644 U80:0|1|
3228 U80:0|2|
6484 U80:0|3|
1208 U80:0|4|
9988 U81:*
1210 U81:0|
5358 U81:1|
794 U81:2|
162 U81:4|
9990 U82:**
7470 U82:0|2|
1212 U82:0|4|
8052 U82:1|0|
6594 U82:1|1|
5360 U82:1|2|
7650 U82:1|4|
6872 U82:2|0|
5016 U82:2|1|
8502 U82:2|2|
796 U82:2|3|
7988 U82:2|4|
164 U82:4|0|
9262 U82:4|1|
4136 U82:4|2|
9992 U83:**
1214 U83:0|0|
2034 U83:0|2|
8944 U83:0|4|
5362 U83:1|0|
6596 U83:1|2|
7810 U83:1|4|
7756 U83:2|0|
798 U83:2|2|
7990 U83:2|4|
1646 U83:4|0|
8148 U83:4|1|
166 U83:4|2|
3230 U83:4|3|
3948 U83:4|4|
9994 U84:*
168 U84:0|
5018 U84:1|
4138 U84:2|
800 U84:3|
1216 U84:4|
9996 U85:**
170 U85:0|0|
5524 U85:0|1|
2482 U85:0|2|
2816 U85:0|3|
3950 U85:0|4|
6598 U85:1|0|
7812 U85:1|1|
5758 U85:1|3|
5020 U85:1|4|
4140 U85:2|0|
7472 U85:2|2|
8638 U85:2|3|
802 U85:3|0|
1218 U85:4|0|
8946 U85:4|1|
8744 U85:4|2|
2036 U85:4|3|
6316 U85:4|4|
9998 U86:**
2484 U86:0|0|
9294 U86:0|1|
172 U86:0|2|
3476 U86:0|4|
7814 U86:1|0|
5022 U86:1|2|
9232 U86:2|0|
8504 U86:2|1|
4142 U86:2|2|
9758 U86:2|3|
5272 U86:2|4|
804 U86:3|2|
7652 U86:4|0|
1220 U86:4|2|
2038 U86:4|4|
10000 U87:*
174 U87:0|
5526 U87:1|
2486 U87:2|
2040 U87:3|
3952 U87:4|
10002 U88:**
9218 U88:0|1|
7602 U88:0|2|
176 U88:0|4|
7816 U88:1|1|
8820 U88:1|2|
5528 U88:1|4|
9606 U88:2|0|
8506 U88:2|2|
2488 U88:2|4|
5760 U88:3|0|
2818 U88:3|1|
5434 U88:3|2|
2042 U88:3|4|
4520 U88:4|0|
8298 U88:4|2|
3954 U88:4|4|
10004 U89:**
3634 U89:0|0|
9164 U89:0|1|
178 U89:0|2|
3478 U89:0|3|
3232 U89:0|4|
7878 U89:1|0|
5530 U89:1|2|
8508 U89:2|0|
9012 U89:2|1|
2490 U89:2|2|
6874 U89:2|4|
2044 U89:3|0|
5436 U89:3|2|
2820 U89:3|4|
7436 U89:4|0|
9398 U89:4|1|
3956 U89:4|2|
7074 U89:4|4|
9842 U8:**
5074 U8:C|A|
16 U8:C|C|
2408 U8:C|G|
3918 U8:C|T|
6128 U8:G|C|
9494 U8:G|T|
9260 U8:T|A|
8492 U8:T|C|
10006 U90:*
4522 U90:0|
2822 U90:1|
5438 U90:2|
180 U90:4|
10008 U91:**
4524 U91:0|0|
7438 U91:0|1|
9778 U91:0|2|
6318 U91:0|3|
5024 U91:0|4|
6838 U91:1|0|
2824 U91:1|1|
4724 U91:1|4|
7188 U91:2|0|
7310 U91:2|1|
7682 U91:2|2|
9728 U91:2|3|
5440 U91:2|4|
182 U91:4|0|
3066 U91:4|1|
4680 U91:4|2|
1648 U91:4|3|
806 U91:4|4|
10010 U92:**
5762 U92:0|0|
5026 U92:0|2|
8676 U92:0|3|
4526 U92:0|4|
4726 U92:1|0|
6226 U92:1|2|
2826 U92:1|3|
8414 U92:1|4|
7604 U92:2|0|
8746 U92:2|1|
5442 U92:2|2|
7684 U92:2|4|
3234 U92:4|0|
4768 U92:4|1|
184 U92:4|2|
8838 U92:4|3|
1650 U92:4|4|
10012 U93:*
186 U93:0|
2828 U93:1|
4682 U93:2|
1652 U93:3|
808 U93:4|
10014 U94:**
2046 U94:0|0|
6486 U94:0|1|
188 U94:0|2|
7112 U94:0|3|
2492 U94:0|4|
2830 U94:1|0|
7394 U94:1|1|
8274 U94:1|2|
8912 U94:1|3|
3068 U94:1|4|
4684 U94:2|0|
9780 U94:2|1|
9716 U94:2|2|
7686 U94:2|4|
5792 U94:3|0|
5098 U94:3|1|
6320 U94:3|2|
1654 U94:3|4|
810 U94:4|0|
9500 U94:4|1|
6660 U94:4|2|
9610 U94:4|3|
8054 U94:4|4|
10016 U95:**
3790 U95:0|0|
6132 U95:0|1|
2494 U95:0|2|
190 U95:0|4|
7396 U95:1|0|
8440 U95:1|1|
2832 U95:1|2|
3070 U95:1|4|
7688 U95:2|0|
8996 U95:2|1|
4686 U95:2|4|
5100 U95:3|0|
9170 U95:3|1|
8214 U95:3|2|
1656 U95:3|3|
5794 U95:3|4|
7776 U95:4|0|
4770 U95:4|1|
6028 U95:4|2|
3236 U95:4|3|
812 U95:4|4|
10018 U96:*
814 U96:0|
5102 U96:1|
192 U96:2|
7114 U96:3|
1658 U96:4|
10020 U97:**
5364 U97:0|0|
3238 U97:0|1|
816 U97:0|2|
7798 U97:0|3|
1222 U97:0|4|
6488 U97:1|0|
7474 U97:1|1|
9372 U97:1|2|
8460 U97:1|3|
5104 U97:1|4|
6322 U97:2|0|
8276 U97:2|1|
194 U97:2|2|
4618 U97:2|4|
9048 U97:3|0|
9652 U97:3|1|
8914 U97:3|2|
7116 U97:3|4|
1660 U97:4|0|
6840 U97:4|1|
3072 U97:4|2|
4528 U97:4|3|
5694 U97:4|4|
10022 U98:**
818 U98:0|0|
5588 U98:0|1|
8356 U98:0|2|
2310 U98:0|3|
1224 U98:0|4|
6490 U98:1|0|
9566 U98:1|1|
9252 U98:1|2|
7440 U98:1|3|
5106 U98:1|4|
3792 U98:2|0|
6778 U98:2|1|
196 U98:2|3|
5942 U98:2|4|
7118 U98:3|0|
9612 U98:3|1|
9654 U98:3|3|
2496 U98:4|0|
1662 U98:4|1|
7690 U98:4|2|
8724 U98:4|3|
3958 U98:4|4|
10024 U99:*
1664 U99:0|
3240 U99:1|
198 U99:2|
4530 U99:3|
1226 U99:4|
9844 U9:*
18 U9:A|
5344 U9:C|
720 U9:G|
1132 U9:T|

-0.0483050595182756
0.0483050596933675
-0.0483050595182756
0.0483050596933675
-0.0483050595182756
0.0483050596933675
-0.0483050595182756
0.0483050596933675
-0.0433263575265285
0.0433263577010846
-0.0190977629126434
0.0190977630170447
-0.0433263575265285
0.0433263577010846
-0.0260671833582202
0.0260671835150104
-0.0225230393946968
0.0225230395234924
-0.0266979684250317
0.0266979685812659
-0.0190804169874053
0.0190804171139472
-0.0193441986403615
0.0193441987794232
-0.0302775981470267
0.0302775982901867
-0.0207509580738479
0.0207509581916812
-0.0229967523659016
0.0229967524944032
-0.0319098838883336
0.0319098840255582
-0.0214858579579697
0.0214858580649808
-0.0206370208209466
0.0206370209430667
-0.0262585319680692
0.0262585320839920
-0.0040207626006183
0.0040207626299611
-0.0158411511065478
0.0158411511956130
-0.0101410011026464
0.0101410011354808
-0.0033880649345782
0.0033880649637511
-0.0063922442299003
0.0063922442599253
-0.0167272771456773
0.0167272772612947
-0.0056434564685289
0.0056434564953126
-0.0123455673597812
0.0123455674658189
-0.0137530577362762
0.0137530577795202
-0.0051742689889359
0.0051742690201364
-0.0019866417956080
0.0019866418011186
-0.0174566200061189
0.0174566200899645
-0.0016966499084030
0.0016966499165546
-0.0045612160401496
0.0045612160646322
-0.0052698457567434
0.0052698457669423
-0.0006111103033835
0.0006111103072635
-0.0001227551924236
0.0001227551958497
-0.0136085592230586
0.0136085592929754
-0.0047963145409094
0.0047963145527658
-0.0046887277312126
0.0046887277470440
-0.0139833613144028
0.0139833613470472
-0.0028861661508606
0.0028861661633081
-0.0073453735134446
0.0073453735399777
-0.0112126933301273
0.0112126933763427
-0.0072519712362888
0.0072519712653882
-0.0254342141029981
0.0254342141937761
-0.0104065704300907
0.0104065704570728
-0.0154230872969493
0.0154230873402993
-0.0025281349398819
0.0025281349470773
-0.0075502683019262
0.0075502683331649
-0.0021147990503928
0.0021147990584627
-0.0091387468208221
0.0091387468660357
-0.0017488626888624
0.0017488626992582
-0.0106984774477289
0.0106984774741705
-0.0045143445014562
0.0045143445231346
-0.0313117306776769
0.0313117308348903
-0.0231435470002099
0.0231435471439817
-0.0274143564212732
0.0274143565748958
-0.0164329267851625
0.0164329269024656
-0.0280166061037250
0.0280166062392540
-0.0206226634737334
0.0206226635933141
-0.0307367736365311
0.0307367737861156
-0.0255113175038798
0.0255113176428833
-0.0338587340521657
0.0338587342047963
-0.0234222316979067
0.0234222318278825
-0.0306923334836004
0.0306923336271940
-0.0183061966321942
0.0183061967413197
-0.0246509603353911
0.0246509604632445
-0.0133187261483878
0.0133187262361594
-0.0190977629126434
0.0190977630170447
-0.0190977629126434
0.0190977630170447
-0.0483050595182756
0.0483050596933675
-0.0483050595182756
0.0483050596933675
-0.0483050595182756
0.0483050596933675
-0.0483050595182756
0.0483050596933675
-0.0364870667304592
0.0364870668638916
-0.0483050595182756
0.0483050596933675
-0.0483050595182756
0.0483050596933675
-0.0151581306655843
0.0151581307629484
-0.0483050595182756
0.0483050596933675
-0.0270169015994119
0.0270169017561757
-0.0306935648649033
0.0306935650003242
-0.0270169015994119
0.0270169017561757
-0.0237710136099063
0.0237710137449365
-0.0162633880590646
0.0162633881848388
-0.0251055987781413
0.0251055989128857
-0.0137604800774988
0.0137604801823528
-0.0162841722366389
0.0162841723454992
-0.0283863965311553
0.0283863966743967
-0.0256064243482567
0.0256064244906962
-0.0136994126481596
0.0136994127547034
-0.0330816056958785
0.0330816058492304
-0.0110394897982650
0.0110394898508129
-0.0133958377440354
0.0133958378467987
-0.0142089252262800
0.0142089252738549
-0.0033880649345782
0.0033880649637511
-0.0091799057480452
0.0091799057861397
-0.0071087775398909
0.0071087775815076
-0.0030172102989347
0.0030172103122430
-0.0009064077059686
0.0009064077128372
-0.0096474862059143
0.0096474862429573
-0.0045692678643137
0.0045692678919882
-0.0022974056217772
0.0022974056251582
-0.0150521747349460
0.0150521747798037
-0.0048092830924715
0.0048092830988054
-0.0035738339766597
0.0035738339884327
-0.0081826761850213
0.0081826761997486
-0.0040428605037210
0.0040428605134390
-0.0039539347691377
0.0039539347792119
-0.0103243375900150
0.0103243376124327
-0.0009610846834983
0.0009610846825316
-0.0018286356700155
0.0018286356818409
-0.0073675945531333
0.0073675945744000
-0.0028944188428577
0.0028944188575860
-0.0018406736378024
0.0018406736433621
-0.0087015009021250
0.0087015009555719
-0.0023051551506848
0.0023051551623896
-0.0072519712362888
0.0072519712653882
-0.0043505330139565
0.0043505330342440
-0.0147037209938453
0.0147037210319627
-0.0060524952894151
0.0060524953070378
-0.0148560255269983
0.0148560255601822
-0.0012870791458825
0.0012870791466341
-0.0136399548815572
0.0136399549411025
-0.0058728009452566
0.0058728009646376
-0.0100395311253961
0.0100395311487542
-0.0014020823754024
0.0014020823876103
-0.0045143445014562
0.0045143445231346
-0.0035303599519702
0.0035303599694575
-0.0293870189806071
0.0293870191304331
-0.0163018392311476
0.0163018393492544
-0.0181489762890176
0.0181489764090294
-0.0140093687625558
0.0140093688658189
-0.0219220798538049
0.0219220799763615
-0.0172224840495575
0.0172224841640628
-0.0282194333616375
0.0282194335072853
-0.0186142420992250
0.0186142422173254
-0.0246662168602509
0.0246662169917907
-0.0203380647685340
0.0203380648889073
-0.0306935648649033
0.0306935650003242
-0.0104500714258746
0.0104500715033525
-0.0151581306655843
0.0151581307629484
-0.0151581306655843
0.0151581307629484
-0.0364870667304592
0.0364870668638916
-0.0364870667304592
0.0364870668638916
-0.0483050595182756
0.0483050596933675
-0.0457732116416029
0.0457732118156801
-0.0190977629126434
0.0190977630170447
-0.0457732116416029
0.0457732118156801
-0.0377959321802842
0.0377959323455746
-0.0226908575093192
0.0226908576006779
-0.0377959321802842
0.0377959323455746
-0.0267557688288784
0.0267557689657245
-0.0121648993145652
0.0121648993993241
-0.0309579037466309
0.0309579038858969
-0.0207378269611709
0.0207378270861084
-0.0122828204600479
0.0122828205545172
-0.0225009402594956
0.0225009403868022
-0.0120594348719824
0.0120594349612045
-0.0118875415304732
0.0118875416269392
-0.0198449123315312
0.0198449124371304
-0.0081942507470985
0.0081942508041693
-0.0075529409939575
0.0075529410726407
-0.0196535836923933
0.0196535837871917
-0.0072679988937117
0.0072679989352999
-0.0069441567735494
0.0069441568271330
-0.0153311416905262
0.0153311417434034
-0.0014209508820855
0.0014209508863148
-0.0066947744130984
0.0066947744380540
-0.0026855160974391
0.0026855161012999
-0.0016889783085758
0.0016889783121929
-0.0008798388786673
0.0008798388827687
-0.0024469597768031
0.0024469597839143
-0.0006234183018670
0.0006234183026302
-0.0007897439915969
0.0007897439951269
-0.0075670971904557
0.0075670972093249
-0.0041285967014430
0.0041285967168077
-0.0023525683538999
0.0023525683615176
-0.0176553838926341
0.0176553839778773
-0.0075380224768799
0.0075380225055265
-0.0034341163015838
0.0034341163156107
-0.0155857047142412
0.0155857047533925
-0.0070748062932682
0.0070748063058095
-0.0054185983845709
0.0054185984014481
-0.0139928790082175
0.0139928790468208
-0.0029886357869377
0.0029886358049898
-0.0030020862565977
0.0030020862688070
-0.0074045229550657
0.0074045229794991
-0.0029238248269499
0.0029238248384861
-0.0085585150759442
0.0085585151048435
-0.0019777497091343
0.0019777497224203
-0.0154187745464544
0.0154187746144333
-0.0032765128725944
0.0032765128908542
-0.0064150379307197
0.0064150379566244
-0.0018748156848434
0.0018748156915315
-0.0122927114949824
0.0122927115291311
-0.0067904068578373
0.0067904068686581
-0.0190952758923301
0.0190952759539064
-0.0118934979782687
0.0118934980258756
-0.0209652647584311
0.0209652648549929
-0.0089471094041559
0.0089471094400784
-0.0199313579833774
0.0199313580581507
-0.0026216977751227
0.0026216977993383
-0.0147433770781318
0.0147433771720865
-0.0132644936574885
0.0132644937519783
-0.0161913423955962
0.0161913425098100
-0.0135321982281228
0.0135321983364321
-0.0216395421537927
0.0216395422783679
-0.0165057670040501
0.0165057671116236
-0.0191027461426490
0.0191027462603557
-0.0096714136778391
0.0096714137519363
-0.0180947725303158
0.0180947726173546
-0.0169144015872899
0.0169144016722493
-0.0252227053859919
0.0252227054784260
-0.0139804011340665
0.0139804012202435
-0.0190977629126434
0.0190977630170447
-0.0190977629126434
0.0190977630170447
-0.0483050595182756
0.0483050596933675
-0.0483050595182756
0.0483050596933675
-0.0190977629126434
0.0190977630170447
-0.0483050595182756
0.0483050596933675
-0.0433263575265285
0.0433263577010846
-0.0151581306655843
0.0151581307629484
-0.0433263575265285
0.0433263577010846
-0.0260671833582202
0.0260671835150104
-0.0176298989987450
0.0176298991102487
-0.0260671833582202
0.0260671835150104
-0.0184496319205938
0.0184496320477233
-0.0197120180603077
0.0197120181974337
-0.0199281512363340
0.0199281513636516
-0.0124878969209039
0.0124878970255611
-0.0158529367576768
0.0158529368786039
-0.0220159793076809
0.0220159794364941
-0.0158578153550864
0.0158578154597430
-0.0172709865106242
0.0172709866219372
-0.0259330878421258
0.0259330879638244
-0.0036080709803377
0.0036080710157230
-0.0138603189016888
0.0138603189921848
-0.0049088125347618
0.0049088125682568
-0.0032710400144442
0.0032710400430127
-0.0025555879749201
0.0025555880033032
-0.0130776018538246
0.0130776018985670
-0.0063663860694950
0.0063663861038054
-0.0031540631586886
0.0031540631747291
-0.0218343040341043
0.0218343041410946
-0.0085335060420573
0.0085335060764860
-0.0030154599315800
0.0030154599366160
-0.0157770289506199
0.0157770290035604
-0.0019931833838018
0.0019931833902864
-0.0026824799529740
0.0026824799584091
-0.0073737859299772
0.0073737859495652
-0.0014339464324876
0.0014339464383117
-0.0028277111256093
0.0028277111351946
-0.0035172208146148
0.0035172208202251
-0.0002805520086725
0.0002805520091300
-0.0005707377004259
0.0005707377013979
-0.0073675945531333
0.0073675945744000
-0.0028944188428577
0.0028944188575860
-0.0027861216160261
0.0027861216303038
-0.0087015009021250
0.0087015009555719
-0.0034046353828764
0.0034046354176791
-0.0173360268254944
0.0173360269077612
-0.0062798506720219
0.0062798506919399
-0.0138469753871133
0.0138469754212664
-0.0081048781861536
0.0081048782130640
-0.0171463153534034
0.0171463153981954
-0.0012558373294641
0.0012558373352671
-0.0070133154296157
0.0070133154477345
-0.0006848092989077
0.0006848093023186
-0.0061262303423528
0.0061262303572923
-0.0025233530888302
0.0025233531015696
-0.0080779956524613
0.0080779956828888
-0.0039172942102821
0.0039172942268984
-0.0238423962452361
0.0238423963879191
-0.0144128124785681
0.0144128125878671
-0.0248744442262778
0.0248744443552041
-0.0178538286826296
0.0178538287982071
-0.0327574140083359
0.0327574141511196
-0.0242623831973257
0.0242623833285890
-0.0348125310555099
0.0348125312133362
-0.0241292312123171
0.0241292313446192
-0.0295929122394185
0.0295929123807969
-0.0169583466966643
0.0169583468063300
-0.0218373074300255
0.0218373075417164
-0.0092774527977794
0.0092774528710690
-0.0151581306655843
0.0151581307629484
-0.0133187261483878
0.0133187262361594
-0.0190977629126434
0.0190977630170447
-0.0190977629126434
0.0190977630170447
-0.0483050595182756
0.0483050596933675
-0.0433263575265285
0.0433263577010846
-0.0190977629126434
0.0190977630170447
-0.0433263575265285
0.0433263577010846
-0.0260671833582202
0.0260671835150104
-0.0161277922293059
0.0161277923175354
-0.0260671833582202
0.0260671835150104
-0.0184496319205938
0.0184496320477233
-0.0122001762425597
0.0122001763382478
-0.0253131215553653
0.0253131216919171
-0.0166653992502317
