version: 100
cost-factor: 1
maxid: 8092
xsize: 87

0
1

U0:%x[0,0]
U1:%x[0,0]%x[0,1]
U2:%x[0,0]%x[0,28]
U3:%x[0,1]
U4:%x[0,1]%x[0,2]
U5:%x[0,1]%x[0,27]
U6:%x[0,2]
U7:%x[0,2]%x[0,3]
U8:%x[0,2]%x[0,26]
U9:%x[0,3]
U10:%x[0,3]%x[0,4]
U11:%x[0,3]%x[0,25]
U12:%x[0,4]
U13:%x[0,4]%x[0,5]
U14:%x[0,4]%x[0,24]
U15:%x[0,5]
U16:%x[0,5]%x[0,6]
U17:%x[0,5]%x[0,23]
U18:%x[0,6]
U19:%x[0,6]%x[0,7]
U20:%x[0,6]%x[0,22]
U21:%x[0,7]
U22:%x[0,7]%x[0,8]
U23:%x[0,7]%x[0,21]
U24:%x[0,8]
U25:%x[0,8]%x[0,9]
U26:%x[0,8]%x[0,20]
U27:%x[0,9]
U28:%x[0,9]%x[0,10]
U29:%x[0,9]%x[0,19]
U30:%x[0,10]
U31:%x[0,10]%x[0,11]
U32:%x[0,10]%x[0,18]
U33:%x[0,11]
U34:%x[0,11]%x[0,12]
U35:%x[0,11]%x[0,17]
U36:%x[0,12]
U37:%x[0,12]%x[0,13]
U38:%x[0,12]%x[0,16]
U39:%x[0,13]
U40:%x[0,13]%x[0,14]
U41:%x[0,13]%x[0,15]
U42:%x[0,14]
U43:%x[0,14]%x[0,15]
U44:%x[0,15]
U45:%x[0,15]%x[0,16]
U46:%x[0,16]
U47:%x[0,16]%x[0,17]
U48:%x[0,17]
U49:%x[0,17]%x[0,18]
U50:%x[0,18]
U51:%x[0,18]%x[0,19]
U52:%x[0,19]
U53:%x[0,19]%x[0,20]
U54:%x[0,20]
U55:%x[0,20]%x[0,21]
U56:%x[0,21]
U57:%x[0,21]%x[0,22]
U58:%x[0,22]
U59:%x[0,22]%x[0,23]
U60:%x[0,23]
U61:%x[0,23]%x[0,24]
U62:%x[0,24]
U63:%x[0,24]%x[0,25]
U64:%x[0,25]
U65:%x[0,25]%x[0,26]
U66:%x[0,26]
U67:%x[0,26]%x[0,27]
U68:%x[0,27]
U69:%x[0,27]%x[0,28]
U70:%x[0,28]
U71:%x[0,28]%x[0,29]
U72:%x[0,29]
U73:%x[0,29]%x[0,30]
U74:%x[0,29]%x[0,57]
U75:%x[0,30]
U76:%x[0,30]%x[0,31]
U77:%x[0,30]%x[0,56]
U78:%x[0,31]
U79:%x[0,31]%x[0,32]
U80:%x[0,31]%x[0,55]
U81:%x[0,32]
U82:%x[0,32]%x[0,33]
U83:%x[0,32]%x[0,54]
U84:%x[0,33]
U85:%x[0,33]%x[0,34]
U86:%x[0,33]%x[0,53]
U87:%x[0,34]
U88:%x[0,34]%x[0,35]
U89:%x[0,34]%x[0,52]
U90:%x[0,35]
U91:%x[0,35]%x[0,36]
U92:%x[0,35]%x[0,51]
U93:%x[0,36]
U94:%x[0,36]%x[0,37]
U95:%x[0,36]%x[0,50]
U96:%x[0,37]
U97:%x[0,37]%x[0,38]
U98:%x[0,37]%x[0,49]
U99:%x[0,38]
U100:%x[0,38]%x[0,39]
U101:%x[0,38]%x[0,48]
U102:%x[0,39]
U103:%x[0,39]%x[0,40]
U104:%x[0,39]%x[0,47]
U105:%x[0,40]
U106:%x[0,40]%x[0,41]
U107:%x[0,40]%x[0,46]
U108:%x[0,41]
U109:%x[0,41]%x[0,42]
U110:%x[0,41]%x[0,45]
U111:%x[0,42]
U112:%x[0,42]%x[0,43]
U113:%x[0,42]%x[0,44]
U114:%x[0,43]
U115:%x[0,43]%x[0,44]
U116:%x[0,44]
U117:%x[0,44]%x[0,45]
U118:%x[0,45]
U119:%x[0,45]%x[0,46]
U120:%x[0,46]
U121:%x[0,46]%x[0,47]
U122:%x[0,47]
U123:%x[0,47]%x[0,48]
U124:%x[0,48]
U125:%x[0,48]%x[0,49]
U126:%x[0,49]
U127:%x[0,49]%x[0,50]
U128:%x[0,50]
U129:%x[0,50]%x[0,51]
U130:%x[0,51]
U131:%x[0,51]%x[0,52]
U132:%x[0,52]
U133:%x[0,52]%x[0,53]
U134:%x[0,53]
U135:%x[0,53]%x[0,54]
U136:%x[0,54]
U137:%x[0,54]%x[0,55]
U138:%x[0,55]
U139:%x[0,55]%x[0,56]
U140:%x[0,56]
U141:%x[0,56]%x[0,57]
U142:%x[0,57]
U143:%x[0,57]%x[0,58]
U144:%x[0,58]
U145:%x[0,58]%x[0,59]
U146:%x[0,58]%x[0,86]
U147:%x[0,59]
U148:%x[0,59]%x[0,60]
U149:%x[0,59]%x[0,85]
U150:%x[0,60]
U151:%x[0,60]%x[0,61]
U152:%x[0,60]%x[0,84]
U153:%x[0,61]
U154:%x[0,61]%x[0,62]
U155:%x[0,61]%x[0,83]
U156:%x[0,62]
U157:%x[0,62]%x[0,63]
U158:%x[0,62]%x[0,82]
U159:%x[0,63]
U160:%x[0,63]%x[0,64]
U161:%x[0,63]%x[0,81]
U162:%x[0,64]
U163:%x[0,64]%x[0,65]
U164:%x[0,64]%x[0,80]
U165:%x[0,65]
U166:%x[0,65]%x[0,66]
U167:%x[0,65]%x[0,79]
U168:%x[0,66]
U169:%x[0,66]%x[0,67]
U170:%x[0,66]%x[0,78]
U171:%x[0,67]
U172:%x[0,67]%x[0,68]
U173:%x[0,67]%x[0,77]
U174:%x[0,68]
U175:%x[0,68]%x[0,69]
U176:%x[0,68]%x[0,76]
U177:%x[0,69]
U178:%x[0,69]%x[0,70]
U179:%x[0,69]%x[0,75]
U180:%x[0,70]
U181:%x[0,70]%x[0,71]
U182:%x[0,70]%x[0,74]
U183:%x[0,71]
U184:%x[0,71]%x[0,72]
U185:%x[0,71]%x[0,73]
U186:%x[0,72]
U187:%x[0,72]%x[0,73]
U188:%x[0,73]
U189:%x[0,73]%x[0,74]
U190:%x[0,74]
U191:%x[0,74]%x[0,75]
U192:%x[0,75]
U193:%x[0,75]%x[0,76]
U194:%x[0,76]
U195:%x[0,76]%x[0,77]
U196:%x[0,77]
U197:%x[0,77]%x[0,78]
U198:%x[0,78]
U199:%x[0,78]%x[0,79]
U200:%x[0,79]
U201:%x[0,79]%x[0,80]
U202:%x[0,80]
U203:%x[0,80]%x[0,81]
U204:%x[0,81]
U205:%x[0,81]%x[0,82]
U206:%x[0,82]
U207:%x[0,82]%x[0,83]
U208:%x[0,83]
U209:%x[0,83]%x[0,84]
U210:%x[0,84]
U211:%x[0,84]%x[0,85]
U212:%x[0,85]
U213:%x[0,85]%x[0,86]
U214:%x[0,86]

7662 U0:*
0 U0:C|
7862 U100:**
6384 U100:0|0|
5226 U100:0|1|
6780 U100:0|2|
2428 U100:1|0|
2180 U100:1|1|
1734 U100:1|2|
7290 U100:1|3|
4506 U100:1|4|
4188 U100:2|0|
1078 U100:2|1|
558 U100:2|2|
2006 U100:2|3|
4670 U100:2|4|
6374 U100:2|5|
7660 U100:3|1|
1318 U100:3|2|
200 U100:3|3|
3918 U100:3|4|
5458 U100:3|5|
5066 U100:4|2|
2684 U100:4|3|
5182 U100:4|4|
3710 U100:4|5|
7328 U100:4|6|
3780 U100:4|7|
7510 U100:5|2|
3188 U100:5|3|
4106 U100:5|4|
4980 U100:5|5|
6970 U100:5|6|
4290 U100:5|7|
6528 U100:6|4|
6570 U100:6|5|
2300 U100:6|6|
7532 U100:6|7|
6518 U100:7|4|
4598 U100:7|5|
6964 U100:7|7|
806 U100:7|8|
6908 U100:8|5|
6974 U100:8|6|
5592 U100:8|7|
5702 U100:8|8|
7864 U101:**
7096 U101:0|0|
5228 U101:0|2|
6386 U101:0|3|
6412 U101:0|4|
6782 U101:0|5|
2182 U101:1|0|
5852 U101:1|1|
2572 U101:1|2|
3356 U101:1|3|
1736 U101:1|4|
6294 U101:1|5|
5090 U101:2|0|
5786 U101:2|1|
560 U101:2|2|
4886 U101:2|3|
2008 U101:2|4|
3070 U101:2|5|
7046 U101:2|6|
5416 U101:2|7|
3300 U101:3|0|
1534 U101:3|1|
202 U101:3|2|
3460 U101:3|3|
2774 U101:3|4|
3854 U101:3|5|
6252 U101:3|7|
6124 U101:4|0|
2686 U101:4|1|
3782 U101:4|2|
3520 U101:4|3|
3108 U101:4|4|
3816 U101:4|5|
5738 U101:4|7|
7330 U101:4|8|
6982 U101:5|0|
4982 U101:5|1|
4108 U101:5|2|
4332 U101:5|3|
4292 U101:5|4|
3190 U101:5|5|
6910 U101:5|7|
7090 U101:6|1|
2872 U101:6|2|
6572 U101:6|3|
7022 U101:6|4|
2302 U101:6|5|
7634 U101:6|6|
6520 U101:7|1|
808 U101:7|2|
5846 U101:7|3|
4600 U101:7|4|
6514 U101:7|5|
6738 U101:7|7|
5594 U101:8|0|
5704 U101:8|1|
6428 U101:8|2|
6704 U101:8|3|
7492 U101:8|4|
5954 U101:8|5|
7866 U102:*
2430 U102:0|
1080 U102:1|
562 U102:2|
204 U102:3|
3920 U102:4|
3712 U102:5|
2304 U102:6|
3784 U102:7|
810 U102:8|
7868 U103:**
2574 U103:0|0|
2432 U103:0|1|
2184 U103:1|0|
1082 U103:1|1|
3578 U103:1|2|
6054 U103:1|3|
4758 U103:1|4|
5126 U103:2|0|
1880 U103:2|1|
564 U103:2|2|
3648 U103:2|3|
6032 U103:2|4|
3730 U103:2|5|
7380 U103:3|1|
206 U103:3|2|
1536 U103:3|3|
3522 U103:3|4|
3110 U103:3|5|
5184 U103:4|2|
5092 U103:4|3|
3922 U103:4|4|
4110 U103:4|5|
5314 U103:4|6|
5838 U103:4|7|
7024 U103:5|2|
4602 U103:5|3|
4984 U103:5|4|
3714 U103:5|5|
7530 U103:5|6|
5460 U103:5|7|
2874 U103:6|4|
2306 U103:6|5|
6972 U103:6|6|
7482 U103:6|7|
5596 U103:7|4|
4572 U103:7|7|
3786 U103:7|8|
7494 U103:8|5|
5706 U103:8|6|
812 U103:8|7|
6378 U103:8|8|
7870 U104:**
7098 U104:0|0|
4792 U104:0|1|
6268 U104:0|2|
6388 U104:0|3|
2434 U104:0|4|
7486 U104:0|6|
7500 U104:1|0|
2186 U104:1|1|
1084 U104:1|2|
5022 U104:1|3|
3580 U104:1|4|
3358 U104:1|5|
5536 U104:1|6|
6854 U104:1|7|
4818 U104:2|1|
566 U104:2|2|
1320 U104:2|3|
1738 U104:2|4|
4196 U104:2|5|
5640 U104:2|6|
5418 U104:2|7|
5074 U104:3|0|
1538 U104:3|1|
208 U104:3|2|
3112 U104:3|3|
2010 U104:3|4|
3072 U104:3|5|
3856 U104:3|6|
6406 U104:3|7|
5740 U104:3|8|
5500 U104:4|1|
3924 U104:4|2|
4508 U104:4|3|
4672 U104:4|4|
5034 U104:4|5|
5316 U104:4|6|
7466 U104:4|7|
6126 U104:5|0|
5892 U104:5|1|
3966 U104:5|2|
3716 U104:5|3|
5462 U104:5|4|
6206 U104:5|5|
4944 U104:5|6|
4604 U104:5|7|
6976 U104:6|1|
6820 U104:6|2|
2876 U104:6|3|
2308 U104:6|4|
7332 U104:6|7|
5598 U104:7|0|
4574 U104:7|1|
3994 U104:7|2|
3788 U104:7|3|
4294 U104:7|4|
7060 U104:7|5|
6220 U104:7|6|
6912 U104:7|7|
814 U104:8|2|
6430 U104:8|3|
6380 U104:8|4|
5956 U104:8|6|
7872 U105:*
2188 U105:0|
1086 U105:1|
210 U105:2|
1540 U105:3|
2878 U105:4|
2310 U105:5|
5318 U105:6|
816 U105:7|
3790 U105:8|
7874 U106:**
2576 U106:0|0|
2190 U106:0|1|
7588 U106:0|2|
4050 U106:1|0|
1088 U106:1|1|
3360 U106:1|2|
7436 U106:1|3|
2436 U106:1|4|
7462 U106:2|0|
212 U106:2|1|
1740 U106:2|2|
4230 U106:2|3|
1322 U106:2|4|
5722 U106:2|5|
6024 U106:3|1|
2012 U106:3|2|
1542 U106:3|3|
4198 U106:3|4|
5454 U106:3|5|
6966 U106:4|1|
3926 U106:4|2|
2880 U106:4|3|
3524 U106:4|4|
4644 U106:4|5|
5544 U106:4|6|
4760 U106:4|7|
6766 U106:5|3|
2312 U106:5|4|
3114 U106:5|5|
6182 U106:5|6|
4370 U106:5|7|
5708 U106:6|4|
5320 U106:6|5|
5854 U106:6|6|
818 U106:7|4|
5470 U106:7|5|
5464 U106:7|7|
6208 U106:7|8|
3792 U106:8|5|
7626 U106:8|6|
3996 U106:8|7|
7062 U106:8|8|
7876 U107:**
2192 U107:0|1|
5128 U107:0|2|
6270 U107:0|3|
2578 U107:0|4|
7590 U107:0|5|
4794 U107:1|0|
1090 U107:1|1|
1882 U107:1|2|
2438 U107:1|3|
2776 U107:1|4|
3362 U107:1|5|
5642 U107:1|6|
6856 U107:1|8|
2688 U107:2|0|
3612 U107:2|1|
214 U107:2|2|
3462 U107:2|3|
1742 U107:2|4|
3192 U107:2|5|
7092 U107:2|6|
5512 U107:3|0|
1544 U107:3|1|
3074 U107:3|2|
4152 U107:3|3|
2014 U107:3|4|
5420 U107:3|5|
4946 U107:3|6|
4606 U107:3|7|
5894 U107:4|0|
4546 U107:4|1|
4986 U107:4|2|
3526 U107:4|3|
2882 U107:4|4|
6562 U107:4|5|
4256 U107:4|6|
5742 U107:4|7|
6188 U107:5|0|
3818 U107:5|1|
2314 U107:5|2|
3968 U107:5|3|
4372 U107:5|4|
5272 U107:5|5|
5246 U107:5|6|
6254 U107:5|7|
6978 U107:6|0|
7508 U107:6|1|
5534 U107:6|2|
5710 U107:6|3|
5322 U107:6|4|
4576 U107:7|1|
5112 U107:7|2|
820 U107:7|3|
5840 U107:7|4|
7658 U107:7|6|
7536 U107:8|0|
3998 U107:8|1|
6342 U107:8|2|
3794 U107:8|3|
4296 U107:8|4|
6222 U107:8|6|
7878 U108:*
2580 U108:0|
216 U108:1|
1744 U108:2|
1546 U108:3|
822 U108:4|
3116 U108:5|
5546 U108:6|
4000 U108:7|
6210 U108:8|
7880 U109:**
2582 U109:0|0|
4052 U109:0|1|
7394 U109:0|2|
568 U109:1|0|
218 U109:1|1|
1092 U109:1|2|
5884 U109:1|3|
5984 U109:2|0|
1746 U109:2|1|
3614 U109:2|2|
4796 U109:2|3|
3364 U109:2|4|
7496 U109:3|1|
4258 U109:3|2|
2884 U109:3|3|
1548 U109:3|4|
4920 U109:3|5|
824 U109:4|1|
2316 U109:4|2|
4200 U109:4|3|
4112 U109:4|4|
1324 U109:4|5|
7184 U109:4|6|
6924 U109:4|7|
3796 U109:5|2|
5472 U109:5|3|
3118 U109:5|4|
4646 U109:5|5|
7628 U109:6|4|
5856 U109:6|5|
5548 U109:6|6|
4002 U109:7|4|
6224 U109:7|5|
4762 U109:7|7|
4374 U109:7|8|
7212 U109:8|5|
6212 U109:8|7|
7682 U10:**
2972 U10:A|A|
4778 U10:A|C|
20 U10:A|G|
1914 U10:A|T|
5938 U10:C|A|
5020 U10:C|C|
4036 U10:C|G|
6140 U10:C|T|
6098 U10:G|A|
960 U10:G|C|
3826 U10:G|G|
5240 U10:G|T|
3150 U10:T|A|
4664 U10:T|C|
1240 U10:T|G|
5328 U10:T|T|
7882 U110:**
6522 U110:0|0|
4856 U110:0|1|
4054 U110:0|2|
2584 U110:0|3|
7040 U110:0|4|
7370 U110:0|6|
2194 U110:1|0|
220 U110:1|1|
570 U110:1|2|
3464 U110:1|3|
2778 U110:1|4|
3194 U110:1|5|
2690 U110:2|0|
3076 U110:2|1|
1748 U110:2|2|
3686 U110:2|3|
2016 U110:2|4|
3366 U110:2|5|
5788 U110:2|7|
4788 U110:3|0|
4564 U110:3|1|
1550 U110:3|2|
3018 U110:3|3|
2886 U110:3|4|
6082 U110:3|5|
7280 U110:3|6|
6192 U110:4|0|
4114 U110:4|1|
826 U110:4|2|
1326 U110:4|3|
7392 U110:4|4|
6726 U110:4|5|
6858 U110:4|7|
3120 U110:5|0|
3732 U110:5|1|
3798 U110:5|2|
4648 U110:5|3|
6174 U110:5|4|
5274 U110:5|5|
5248 U110:5|6|
5550 U110:6|1|
7522 U110:6|2|
5858 U110:6|3|
6216 U110:6|4|
5196 U110:7|0|
4004 U110:7|1|
4764 U110:7|2|
5280 U110:7|3|
4298 U110:7|4|
6226 U110:7|6|
6214 U110:8|1|
7064 U110:8|2|
7884 U111:*
572 U111:0|
222 U111:1|
1094 U111:2|
2888 U111:3|
1552 U111:4|
1328 U111:5|
5552 U111:6|
4766 U111:7|
4376 U111:8|
7886 U112:**
574 U112:0|0|
3466 U112:0|1|
6390 U112:0|2|
224 U112:1|0|
2780 U112:1|1|
3196 U112:1|2|
7372 U112:1|3|
3528 U112:2|0|
2318 U112:2|1|
1096 U112:2|2|
3928 U112:2|3|
5790 U112:2|4|
3020 U112:3|1|
4232 U112:3|2|
2890 U112:3|3|
5682 U112:3|4|
3122 U112:4|1|
3734 U112:4|2|
1554 U112:4|3|
5038 U112:4|4|
3368 U112:4|5|
6218 U112:5|2|
7106 U112:5|3|
1330 U112:5|4|
4922 U112:5|5|
7334 U112:5|7|
7442 U112:6|4|
5554 U112:6|5|
4768 U112:7|4|
6452 U112:7|5|
6926 U112:7|7|
6034 U112:8|5|
4378 U112:8|6|
7888 U113:**
4858 U113:0|0|
576 U113:0|1|
3468 U113:0|2|
6706 U113:0|3|
7244 U113:0|4|
226 U113:1|0|
2018 U113:1|1|
2782 U113:1|2|
4056 U113:1|3|
3198 U113:1|4|
3530 U113:2|0|
1098 U113:2|1|
2320 U113:2|2|
4732 U113:2|3|
3930 U113:2|4|
5792 U113:2|7|
7134 U113:3|0|
4234 U113:3|1|
3022 U113:3|2|
4874 U113:3|3|
2892 U113:3|4|
6272 U113:3|5|
3124 U113:4|0|
3736 U113:4|1|
4116 U113:4|2|
1556 U113:4|3|
5250 U113:4|4|
3370 U113:4|5|
5724 U113:5|1|
2440 U113:5|2|
1332 U113:5|3|
4924 U113:5|4|
6728 U113:5|5|
7336 U113:5|7|
5556 U113:6|2|
7186 U113:6|3|
6184 U113:6|4|
4770 U113:7|1|
5282 U113:7|2|
6454 U113:7|3|
6928 U113:7|4|
6036 U113:8|2|
6808 U113:8|3|
4380 U113:8|4|
7890 U114:*
228 U114:0|
2322 U114:1|
1100 U114:2|
1558 U114:3|
1334 U114:4|
3372 U114:5|
4382 U114:6|
6930 U114:7|
7892 U115:**
230 U115:0|0|
578 U115:0|1|
4430 U115:0|2|
3126 U115:1|0|
3266 U115:1|1|
2324 U115:1|2|
4154 U115:1|3|
5522 U115:1|4|
1102 U115:2|1|
3616 U115:2|2|
4058 U115:2|3|
3200 U115:2|4|
4118 U115:3|2|
1560 U115:3|3|
2894 U115:3|4|
7282 U115:3|5|
4772 U115:4|1|
2442 U115:4|2|
1336 U115:4|3|
5744 U115:4|4|
6274 U115:4|5|
5794 U115:4|7|
5558 U115:5|2|
6456 U115:5|3|
4926 U115:5|4|
3374 U115:5|5|
4384 U115:6|4|
6932 U115:7|4|
7338 U115:7|7|
7894 U116:*
232 U116:0|
580 U116:1|
2326 U116:2|
1338 U116:3|
2896 U116:4|
3376 U116:5|
5796 U116:7|
7896 U117:**
2692 U117:0|0|
234 U117:0|1|
828 U117:0|2|
2196 U117:1|0|
1104 U117:1|1|
582 U117:1|2|
2586 U117:1|3|
2020 U117:1|4|
3618 U117:2|1|
2328 U117:2|2|
3024 U117:2|3|
2784 U117:2|4|
7294 U117:2|5|
1562 U117:3|2|
1340 U117:3|3|
5656 U117:3|4|
6698 U117:3|5|
6934 U117:4|1|
4928 U117:4|2|
4860 U117:4|3|
2898 U117:4|4|
3202 U117:4|5|
5252 U117:4|6|
6276 U117:5|3|
3378 U117:5|5|
7284 U117:5|6|
6860 U117:5|7|
7340 U117:7|5|
5798 U117:7|7|
7898 U118:*
2198 U118:0|
236 U118:1|
584 U118:2|
1342 U118:3|
2022 U118:4|
3204 U118:5|
5254 U118:6|
5800 U118:7|
7900 U119:**
2694 U119:0|0|
2200 U119:0|1|
3128 U119:0|2|
5192 U119:1|0|
1106 U119:1|1|
238 U119:1|2|
5730 U119:1|3|
5560 U119:1|4|
1564 U119:2|1|
586 U119:2|2|
830 U119:2|3|
1750 U119:2|4|
5422 U119:2|5|
4650 U119:3|1|
1344 U119:3|2|
3470 U119:3|3|
2588 U119:3|4|
6564 U119:3|5|
3932 U119:4|3|
2024 U119:4|4|
4342 U119:4|5|
4260 U119:4|6|
4608 U119:4|7|
5524 U119:5|4|
3206 U119:5|5|
6084 U119:5|6|
6700 U119:5|7|
7286 U119:6|5|
5256 U119:6|6|
5746 U119:6|7|
5802 U119:7|4|
6862 U119:7|8|
7684 U11:**
22 U11:A|A|
1458 U11:A|C|
4954 U11:A|G|
708 U11:A|T|
4486 U11:C|A|
6530 U11:C|C|
6142 U11:C|G|
4038 U11:C|T|
962 U11:G|A|
6778 U11:G|C|
6422 U11:G|T|
1678 U11:T|A|
3152 U11:T|C|
4904 U11:T|G|
1242 U11:T|T|
7902 U120:*
2696 U120:0|
1108 U120:1|
240 U120:2|
832 U120:3|
1752 U120:4|
3208 U120:5|
4262 U120:6|
4610 U120:7|
6864 U120:8|
7904 U121:**
5444 U121:0|0|
2698 U121:0|1|
6336 U121:0|2|
5076 U121:1|0|
1566 U121:1|1|
1110 U121:1|2|
6416 U121:1|3|
3820 U121:1|4|
5404 U121:2|1|
242 U121:2|2|
1346 U121:2|3|
2330 U121:2|4|
3078 U121:2|5|
834 U121:3|2|
3532 U121:3|3|
2444 U121:3|4|
5036 U121:3|5|
6448 U121:4|1|
5526 U121:4|2|
2900 U121:4|3|
1754 U121:4|4|
4202 U121:4|5|
3858 U121:4|6|
6408 U121:4|7|
5276 U121:5|3|
4344 U121:5|4|
3210 U121:5|5|
5424 U121:5|7|
4264 U121:6|5|
4948 U121:6|6|
4612 U121:7|7|
5748 U121:7|8|
6866 U121:8|7|
7906 U122:*
5078 U122:0|
1568 U122:1|
244 U122:2|
1348 U122:3|
1756 U122:4|
3080 U122:5|
3860 U122:6|
4614 U122:7|
5750 U122:8|
7908 U123:**
5080 U123:0|0|
6200 U123:0|1|
2202 U123:1|0|
1570 U123:1|1|
4578 U123:1|2|
5514 U123:1|3|
5094 U123:2|0|
4548 U123:2|1|
246 U123:2|2|
3472 U123:2|3|
6458 U123:2|4|
7074 U123:3|1|
1350 U123:3|2|
3534 U123:3|3|
3130 U123:3|4|
6898 U123:3|5|
6640 U123:4|1|
2590 U123:4|2|
3688 U123:4|3|
1758 U123:4|4|
2332 U123:4|5|
7636 U123:4|6|
7002 U123:4|7|
4266 U123:5|2|
3380 U123:5|3|
4204 U123:5|4|
3082 U123:5|5|
4950 U123:6|4|
3862 U123:6|5|
7048 U123:6|6|
4616 U123:7|4|
5426 U123:7|7|
7342 U123:7|8|
5752 U123:8|7|
7910 U124:*
2204 U124:0|
1572 U124:1|
248 U124:2|
3382 U124:3|
1760 U124:4|
2334 U124:5|
7050 U124:6|
5428 U124:7|
7344 U124:8|
7912 U125:**
2206 U125:0|0|
3302 U125:0|1|
1574 U125:1|0|
4988 U125:1|1|
2700 U125:1|2|
6086 U125:2|0|
1112 U125:2|1|
250 U125:2|2|
588 U125:2|3|
836 U125:2|4|
7554 U125:2|5|
3650 U125:3|2|
3384 U125:3|3|
5848 U125:3|4|
6438 U125:3|5|
4206 U125:4|1|
2446 U125:4|2|
1762 U125:4|3|
3026 U125:4|4|
2026 U125:4|5|
6318 U125:4|6|
7650 U125:4|7|
7488 U125:5|2|
5138 U125:5|4|
2336 U125:5|5|
7052 U125:6|6|
7638 U125:6|7|
6914 U125:7|4|
5430 U125:7|5|
7004 U125:7|8|
7346 U125:8|7|
7914 U126:*
1576 U126:0|
1114 U126:1|
252 U126:2|
590 U126:3|
838 U126:4|
2028 U126:5|
6320 U126:6|
7348 U126:7|
7006 U126:8|
7916 U127:**
2208 U127:0|0|
1578 U127:0|1|
6984 U127:0|2|
1116 U127:1|0|
4208 U127:1|1|
4990 U127:1|2|
7108 U127:1|3|
3304 U127:1|4|
7058 U127:2|0|
2448 U127:2|1|
2592 U127:2|2|
4820 U127:2|3|
254 U127:2|4|
5860 U127:2|5|
2786 U127:3|2|
3386 U127:3|3|
1352 U127:3|4|
592 U127:3|5|
5140 U127:4|2|
6348 U127:4|3|
6230 U127:4|4|
840 U127:4|5|
3028 U127:4|6|
4566 U127:5|3|
2030 U127:5|4|
2338 U127:5|5|
6440 U127:5|6|
6670 U127:5|7|
7054 U127:6|5|
6322 U127:6|7|
7350 U127:7|5|
7640 U127:7|8|
7008 U127:8|7|
7918 U128:*
1118 U128:0|
1580 U128:1|
2594 U128:2|
3388 U128:3|
256 U128:4|
594 U128:5|
3030 U128:6|
6324 U128:7|
7642 U128:8|
7920 U129:**
5804 U129:0|0|
2210 U129:0|1|
1120 U129:0|2|
3652 U129:1|0|
2450 U129:1|1|
4734 U129:1|2|
1582 U129:1|4|
5356 U129:2|1|
2596 U129:2|2|
2702 U129:2|3|
2902 U129:2|4|
6736 U129:2|5|
7602 U129:3|1|
6350 U129:3|2|
3582 U129:3|3|
3390 U129:3|4|
4822 U129:3|5|
6990 U129:4|2|
6460 U129:4|3|
3690 U129:4|4|
2032 U129:4|5|
4346 U129:4|6|
258 U129:4|7|
7352 U129:5|3|
6826 U129:5|4|
842 U129:5|5|
4006 U129:5|6|
596 U129:5|7|
7082 U129:6|5|
5886 U129:6|6|
3032 U129:6|7|
7010 U129:7|5|
6326 U129:7|8|
7644 U129:8|8|
7686 U12:*
2974 U12:A|
964 U12:C|
24 U12:G|
1916 U12:T|
7922 U130:*
3654 U130:0|
2212 U130:1|
1122 U130:2|
2704 U130:3|
1584 U130:4|
844 U130:5|
4008 U130:6|
260 U130:7|
6328 U130:8|
7924 U131:**
5806 U131:0|0|
3656 U131:0|2|
7604 U131:1|0|
4432 U131:1|1|
2452 U131:1|2|
2214 U131:1|4|
6106 U131:2|1|
2598 U131:2|2|
4992 U131:2|3|
1124 U131:2|4|
2788 U131:2|5|
7384 U131:3|2|
2706 U131:3|3|
5052 U131:3|4|
3584 U131:3|5|
7110 U131:4|3|
5694 U131:4|4|
5600 U131:4|5|
2904 U131:4|6|
1586 U131:4|7|
5150 U131:5|4|
846 U131:5|5|
2034 U131:5|6|
3934 U131:5|7|
7128 U131:6|5|
4010 U131:6|6|
5964 U131:6|7|
262 U131:7|8|
7556 U131:8|7|
6330 U131:8|8|
7926 U132:*
5808 U132:0|
4434 U132:1|
2454 U132:2|
2708 U132:3|
1126 U132:4|
848 U132:5|
2036 U132:6|
1588 U132:7|
264 U132:8|
7928 U133:**
5810 U133:0|0|
7606 U133:0|1|
4436 U133:1|0|
5358 U133:1|1|
6108 U133:1|2|
7270 U133:1|4|
2456 U133:2|1|
6490 U133:2|2|
6950 U133:2|3|
2600 U133:2|4|
6362 U133:2|5|
7112 U133:3|2|
6868 U133:3|3|
4994 U133:3|4|
2710 U133:3|5|
5152 U133:4|2|
7652 U133:4|3|
5502 U133:4|4|
6768 U133:4|5|
5696 U133:4|6|
1128 U133:4|7|
7130 U133:5|3|
7580 U133:5|4|
1764 U133:5|5|
850 U133:5|6|
2790 U133:5|7|
6002 U133:6|4|
4156 U133:6|5|
2038 U133:6|6|
3692 U133:6|7|
7558 U133:7|4|
1590 U133:7|7|
3392 U133:7|8|
6672 U133:8|5|
5916 U133:8|6|
2340 U133:8|7|
266 U133:8|8|
7930 U134:*
4438 U134:0|
2458 U134:1|
5154 U134:2|
6870 U134:3|
2602 U134:4|
1766 U134:5|
852 U134:6|
1130 U134:7|
268 U134:8|
7932 U135:**
4440 U135:0|0|
5812 U135:0|1|
2460 U135:1|0|
5360 U135:1|2|
6918 U135:1|4|
6492 U135:2|2|
5562 U135:2|3|
5156 U135:2|4|
6872 U135:3|2|
7654 U135:3|3|
7178 U135:3|4|
7026 U135:3|5|
7560 U135:4|1|
6828 U135:4|2|
4996 U135:4|3|
3658 U135:4|4|
2604 U135:4|5|
6462 U135:4|6|
6992 U135:4|7|
6674 U135:5|2|
5602 U135:5|3|
4158 U135:5|4|
1768 U135:5|5|
6730 U135:5|6|
3268 U135:5|7|
2040 U135:6|4|
2906 U135:6|5|
854 U135:6|6|
1592 U135:7|4|
6150 U135:7|5|
1132 U135:7|7|
5928 U135:7|8|
1354 U135:8|5|
6936 U135:8|6|
270 U135:8|7|
598 U135:8|8|
7934 U136:*
2462 U136:0|
5814 U136:1|
5362 U136:2|
4998 U136:3|
1594 U136:4|
1356 U136:5|
856 U136:6|
272 U136:7|
600 U136:8|
7936 U137:**
4442 U137:0|0|
2464 U137:0|1|
7254 U137:1|1|
5816 U137:1|2|
5364 U137:2|1|
6494 U137:2|2|
7114 U137:2|3|
7142 U137:3|1|
5000 U137:3|2|
6642 U137:3|3|
5564 U137:3|4|
6540 U137:3|5|
1596 U137:4|1|
2042 U137:4|2|
5266 U137:4|3|
5504 U137:4|4|
5158 U137:4|5|
7512 U137:4|7|
1830 U137:5|2|
1358 U137:5|3|
1770 U137:5|4|
7188 U137:5|5|
7028 U137:5|6|
858 U137:6|4|
4012 U137:6|5|
6600 U137:6|6|
6464 U137:6|7|
274 U137:7|4|
3474 U137:7|5|
3270 U137:7|7|
6994 U137:7|8|
3536 U137:8|5|
4268 U137:8|6|
5432 U137:8|7|
602 U137:8|8|
7938 U138:*
4444 U138:0|
1598 U138:1|
1832 U138:2|
1360 U138:3|
276 U138:4|
3476 U138:5|
4270 U138:6|
3272 U138:7|
604 U138:8|
7940 U139:**
7386 U139:0|0|
4446 U139:0|1|
1600 U139:1|0|
5366 U139:1|1|
5754 U139:1|2|
7562 U139:1|3|
2466 U139:1|4|
1834 U139:2|1|
2044 U139:2|2|
3212 U139:2|3|
7194 U139:3|1|
6644 U139:3|2|
1362 U139:3|3|
7478 U139:3|4|
278 U139:4|1|
3748 U139:4|2|
860 U139:4|3|
4190 U139:4|4|
7404 U139:4|6|
3538 U139:5|3|
3478 U139:5|4|
6004 U139:5|5|
6542 U139:5|6|
4272 U139:6|5|
7030 U139:6|6|
3274 U139:7|4|
6466 U139:7|8|
3936 U139:8|6|
606 U139:8|8|
7688 U13:**
6610 U13:A|A|
5098 U13:A|C|
7320 U13:A|G|
2976 U13:A|T|
5974 U13:C|A|
966 U13:C|C|
4666 U13:C|T|
3828 U13:G|A|
434 U13:G|C|
4166 U13:G|G|
26 U13:G|T|
3316 U13:T|A|
2824 U13:T|C|
1918 U13:T|T|
7942 U140:*
1602 U140:0|
280 U140:1|
2046 U140:2|
862 U140:3|
2468 U140:4|
4274 U140:5|
3938 U140:6|
608 U140:8|
7944 U141:**
1604 U141:0|2|
3586 U141:1|1|
282 U141:1|2|
3750 U141:2|1|
5896 U141:2|2|
2048 U141:2|4|
2908 U141:3|1|
864 U141:3|2|
1364 U141:3|4|
3214 U141:3|6|
3276 U141:4|1|
5160 U141:4|2|
2470 U141:4|6|
6006 U141:5|4|
4276 U141:5|6|
3940 U141:6|4|
6544 U141:6|6|
610 U141:8|6|
7946 U142:*
2910 U142:1|
284 U142:2|
1366 U142:4|
612 U142:6|
7948 U143:**
2912 U143:1|+|
286 U143:2|+|
1368 U143:4|+|
614 U143:6|+|
7950 U144:*
288 U144:+|
7952 U145:**
290 U145:+|1|
7954 U146:**
292 U146:+|3|
1370 U146:+|4|
2914 U146:+|5|
616 U146:+|6|
7956 U147:*
294 U147:1|
7958 U148:**
4736 U148:1|3|
296 U148:1|5|
1134 U148:1|6|
7960 U149:**
3752 U149:1|0|
2916 U149:1|1|
866 U149:1|2|
1136 U149:1|3|
618 U149:1|4|
2050 U149:1|5|
298 U149:1|6|
7690 U14:**
2978 U14:A|A|
6612 U14:A|C|
5940 U14:A|T|
968 U14:C|A|
5576 U14:C|C|
7014 U14:C|G|
5908 U14:C|T|
28 U14:G|A|
5768 U14:G|C|
2364 U14:G|G|
4956 U14:G|T|
3318 U14:T|A|
6480 U14:T|C|
7410 U14:T|G|
1920 U14:T|T|
7962 U150:*
4738 U150:3|
300 U150:5|
1138 U150:6|
7964 U151:**
4740 U151:3|2|
7452 U151:3|5|
3864 U151:5|0|
302 U151:5|1|
1372 U151:5|3|
4060 U151:5|6|
1140 U151:6|1|
7224 U151:6|2|
5368 U151:6|4|
7966 U152:**
7454 U152:3|5|
4742 U152:3|6|
2472 U152:5|0|
2052 U152:5|1|
1374 U152:5|2|
3800 U152:5|3|
620 U152:5|4|
304 U152:5|5|
1606 U152:5|6|
7226 U152:6|2|
1142 U152:6|3|
6720 U152:6|4|
5370 U152:6|5|
7400 U152:6|6|
7968 U153:*
3866 U153:0|
306 U153:1|
4744 U153:2|
1376 U153:3|
5372 U153:4|
7456 U153:5|
4062 U153:6|
7970 U154:**
6110 U154:0|2|
6842 U154:0|3|
5258 U154:0|5|
3868 U154:0|6|
308 U154:1|3|
3034 U154:1|4|
4780 U154:1|5|
2054 U154:1|6|
4746 U154:2|3|
7228 U154:2|6|
1378 U154:3|1|
4674 U154:3|2|
5862 U154:3|4|
7214 U154:4|1|
5374 U154:4|4|
7458 U154:5|4|
4064 U154:6|0|
5944 U154:6|1|
6152 U154:6|3|
5024 U154:6|6|
7972 U155:**
6112 U155:0|1|
7032 U155:0|2|
3870 U155:0|4|
6784 U155:0|5|
6424 U155:0|6|
2918 U155:1|1|
6676 U155:1|2|
2474 U155:1|3|
310 U155:1|4|
1608 U155:1|5|
868 U155:1|6|
7230 U155:2|1|
7610 U155:2|4|
4748 U155:2|5|
6840 U155:3|1|
4914 U155:3|3|
1772 U155:3|4|
3216 U155:3|5|
1380 U155:3|6|
5376 U155:4|1|
7124 U155:4|3|
7216 U155:4|4|
7460 U155:5|3|
5918 U155:6|1|
7144 U155:6|2|
6154 U155:6|3|
4510 U155:6|4|
6546 U155:6|5|
4066 U155:6|6|
7974 U156:*
4068 U156:0|
1382 U156:1|
4676 U156:2|
312 U156:3|
3036 U156:4|
4782 U156:5|
2056 U156:6|
7976 U157:**
4512 U157:0|2|
6548 U157:0|3|
4070 U157:0|5|
4824 U157:1|2|
1774 U157:1|3|
6646 U157:1|4|
1384 U157:1|5|
3218 U157:1|6|
4678 U157:2|3|
7136 U157:2|5|
6114 U157:2|6|
4652 U157:3|2|
622 U157:3|3|
7504 U157:3|4|
314 U157:3|5|
1144 U157:3|6|
7084 U157:4|2|
5378 U157:4|4|
5114 U157:4|5|
3038 U157:4|6|
7480 U157:5|1|
4784 U157:5|3|
5260 U157:5|4|
5230 U157:5|6|
3394 U157:6|1|
2920 U157:6|2|
4320 U157:6|3|
2058 U157:6|4|
6028 U157:6|5|
5920 U157:6|6|
7978 U158:**
4514 U158:0|1|
6702 U158:0|2|
4072 U158:0|4|
2712 U158:1|1|
1776 U158:1|2|
7304 U158:1|3|
1386 U158:1|4|
5946 U158:1|6|
7116 U158:2|1|
6056 U158:2|2|
6116 U158:2|3|
4680 U158:2|4|
2476 U158:3|0|
2606 U158:3|1|
6732 U158:3|2|
5818 U158:3|3|
316 U158:3|4|
5566 U158:3|5|
4448 U158:3|6|
4014 U158:4|1|
3278 U158:4|2|
5380 U158:4|3|
3040 U158:4|4|
6496 U158:4|6|
6574 U158:5|1|
6364 U158:5|2|
4786 U158:5|4|
5604 U158:5|5|
6468 U158:5|6|
7422 U158:6|1|
3396 U158:6|4|
5162 U158:6|5|
2060 U158:6|6|
7980 U159:*
3398 U159:1|
2922 U159:2|
624 U159:3|
2062 U159:4|
318 U159:5|
1146 U159:6|
7692 U15:*
3320 U15:A|
436 U15:C|
4168 U15:G|
30 U15:T|
7982 U160:**
5986 U160:1|3|
6804 U160:1|4|
3400 U160:1|5|
7210 U160:2|0|
2924 U160:2|1|
3872 U160:2|3|
6306 U160:2|4|
7066 U160:2|5|
4120 U160:3|0|
870 U160:3|1|
5606 U160:3|2|
4322 U160:3|3|
626 U160:3|6|
2064 U160:4|1|
7586 U160:4|2|
7476 U160:4|3|
5382 U160:4|4|
5930 U160:5|0|
320 U160:5|1|
3754 U160:5|2|
7306 U160:5|3|
5756 U160:5|4|
7204 U160:5|6|
6690 U160:6|0|
1148 U160:6|1|
4176 U160:6|2|
4450 U160:6|3|
6900 U160:6|4|
5232 U160:6|6|
7984 U161:**
7618 U161:1|1|
7612 U161:1|3|
3402 U161:1|4|
5506 U161:2|1|
7288 U161:2|2|
2926 U161:2|4|
7086 U161:2|5|
4516 U161:2|6|
2216 U161:3|1|
872 U161:3|2|
1778 U161:3|3|
628 U161:3|4|
6244 U161:3|5|
4774 U161:3|6|
5262 U161:4|1|
6592 U161:4|2|
5164 U161:4|3|
2066 U161:4|4|
6498 U161:4|5|
6576 U161:4|6|
7524 U161:5|0|
3620 U161:5|1|
2478 U161:5|2|
2608 U161:5|3|
322 U161:5|4|
6942 U161:5|5|
4348 U161:5|6|
4452 U161:6|0|
4940 U161:6|1|
1150 U161:6|2|
3280 U161:6|3|
3042 U161:6|4|
7242 U161:6|5|
4016 U161:6|6|
7986 U162:*
4122 U162:0|
324 U162:1|
3756 U162:2|
3874 U162:3|
5384 U162:4|
3404 U162:5|
630 U162:6|
7988 U163:**
4124 U163:0|2|
6602 U163:0|3|
5568 U163:0|5|
5644 U163:0|6|
1388 U163:1|2|
874 U163:1|3|
3540 U163:1|4|
326 U163:1|5|
1152 U163:1|6|
6038 U163:2|0|
3758 U163:2|1|
4178 U163:2|3|
7546 U163:2|4|
6586 U163:2|6|
4324 U163:3|1|
3876 U163:3|2|
4826 U163:3|3|
5678 U163:3|5|
4518 U163:3|6|
5386 U163:4|1|
6806 U163:4|3|
6770 U163:4|4|
6308 U163:4|6|
7614 U163:5|0|
7068 U163:5|1|
3406 U163:5|3|
3588 U163:6|1|
5204 U163:6|3|
6008 U163:6|5|
632 U163:6|6|
7990 U164:**
6404 U164:0|1|
4126 U164:0|4|
5932 U164:0|5|
7076 U164:0|6|
5820 U164:1|0|
1610 U164:1|1|
2928 U164:1|2|
876 U164:1|3|
328 U164:1|4|
2714 U164:1|5|
1154 U164:1|6|
5608 U164:2|1|
7354 U164:2|2|
6692 U164:2|3|
3760 U164:2|4|
6040 U164:2|5|
6846 U164:2|6|
6156 U164:3|1|
4454 U164:3|2|
4326 U164:3|3|
3878 U164:3|4|
5508 U164:3|5|
6176 U164:3|6|
5388 U164:4|1|
6500 U164:4|2|
6190 U164:4|3|
5758 U164:4|4|
6648 U164:4|6|
3408 U164:5|2|
7070 U164:5|4|
7620 U164:5|5|
6392 U164:6|1|
7206 U164:6|2|
2218 U164:6|3|
634 U164:6|4|
5234 U164:6|5|
6278 U164:6|6|
7992 U165:*
6042 U165:0|
3590 U165:1|
1390 U165:2|
878 U165:3|
3542 U165:4|
330 U165:5|
636 U165:6|
7994 U166:**
6044 U166:0|5|
7616 U166:0|6|
6158 U166:1|2|
3762 U166:1|3|
5610 U166:1|4|
4328 U166:1|5|
3592 U166:1|6|
7268 U166:2|1|
2480 U166:2|3|
4618 U166:2|4|
1392 U166:2|5|
1884 U166:2|6|
4828 U166:3|0|
1612 U166:3|1|
880 U166:3|2|
3622 U166:3|3|
5186 U166:3|4|
1780 U166:3|5|
3942 U166:3|6|
7122 U166:4|1|
6902 U166:4|2|
6228 U166:4|3|
7548 U166:4|4|
4160 U166:4|5|
3544 U166:4|6|
4750 U166:5|1|
3282 U166:5|2|
5950 U166:5|3|
332 U166:5|4|
5300 U166:5|6|
638 U166:6|0|
2068 U166:6|1|
1156 U166:6|2|
2220 U166:6|3|
2792 U166:6|4|
2610 U166:6|5|
4520 U166:6|6|
7996 U167:**
6046 U167:0|1|
7274 U167:1|0|
3594 U167:1|1|
6160 U167:1|3|
4456 U167:1|5|
5612 U167:1|6|
4654 U167:2|0|
1394 U167:2|1|
6352 U167:2|2|
2482 U167:2|3|
5054 U167:2|4|
6058 U167:2|5|
3660 U167:2|6|
2930 U167:3|0|
1782 U167:3|1|
6394 U167:3|2|
1614 U167:3|3|
882 U167:3|4|
6874 U167:3|5|
5634 U167:3|6|
3546 U167:4|1|
7464 U167:4|2|
6772 U167:4|3|
7550 U167:4|5|
6916 U167:4|6|
334 U167:5|1|
6010 U167:5|2|
6952 U167:5|3|
6442 U167:5|4|
5898 U167:5|5|
4752 U167:5|6|
1158 U167:6|0|
640 U167:6|1|
4700 U167:6|2|
2794 U167:6|3|
2070 U167:6|4|
5116 U167:6|5|
6088 U167:6|6|
7998 U168:*
642 U168:0|
1616 U168:1|
884 U168:2|
2222 U168:3|
336 U168:4|
1396 U168:5|
1886 U168:6|
8000 U169:**
6334 U169:0|2|
4830 U169:0|5|
644 U169:0|6|
4300 U169:1|2|
3410 U169:1|3|
5528 U169:1|4|
2072 U169:1|5|
1618 U169:1|6|
6280 U169:2|0|
6434 U169:2|1|
1160 U169:2|3|
886 U169:2|4|
7296 U169:2|5|
5002 U169:2|6|
6786 U169:3|0|
2224 U169:3|1|
3880 U169:3|2|
6060 U169:3|3|
3624 U169:3|4|
4682 U169:3|5|
2484 U169:3|6|
4278 U169:4|1|
3480 U169:4|2|
5124 U169:4|3|
338 U169:4|4|
7552 U169:4|5|
5046 U169:4|6|
4458 U169:5|0|
1398 U169:5|1|
4330 U169:5|2|
4074 U169:5|3|
4888 U169:5|4|
5988 U169:5|6|
6604 U169:6|0|
3132 U169:6|1|
1888 U169:6|2|
6414 U169:6|3|
2716 U169:6|4|
4522 U169:6|5|
5864 U169:6|6|
7694 U16:**
6298 U16:A|A|
3322 U16:A|C|
3830 U16:A|G|
710 U16:C|A|
438 U16:C|C|
4096 U16:C|G|
4308 U16:C|T|
4170 U16:G|A|
4400 U16:G|C|
5990 U16:G|G|
1922 U16:T|A|
3742 U16:T|C|
32 U16:T|G|
5330 U16:T|T|
8002 U170:**
4832 U170:0|1|
6944 U170:0|3|
646 U170:0|5|
6812 U170:0|6|
6578 U170:1|1|
5900 U170:1|2|
6594 U170:1|3|
6470 U170:1|4|
3412 U170:1|5|
1620 U170:1|6|
6876 U170:2|0|
888 U170:2|1|
2932 U170:2|2|
5004 U170:2|3|
6396 U170:2|4|
2342 U170:2|5|
1162 U170:2|6|
7308 U170:3|0|
2486 U170:3|1|
5732 U170:3|2|
2226 U170:3|3|
3626 U170:3|5|
5294 U170:3|6|
7396 U170:4|1|
4550 U170:4|2|
340 U170:4|3|
2796 U170:4|5|
3044 U170:4|6|
5966 U170:5|1|
1400 U170:5|2|
2612 U170:5|3|
6354 U170:5|4|
1784 U170:5|5|
4210 U170:5|6|
5658 U170:6|1|
2718 U170:6|2|
1890 U170:6|3|
7218 U170:6|4|
3134 U170:6|5|
5728 U170:6|6|
8004 U171:*
4460 U171:0|
1402 U171:1|
1892 U171:2|
1164 U171:3|
342 U171:4|
2074 U171:5|
648 U171:6|
8006 U172:**
7292 U172:0|2|
6282 U172:0|3|
6606 U172:0|5|
4462 U172:0|6|
3718 U172:1|2|
1404 U172:1|3|
3802 U172:1|4|
3084 U172:1|5|
1786 U172:1|6|
3662 U172:2|0|
3482 U172:2|1|
1894 U172:2|3|
4302 U172:2|4|
3882 U172:2|5|
4350 U172:2|6|
1166 U172:3|1|
4076 U172:3|2|
3414 U172:3|3|
3284 U172:3|4|
6162 U172:3|5|
5236 U172:3|6|
4890 U172:4|1|
344 U172:4|2|
4620 U172:4|3|
890 U172:4|4|
4952 U172:4|5|
2344 U172:4|6|
2076 U172:5|0|
4524 U172:5|1|
4834 U172:5|2|
5434 U172:5|4|
7468 U172:5|6|
6686 U172:6|0|
5206 U172:6|1|
650 U172:6|2|
5026 U172:6|3|
5006 U172:6|4|
2488 U172:6|6|
8008 U173:**
6284 U173:0|1|
6608 U173:0|2|
4464 U173:0|3|
6788 U173:0|4|
7374 U173:1|0|
1788 U173:1|1|
3548 U173:1|2|
2614 U173:1|3|
1406 U173:1|4|
4552 U173:1|5|
2228 U173:1|6|
6502 U173:2|0|
3484 U173:2|1|
3664 U173:2|2|
1896 U173:2|3|
3884 U173:2|4|
6202 U173:2|5|
5096 U173:2|6|
7506 U173:3|0|
3286 U173:3|1|
3416 U173:3|2|
5238 U173:3|3|
4078 U173:3|4|
1168 U173:3|5|
5968 U173:3|6|
2798 U173:4|1|
3694 U173:4|2|
346 U173:4|3|
2346 U173:4|4|
5712 U173:4|5|
892 U173:4|6|
4526 U173:5|1|
2078 U173:5|2|
5570 U173:5|3|
5436 U173:5|4|
4836 U173:5|5|
5660 U173:5|6|
7100 U173:6|0|
652 U173:6|1|
5028 U173:6|2|
6398 U173:6|3|
2490 U173:6|4|
5866 U173:6|5|
5008 U173:6|6|
8010 U174:*
2080 U174:0|
1170 U174:1|
348 U174:2|
1408 U174:3|
894 U174:4|
3086 U174:5|
1790 U174:6|
8012 U175:**
2082 U175:0|2|
7146 U175:0|5|
4212 U175:1|2|
1172 U175:1|3|
4528 U175:1|4|
6118 U175:1|5|
4892 U175:1|6|
4080 U175:2|0|
1622 U175:2|1|
350 U175:2|3|
3720 U175:2|4|
6232 U175:2|5|
2800 U175:2|6|
6286 U175:3|0|
3418 U175:3|1|
1898 U175:3|2|
4702 U175:3|3|
6258 U175:3|4|
1410 U175:3|5|
2616 U175:3|6|
3220 U175:4|1|
5438 U175:4|2|
5614 U175:4|3|
896 U175:4|4|
6130 U175:4|5|
5714 U175:4|6|
6070 U175:5|0|
3088 U175:5|1|
6164 U175:5|2|
5082 U175:5|3|
6338 U175:5|6|
4352 U175:6|0|
2348 U175:6|1|
1792 U175:6|2|
6426 U175:6|3|
5684 U175:6|4|
6962 U175:6|5|
2230 U175:6|6|
8014 U176:**
2084 U176:0|1|
7094 U176:0|3|
7376 U176:0|4|
6688 U176:0|5|
7148 U176:0|6|
5466 U176:1|1|
1174 U176:1|2|
3486 U176:1|3|
4214 U176:1|4|
5390 U176:1|5|
5208 U176:1|6|
4838 U176:2|0|
352 U176:2|1|
4568 U176:2|2|
654 U176:2|3|
2802 U176:2|4|
1624 U176:2|5|
5194 U176:2|6|
1900 U176:3|1|
5302 U176:3|2|
3420 U176:3|3|
3596 U176:3|4|
1412 U176:3|5|
4236 U176:3|6|
5876 U176:4|0|
3222 U176:4|1|
3804 U176:4|2|
4018 U176:4|3|
3288 U176:4|4|
898 U176:4|5|
4580 U176:4|6|
5516 U176:5|0|
3886 U176:5|1|
3090 U176:5|2|
4162 U176:5|3|
3136 U176:5|4|
4862 U176:5|5|
4280 U176:5|6|
2232 U176:6|1|
6296 U176:6|2|
3944 U176:6|3|
1794 U176:6|4|
2934 U176:6|5|
2492 U176:6|6|
8016 U177:*
4082 U177:0|
1626 U177:1|
1796 U177:2|
354 U177:3|
900 U177:4|
1414 U177:5|
2234 U177:6|
8018 U178:**
6072 U178:0|2|
6288 U178:0|3|
4354 U178:0|5|
4084 U178:0|6|
5190 U178:1|2|
3092 U178:1|3|
3138 U178:1|4|
2720 U178:1|5|
1628 U178:1|6|
5662 U178:2|1|
1798 U178:2|3|
5532 U178:2|4|
3306 U178:2|5|
1902 U178:2|6|
7424 U178:3|0|
356 U178:3|1|
4704 U178:3|2|
656 U178:3|3|
5084 U178:3|4|
5188 U178:3|5|
5210 U178:3|6|
5010 U178:4|1|
6260 U178:4|2|
902 U178:4|3|
4020 U178:4|4|
3722 U178:4|5|
3806 U178:4|6|
1416 U178:5|1|
6694 U178:5|2|
6120 U178:5|3|
7180 U178:5|6|
2618 U178:6|0|
5572 U178:6|1|
2494 U178:6|2|
2804 U178:6|3|
5716 U178:6|4|
6550 U178:6|5|
2236 U178:6|6|
8020 U179:**
7156 U179:0|0|
4086 U179:0|1|
6290 U179:0|2|
6968 U179:0|3|
6340 U179:0|4|
7192 U179:0|5|
4356 U179:0|6|
2722 U179:1|0|
1630 U179:1|1|
3946 U179:1|2|
2350 U179:1|3|
3422 U179:1|4|
3224 U179:1|5|
3046 U179:1|6|
6816 U179:2|0|
4216 U179:2|1|
1904 U179:2|2|
3666 U179:2|3|
1800 U179:2|4|
3308 U179:2|5|
2086 U179:2|6|
7426 U179:3|0|
5392 U179:3|1|
358 U179:3|2|
658 U179:3|3|
4180 U179:3|4|
5936 U179:3|5|
1176 U179:3|6|
5686 U179:4|0|
904 U179:4|1|
4582 U179:4|2|
5118 U179:4|3|
3808 U179:4|4|
3724 U179:4|5|
4022 U179:4|6|
6122 U179:5|1|
6170 U179:5|2|
1418 U179:5|3|
6132 U179:5|4|
6696 U179:5|6|
6476 U179:6|0|
2496 U179:6|1|
4894 U179:6|2|
2238 U179:6|3|
2806 U179:6|4|
7298 U179:6|5|
2620 U179:6|6|
7696 U17:**
3324 U17:A|A|
7362 U17:A|G|
4488 U17:A|T|
440 U17:C|A|
6240 U17:C|C|
1680 U17:C|G|
4756 U17:C|T|
4172 U17:G|A|
7322 U17:G|C|
4402 U17:G|G|
5992 U17:G|T|
34 U17:T|A|
2366 U17:T|C|
3242 U17:T|G|
2642 U17:T|T|
8022 U180:*
2622 U180:0|
360 U180:1|
2498 U180:2|
660 U180:3|
3140 U180:4|
2724 U180:5|
1632 U180:6|
8024 U181:**
2624 U181:0|3|
7428 U181:0|5|
7356 U181:1|2|
5490 U181:1|3|
1420 U181:1|4|
5012 U181:1|5|
362 U181:1|6|
5406 U181:2|0|
6262 U181:2|1|
3764 U181:2|3|
2500 U181:2|4|
4798 U181:2|5|
4706 U181:2|6|
3488 U181:3|0|
2808 U181:3|1|
1178 U181:3|2|
2088 U181:3|3|
4238 U181:3|4|
3628 U181:3|5|
662 U181:3|6|
5086 U181:4|1|
5718 U181:4|2|
3142 U181:4|3|
4386 U181:4|4|
4656 U181:4|5|
6186 U181:4|6|
3696 U181:5|0|
2936 U181:5|1|
6026 U181:5|2|
5166 U181:5|3|
6450 U181:5|4|
2726 U181:5|6|
1634 U181:6|1|
2240 U181:6|2|
5212 U181:6|3|
4850 U181:6|4|
5934 U181:6|5|
4088 U181:6|6|
8026 U182:**
2626 U182:0|1|
7430 U182:0|3|
1422 U182:1|1|
5688 U182:1|2|
364 U182:1|3|
5664 U182:1|4|
6830 U182:1|5|
5014 U182:1|6|
5446 U182:2|0|
5408 U182:2|1|
2502 U182:2|2|
3766 U182:2|3|
4896 U182:2|4|
7648 U182:2|5|
4800 U182:2|6|
6074 U182:3|0|
664 U182:3|1|
2090 U182:3|2|
906 U182:3|3|
2810 U182:3|4|
4876 U182:3|5|
1180 U182:3|6|
6418 U182:4|0|
4388 U182:4|1|
4024 U182:4|2|
4776 U182:4|3|
4304 U182:4|4|
7534 U182:4|5|
3144 U182:4|6|
6598 U182:5|0|
3698 U182:5|1|
5270 U182:5|2|
3970 U182:5|3|
5822 U182:5|4|
5474 U182:5|5|
2728 U182:5|6|
3048 U182:6|1|
3424 U182:6|2|
1906 U182:6|3|
5278 U182:6|4|
1636 U182:6|5|
2242 U182:6|6|
8028 U183:*
3490 U183:0|
1638 U183:1|
1182 U183:2|
2092 U183:3|
1424 U183:4|
3630 U183:5|
366 U183:6|
8030 U184:**
3492 U184:0|3|
6366 U184:0|5|
6446 U184:0|6|
1640 U184:1|2|
1908 U184:1|3|
4930 U184:1|4|
3050 U184:1|5|
4554 U184:1|6|
6818 U184:2|0|
6986 U184:2|1|
1184 U184:2|3|
3426 U184:2|4|
2244 U184:2|5|
2352 U184:2|6|
6196 U184:3|0|
5168 U184:3|1|
3226 U184:3|2|
3146 U184:3|3|
4360 U184:3|4|
3738 U184:3|5|
2094 U184:3|6|
6062 U184:4|1|
4240 U184:4|2|
2504 U184:4|3|
5680 U184:4|4|
1426 U184:4|5|
4390 U184:4|6|
7196 U184:5|0|
4658 U184:5|1|
3632 U184:5|2|
4802 U184:5|3|
5636 U184:5|4|
6256 U184:5|6|
2730 U184:6|0|
5486 U184:6|1|
3948 U184:6|2|
1802 U184:6|3|
7444 U184:6|4|
4530 U184:6|5|
368 U184:6|6|
8032 U185:**
6178 U185:0|0|
6368 U185:0|2|
3494 U185:0|3|
6662 U185:0|5|
3700 U185:0|6|
5476 U185:1|0|
6552 U185:1|1|
2938 U185:1|2|
1642 U185:1|3|
6292 U185:1|4|
4932 U185:1|5|
4182 U185:1|6|
1186 U185:2|1|
5040 U185:2|2|
3428 U185:2|3|
6090 U185:2|4|
4936 U185:2|5|
2246 U185:2|6|
2096 U185:3|0|
3228 U185:3|1|
3740 U185:3|2|
3768 U185:3|3|
4864 U185:3|4|
4898 U185:3|5|
2628 U185:3|6|
7484 U185:4|0|
4852 U185:4|1|
5574 U185:4|2|
1428 U185:4|3|
4392 U185:4|4|
2506 U185:4|5|
4242 U185:4|6|
7432 U185:5|1|
4804 U185:5|2|
3634 U185:5|3|
6566 U185:5|4|
6166 U185:5|5|
3888 U185:5|6|
3310 U185:6|0|
3972 U185:6|1|
4532 U185:6|2|
370 U185:6|3|
5824 U185:6|4|
4090 U185:6|5|
666 U185:6|6|
8034 U186:*
2732 U186:0|
4660 U186:1|
1644 U186:2|
1188 U186:3|
3430 U186:4|
1430 U186:5|
372 U186:6|
8036 U187:**
2734 U187:0|3|
4538 U187:0|5|
6878 U187:1|2|
4684 U187:1|3|
5826 U187:1|4|
5488 U187:1|5|
4662 U187:1|6|
3230 U187:2|1|
1646 U187:2|3|
4092 U187:2|5|
3890 U187:2|6|
6180 U187:3|0|
1190 U187:3|1|
2940 U187:3|2|
1910 U187:3|3|
4866 U187:3|4|
2508 U187:3|5|
1804 U187:3|6|
5868 U187:4|1|
4362 U187:4|2|
3432 U187:4|3|
6650 U187:4|4|
4934 U187:4|5|
5478 U187:5|0|
4878 U187:5|1|
3052 U187:5|2|
1432 U187:5|3|
5468 U187:5|4|
2248 U187:5|6|
2098 U187:6|0|
2354 U187:6|1|
4556 U187:6|2|
374 U187:6|3|
4394 U187:6|4|
4900 U187:6|5|
668 U187:6|6|
8038 U188:*
2100 U188:0|
1192 U188:1|
2942 U188:2|
376 U188:3|
4396 U188:4|
2510 U188:5|
670 U188:6|
8040 U189:**
2102 U189:0|2|
5480 U189:0|5|
3312 U189:0|6|
7174 U189:1|2|
2356 U189:1|3|
3232 U189:1|4|
4880 U189:1|5|
1194 U189:1|6|
6076 U189:2|0|
3054 U189:2|1|
4534 U189:2|3|
6734 U189:2|4|
2944 U189:2|6|
7276 U189:3|0|
1434 U189:3|1|
3434 U189:3|2|
378 U189:3|3|
2812 U189:3|4|
1648 U189:3|5|
2736 U189:3|6|
4398 U189:4|1|
6400 U189:4|2|
4868 U189:4|4|
7358 U189:4|5|
7150 U189:5|0|
4540 U189:5|1|
2512 U189:5|2|
4094 U189:5|3|
4902 U189:5|4|
5032 U189:5|6|
5448 U189:6|0|
672 U189:6|1|
5690 U189:6|2|
1806 U189:6|3|
6832 U189:6|5|
2250 U189:6|6|
7698 U18:*
712 U18:A|
442 U18:C|
36 U18:G|
4310 U18:T|
8042 U190:*
5450 U190:0|
674 U190:1|
2104 U190:2|
380 U190:3|
2814 U190:4|
1650 U190:5|
1196 U190:6|
8044 U191:**
6078 U191:0|2|
6420 U191:0|3|
7360 U191:0|5|
5452 U191:0|6|
3950 U191:1|2|
676 U191:1|3|
4282 U191:1|4|
3726 U191:1|5|
2630 U191:1|6|
5692 U191:2|0|
2514 U191:2|1|
5030 U191:2|3|
3436 U191:2|4|
7514 U191:2|5|
2106 U191:2|6|
7434 U191:3|0|
908 U191:3|1|
382 U191:3|2|
2358 U191:3|3|
1808 U191:3|4|
3974 U191:3|5|
6238 U191:3|6|
4870 U191:4|1|
3496 U191:4|2|
5530 U191:4|3|
2816 U191:4|4|
3234 U191:4|5|
5264 U191:4|6|
1652 U191:5|1|
5482 U191:5|2|
5870 U191:5|3|
6012 U191:5|4|
4882 U191:5|6|
2738 U191:6|0|
2946 U191:6|1|
4164 U191:6|2|
2252 U191:6|3|
7126 U191:6|4|
3314 U191:6|5|
1198 U191:6|6|
8046 U192:*
2740 U192:0|
910 U192:1|
384 U192:2|
678 U192:3|
1810 U192:4|
3236 U192:5|
1200 U192:6|
8048 U193:**
3822 U193:0|2|
2742 U193:0|3|
4364 U193:0|5|
6134 U193:0|6|
3094 U193:1|2|
5064 U193:1|3|
4218 U193:1|4|
912 U193:1|5|
2516 U193:1|6|
6344 U193:2|0|
386 U193:2|1|
3498 U193:2|3|
6204 U193:2|4|
4542 U193:2|6|
5878 U193:3|0|
2254 U193:3|1|
5970 U193:3|2|
680 U193:3|3|
3148 U193:3|4|
1436 U193:3|5|
5214 U193:3|6|
3550 U193:4|1|
3810 U193:4|2|
3438 U193:4|3|
1812 U193:4|4|
6708 U193:4|5|
4284 U193:4|6|
3238 U193:5|1|
6844 U193:5|2|
5648 U193:5|3|
3728 U193:5|4|
4244 U193:5|6|
4840 U193:6|0|
2108 U193:6|1|
1202 U193:6|2|
3636 U193:6|3|
3056 U193:6|4|
5902 U193:6|5|
4806 U193:6|6|
8050 U194:*
4842 U194:0|
388 U194:1|
1204 U194:2|
682 U194:3|
1814 U194:4|
914 U194:5|
2518 U194:6|
8052 U195:**
5518 U195:0|2|
6906 U195:0|3|
4844 U195:0|5|
6128 U195:0|6|
2110 U195:1|2|
390 U195:1|3|
2360 U195:1|4|
4558 U195:1|5|
2256 U195:1|6|
3812 U195:2|1|
6372 U195:2|3|
3096 U195:2|4|
1206 U195:2|5|
5972 U195:2|6|
7502 U195:3|0|
684 U195:3|1|
3440 U195:3|2|
2744 U195:3|3|
4884 U195:3|4|
6198 U195:3|5|
3952 U195:3|6|
1816 U195:4|1|
5296 U195:4|2|
4622 U195:4|3|
5440 U195:4|4|
4220 U195:4|5|
7490 U195:4|6|
6504 U195:5|0|
1654 U195:5|1|
5638 U195:5|2|
2948 U195:5|3|
1438 U195:5|4|
916 U195:5|6|
7102 U195:6|0|
4246 U195:6|1|
5216 U195:6|2|
5088 U195:6|3|
2520 U195:6|4|
6136 U195:6|5|
5410 U195:6|6|
8054 U196:*
6506 U196:0|
686 U196:1|
2112 U196:2|
392 U196:3|
1440 U196:4|
1208 U196:5|
918 U196:6|
8056 U197:**
7104 U197:0|3|
6508 U197:0|6|
5698 U197:1|2|
3976 U197:1|3|
6834 U197:1|4|
688 U197:1|5|
1656 U197:1|6|
6580 U197:2|1|
5510 U197:2|3|
7220 U197:2|4|
3442 U197:2|5|
2114 U197:2|6|
7388 U197:3|1|
2746 U197:3|2|
394 U197:3|3|
6402 U197:3|4|
4708 U197:3|5|
4466 U197:3|6|
2522 U197:4|1|
1442 U197:4|2|
6014 U197:4|3|
6472 U197:4|4|
2362 U197:4|5|
7056 U197:4|6|
6880 U197:5|0|
4846 U197:5|1|
4560 U197:5|2|
5056 U197:5|3|
1210 U197:5|6|
7310 U197:6|0|
920 U197:6|1|
3954 U197:6|2|
2258 U197:6|3|
6356 U197:6|4|
7042 U197:6|5|
5616 U197:6|6|
8058 U198:*
6882 U198:0|
922 U198:1|
1444 U198:2|
396 U198:3|
6358 U198:4|
690 U198:5|
1212 U198:6|
8060 U199:**
7312 U199:0|3|
6884 U199:0|5|
5872 U199:1|2|
2524 U199:1|3|
924 U199:1|4|
6938 U199:1|5|
5666 U199:1|6|
2950 U199:2|0|
1446 U199:2|1|
3956 U199:2|3|
7564 U199:2|4|
5904 U199:2|5|
6138 U199:2|6|
2260 U199:3|0|
398 U199:3|1|
5764 U199:3|2|
6092 U199:3|3|
5058 U199:3|4|
5394 U199:3|5|
6234 U199:3|6|
6474 U199:4|1|
6360 U199:4|2|
6904 U199:4|3|
7012 U199:4|4|
6836 U199:4|5|
3444 U199:5|0|
692 U199:5|1|
4710 U199:5|2|
2818 U199:5|3|
3668 U199:5|6|
1214 U199:6|0|
3058 U199:6|1|
6710 U199:6|2|
1658 U199:6|3|
2116 U199:6|4|
4468 U199:6|5|
4222 U199:6|6|
7700 U19:**
3502 U19:A|A|
5298 U19:A|C|
714 U19:A|G|
970 U19:A|T|
3556 U19:C|A|
444 U19:C|C|
6030 U19:C|G|
3326 U19:C|T|
1244 U19:G|A|
1460 U19:G|C|
2270 U19:G|G|
38 U19:G|T|
5734 U19:T|A|
7262 U19:T|C|
4312 U19:T|G|
6890 U19:T|T|
7664 U1:**
2 U1:C|A|
8062 U200:*
1216 U200:0|
400 U200:1|
4712 U200:2|
1660 U200:3|
926 U200:4|
4470 U200:5|
3670 U200:6|
8064 U201:**
2952 U201:0|2|
2262 U201:0|3|
6370 U201:0|5|
1218 U201:0|6|
6814 U201:1|2|
2632 U201:1|3|
402 U201:1|4|
2748 U201:1|5|
3702 U201:1|6|
7608 U201:2|0|
4714 U201:2|1|
5766 U201:2|3|
5874 U201:2|4|
7390 U201:2|5|
6652 U201:2|6|
6094 U201:3|0|
1662 U201:3|1|
3958 U201:3|2|
2526 U201:3|3|
6774 U201:3|4|
7516 U201:3|5|
7272 U201:3|6|
2118 U201:4|1|
5060 U201:4|2|
928 U201:4|3|
6332 U201:4|4|
7402 U201:4|5|
6444 U201:4|6|
5120 U201:5|1|
4472 U201:5|2|
6064 U201:5|4|
5828 U201:6|0|
4224 U201:6|1|
5668 U201:6|2|
4754 U201:6|3|
3672 U201:6|6|
8066 U202:*
5830 U202:0|
1664 U202:1|
2954 U202:2|
930 U202:3|
404 U202:4|
2750 U202:5|
1220 U202:6|
8068 U203:**
6096 U203:0|2|
5832 U203:0|6|
2820 U203:1|2|
5396 U203:1|3|
1666 U203:1|4|
7314 U203:1|5|
6838 U203:1|6|
4474 U203:2|0|
5062 U203:2|1|
5670 U203:2|3|
2956 U203:2|4|
6510 U203:2|5|
5700 U203:2|6|
2264 U203:3|1|
932 U203:3|2|
2634 U203:3|3|
7278 U203:3|4|
6554 U203:3|5|
6920 U203:3|6|
6066 U203:4|1|
7182 U203:4|2|
1818 U203:4|3|
406 U203:4|4|
6246 U203:4|5|
4026 U203:4|6|
7526 U203:5|0|
3638 U203:5|1|
7518 U203:5|2|
2752 U203:5|3|
6996 U203:5|6|
3704 U203:6|1|
1222 U203:6|2|
3674 U203:6|3|
7582 U203:6|4|
8070 U204:*
4476 U204:0|
2266 U204:1|
934 U204:2|
1820 U204:3|
408 U204:4|
6248 U204:5|
4028 U204:6|
8072 U205:**
7528 U205:0|2|
4478 U205:0|6|
6068 U205:1|2|
7034 U205:1|3|
2268 U205:1|4|
7656 U205:1|5|
5016 U205:1|6|
2528 U205:2|0|
7118 U205:2|1|
936 U205:2|4|
6596 U205:2|6|
2636 U205:3|1|
1822 U205:3|2|
5398 U205:3|3|
5170 U205:3|5|
6776 U205:4|1|
6886 U205:4|2|
410 U205:4|4|
5618 U205:4|5|
2120 U205:4|6|
6250 U205:5|1|
7088 U205:5|3|
6512 U205:5|6|
4030 U205:6|1|
7132 U205:6|2|
5834 U205:6|3|
6016 U205:6|4|
6922 U205:6|5|
7256 U205:6|6|
8074 U206:*
2530 U206:0|
2638 U206:1|
1824 U206:2|
5400 U206:3|
412 U206:4|
5172 U206:5|
2122 U206:6|
8076 U207:**
7520 U207:0|2|
2532 U207:0|3|
6954 U207:1|3|
2640 U207:1|4|
6556 U207:1|5|
3676 U207:1|6|
6888 U207:2|1|
6654 U207:2|3|
1826 U207:2|4|
5672 U207:2|6|
5402 U207:3|1|
7036 U207:3|2|
5836 U207:3|6|
6018 U207:4|1|
7406 U207:4|2|
4916 U207:4|3|
414 U207:4|4|
1668 U207:4|5|
938 U207:4|6|
5174 U207:5|1|
7566 U207:5|6|
2958 U207:6|1|
6678 U207:6|2|
4480 U207:6|3|
2124 U207:6|4|
7258 U207:6|5|
8078 U208:*
2960 U208:1|
6680 U208:2|
2534 U208:3|
416 U208:4|
1670 U208:5|
940 U208:6|
8080 U209:**
7232 U209:1|2|
5620 U209:1|3|
5176 U209:1|4|
5018 U209:1|5|
2962 U209:1|6|
7152 U209:2|0|
7408 U209:2|1|
7038 U209:2|4|
6682 U209:2|6|
2536 U209:3|0|
6168 U209:3|2|
4918 U209:3|3|
6656 U209:3|4|
6956 U209:3|5|
4482 U209:3|6|
2126 U209:4|1|
5948 U209:4|2|
1224 U209:4|3|
694 U209:4|4|
418 U209:4|5|
3552 U209:4|6|
6558 U209:5|1|
7260 U209:5|2|
5906 U209:5|3|
1672 U209:5|6|
3598 U209:6|1|
1448 U209:6|2|
942 U209:6|4|
7568 U209:6|6|
7702 U20:**
1682 U20:A|A|
6614 U20:A|C|
716 U20:A|G|
5304 U20:A|T|
446 U20:C|A|
2136 U20:C|C|
3558 U20:C|G|
6264 U20:C|T|
40 U20:G|A|
2644 U20:G|C|
2544 U20:G|G|
2368 U20:G|T|
5736 U20:T|A|
7264 U20:T|C|
4314 U20:T|G|
8082 U210:*
2538 U210:0|
2128 U210:1|
1450 U210:2|
1226 U210:3|
696 U210:4|
420 U210:5|
1674 U210:6|
8084 U211:**
2540 U211:0|2|
7154 U211:0|3|
4192 U211:1|2|
5674 U211:1|3|
6560 U211:1|4|
2130 U211:1|5|
3600 U211:1|6|
7198 U211:2|0|
1452 U211:2|3|
7190 U211:2|4|
7234 U211:2|5|
1836 U211:2|6|
6790 U211:3|1|
4848 U211:3|2|
1228 U211:3|3|
5720 U211:3|5|
4686 U211:3|6|
6658 U211:4|1|
944 U211:4|2|
3290 U211:4|3|
698 U211:4|4|
5178 U211:4|5|
3960 U211:4|6|
3770 U211:5|0|
3500 U211:5|1|
2754 U211:5|3|
7120 U211:5|4|
422 U211:5|6|
4484 U211:6|0|
2964 U211:6|1|
3554 U211:6|2|
5760 U211:6|3|
6020 U211:6|4|
1676 U211:6|6|
8086 U212:*
3772 U212:0|
2966 U212:1|
946 U212:2|
1230 U212:3|
700 U212:4|
2132 U212:5|
424 U212:6|
8088 U213:**
3774 U213:0|5|
2968 U213:1|5|
3240 U213:1|6|
948 U213:2|3|
2542 U213:2|6|
1232 U213:3|3|
1454 U213:3|4|
3292 U213:3|5|
6022 U213:4|4|
702 U213:4|6|
5180 U213:5|3|
2134 U213:5|4|
426 U213:6|3|
3962 U213:6|4|
3602 U213:6|5|
8090 U214:*
428 U214:3|
1456 U214:4|
2970 U214:5|
704 U214:6|
7704 U21:*
1246 U21:A|
448 U21:C|
718 U21:G|
42 U21:T|
7706 U22:**
4584 U22:A|A|
1248 U22:A|C|
2370 U22:A|G|
1838 U22:A|T|
1462 U22:C|A|
3892 U22:C|C|
450 U22:C|G|
2138 U22:C|T|
720 U22:G|A|
4570 U22:G|C|
4490 U22:G|G|
1684 U22:G|T|
1924 U22:T|A|
972 U22:T|C|
3328 U22:T|G|
44 U22:T|T|
7708 U23:**
1250 U23:A|A|
2372 U23:A|C|
4624 U23:A|G|
4404 U23:A|T|
452 U23:C|A|
1464 U23:C|C|
2140 U23:C|G|
6946 U23:C|T|
722 U23:G|A|
4688 U23:G|C|
2826 U23:G|G|
5130 U23:G|T|
46 U23:T|A|
4726 U23:T|C|
974 U23:T|G|
1926 U23:T|T|
7710 U24:*
724 U24:A|
976 U24:C|
454 U24:G|
48 U24:T|
7712 U25:**
726 U25:A|A|
1928 U25:A|C|
5122 U25:A|G|
1466 U25:A|T|
1252 U25:C|A|
5198 U25:C|C|
4406 U25:C|G|
978 U25:C|T|
3832 U25:G|A|
3330 U25:G|C|
456 U25:G|G|
4492 U25:G|T|
3060 U25:T|A|
1840 U25:T|C|
1686 U25:T|G|
50 U25:T|T|
7714 U26:**
728 U26:A|A|
2272 U26:A|C|
1468 U26:A|G|
1930 U26:A|T|
3894 U26:C|A|
980 U26:C|C|
4408 U26:C|G|
5048 U26:C|T|
4808 U26:G|A|
458 U26:G|C|
2374 U26:G|G|
5218 U26:G|T|
6310 U26:T|A|
52 U26:T|C|
5100 U26:T|G|
2980 U26:T|T|
7716 U27:*
730 U27:A|
1842 U27:C|
460 U27:G|
54 U27:T|
7718 U28:**
732 U28:A|A|
3062 U28:A|C|
1254 U28:A|G|
2274 U28:A|T|
3446 U28:C|A|
4334 U28:C|C|
1932 U28:C|G|
1844 U28:C|T|
462 U28:G|A|
2546 U28:G|C|
1688 U28:G|G|
6144 U28:G|T|
4494 U28:T|A|
56 U28:T|C|
982 U28:T|G|
3154 U28:T|T|
7720 U29:**
2276 U29:A|A|
734 U29:A|C|
3294 U29:A|G|
1256 U29:A|T|
1934 U29:C|A|
6080 U29:C|C|
1846 U29:C|G|
6382 U29:C|T|
464 U29:G|A|
5922 U29:G|C|
2142 U29:G|G|
2376 U29:G|T|
2756 U29:T|A|
984 U29:T|C|
58 U29:T|G|
2646 U29:T|T|
7666 U2:**
4 U2:C|T|
7722 U30:*
466 U30:A|
60 U30:C|
986 U30:G|
1848 U30:T|
7724 U31:**
736 U31:A|A|
6100 U31:A|C|
468 U31:A|G|
5538 U31:A|T|
1470 U31:C|A|
2548 U31:C|C|
4040 U31:C|G|
62 U31:C|T|
1690 U31:G|A|
988 U31:G|C|
2144 U31:G|G|
1258 U31:G|T|
2278 U31:T|A|
1850 U31:T|C|
3156 U31:T|G|
4958 U31:T|T|
7726 U32:**
5132 U32:A|A|
470 U32:A|C|
5200 U32:A|G|
3448 U32:A|T|
64 U32:C|A|
2648 U32:C|C|
3678 U32:C|G|
1472 U32:C|T|
990 U32:G|A|
4790 U32:G|C|
1936 U32:G|G|
1260 U32:G|T|
1852 U32:T|A|
2828 U32:T|C|
3332 U32:T|G|
3244 U32:T|T|
7728 U33:*
738 U33:A|
992 U33:C|
472 U33:G|
66 U33:T|
7730 U34:**
3098 U34:A|A|
2650 U34:A|C|
740 U34:A|G|
1474 U34:A|T|
5650 U34:C|A|
1854 U34:C|C|
2550 U34:C|G|
994 U34:C|T|
2378 U34:G|A|
474 U34:G|C|
2146 U34:G|G|
3246 U34:G|T|
1262 U34:T|A|
4690 U34:T|C|
68 U34:T|G|
5068 U34:T|T|
7732 U35:**
742 U35:A|A|
2280 U35:A|C|
1476 U35:A|G|
1692 U35:A|T|
5412 U35:C|A|
1856 U35:C|C|
996 U35:C|G|
2552 U35:C|T|
2380 U35:G|A|
3158 U35:G|C|
476 U35:G|G|
2148 U35:G|T|
4960 U35:T|A|
70 U35:T|C|
1264 U35:T|G|
4692 U35:T|T|
7734 U36:*
1266 U36:A|
478 U36:C|
72 U36:G|
998 U36:T|
7736 U37:**
1268 U37:A|A|
4626 U37:A|C|
3100 U37:A|G|
5652 U37:A|T|
1858 U37:C|A|
480 U37:C|C|
3450 U37:C|G|
3160 U37:C|T|
2150 U37:G|A|
1938 U37:G|C|
74 U37:G|G|
3604 U37:G|T|
4098 U37:T|A|
1000 U37:T|C|
1478 U37:T|G|
4226 U37:T|T|
7738 U38:**
1270 U38:A|A|
2382 U38:A|C|
4628 U38:A|G|
3744 U38:A|T|
482 U38:C|A|
2652 U38:C|C|
3296 U38:C|G|
1860 U38:C|T|
1940 U38:G|A|
2152 U38:G|C|
3896 U38:G|G|
76 U38:G|T|
2982 U38:T|A|
3248 U38:T|C|
1002 U38:T|G|
1480 U38:T|T|
7740 U39:*
1272 U39:A|
484 U39:C|
78 U39:G|
3162 U39:T|
7668 U3:*
6 U3:A|
7742 U40:**
3334 U40:A|A|
1274 U40:A|C|
1862 U40:A|G|
4366 U40:A|T|
4630 U40:C|A|
486 U40:C|C|
2654 U40:C|G|
1004 U40:C|T|
1482 U40:G|A|
1694 U40:G|C|
80 U40:G|G|
2984 U40:G|T|
6048 U40:T|A|
3164 U40:T|C|
4668 U40:T|G|
4358 U40:T|T|
7744 U41:**
2830 U41:A|A|
1864 U41:A|C|
3336 U41:A|G|
1276 U41:A|T|
2282 U41:C|A|
488 U41:C|C|
1006 U41:C|G|
3706 U41:C|T|
4128 U41:G|A|
82 U41:G|C|
1484 U41:G|G|
2758 U41:G|T|
3166 U41:T|A|
3834 U41:T|C|
5958 U41:T|G|
3606 U41:T|T|
7746 U42:*
1486 U42:A|
490 U42:C|
84 U42:G|
1008 U42:T|
7748 U43:**
5770 U43:A|A|
4042 U43:A|C|
1488 U43:A|G|
3898 U43:A|T|
2284 U43:C|A|
492 U43:C|C|
1942 U43:C|G|
1278 U43:C|T|
2832 U43:G|A|
86 U43:G|C|
5960 U43:G|G|
2384 U43:G|T|
5242 U43:T|A|
2986 U43:T|C|
1010 U43:T|G|
4368 U43:T|T|
7750 U44:*
2286 U44:A|
88 U44:C|
1012 U44:G|
1280 U44:T|
7752 U45:**
3168 U45:A|A|
4872 U45:A|C|
2288 U45:A|G|
2834 U45:A|T|
494 U45:C|A|
2154 U45:C|C|
5442 U45:C|G|
90 U45:C|T|
1944 U45:G|A|
5332 U45:G|C|
1014 U45:G|G|
1490 U45:G|T|
1282 U45:T|A|
2386 U45:T|C|
3708 U45:T|G|
2760 U45:T|T|
7754 U46:*
496 U46:A|
2156 U46:C|
1016 U46:G|
92 U46:T|
7756 U47:**
3338 U47:A|A|
3170 U47:A|C|
498 U47:A|G|
1946 U47:A|T|
2388 U47:C|A|
3608 U47:C|C|
2656 U47:C|G|
2158 U47:C|T|
3900 U47:G|A|
2290 U47:G|C|
1018 U47:G|G|
3298 U47:G|T|
744 U47:T|A|
94 U47:T|C|
1492 U47:T|G|
1696 U47:T|T|
7758 U48:*
746 U48:A|
96 U48:C|
500 U48:G|
1698 U48:T|
7760 U49:**
4194 U49:A|A|
748 U49:A|C|
3340 U49:A|G|
2390 U49:A|T|
98 U49:C|A|
4228 U49:C|C|
4810 U49:C|G|
3452 U49:C|T|
1020 U49:G|A|
502 U49:G|C|
5070 U49:G|G|
1284 U49:G|T|
2554 U49:T|A|
3776 U49:T|C|
1948 U49:T|G|
1700 U49:T|T|
7670 U4:**
8 U4:A|C|
4718 U4:A|G|
950 U4:A|T|
7762 U50:*
100 U50:A|
504 U50:C|
1950 U50:G|
1286 U50:T|
7764 U51:**
2292 U51:A|A|
1022 U51:A|C|
102 U51:A|G|
4306 U51:A|T|
506 U51:C|A|
750 U51:C|C|
6482 U51:C|G|
2658 U51:C|T|
1952 U51:G|A|
5072 U51:G|C|
2160 U51:G|G|
4544 U51:G|T|
1702 U51:T|A|
5290 U51:T|C|
1494 U51:T|G|
1288 U51:T|T|
7766 U52:*
508 U52:A|
752 U52:C|
104 U52:G|
1290 U52:T|
7768 U53:**
6822 U53:A|A|
510 U53:A|C|
5334 U53:A|G|
1954 U53:A|T|
754 U53:C|A|
1024 U53:C|C|
6848 U53:C|G|
4962 U53:C|T|
3902 U53:G|A|
106 U53:G|C|
1496 U53:G|G|
4694 U53:G|T|
4812 U53:T|A|
1292 U53:T|C|
2392 U53:T|G|
6346 U53:T|T|
7770 U54:*
756 U54:A|
108 U54:C|
1498 U54:G|
1956 U54:T|
7772 U55:**
758 U55:A|A|
5888 U55:A|C|
3904 U55:A|G|
5962 U55:A|T|
110 U55:C|A|
3640 U55:C|C|
1026 U55:C|G|
2762 U55:C|T|
5762 U55:G|A|
1500 U55:G|C|
5654 U55:G|G|
4410 U55:G|T|
2988 U55:T|A|
4696 U55:T|C|
4964 U55:T|G|
1958 U55:T|T|
7774 U56:*
112 U56:A|
1502 U56:C|
1028 U56:G|
1960 U56:T|
7776 U57:**
114 U57:A|A|
2660 U57:A|C|
760 U57:A|G|
3680 U57:A|T|
1504 U57:C|A|
3642 U57:C|C|
5772 U57:C|G|
2394 U57:C|T|
2836 U57:G|A|
2162 U57:G|C|
1030 U57:G|G|
4966 U57:G|T|
1962 U57:T|A|
4412 U57:T|C|
2764 U57:T|G|
6050 U57:T|T|
7778 U58:*
116 U58:A|
2164 U58:C|
762 U58:G|
2396 U58:T|
7780 U59:**
118 U59:A|A|
6242 U59:A|C|
1704 U59:A|G|
3978 U59:A|T|
2166 U59:C|A|
6988 U59:C|C|
4414 U59:C|G|
2662 U59:C|T|
764 U59:G|A|
2556 U59:G|C|
5774 U59:G|G|
6532 U59:G|T|
3682 U59:T|A|
2398 U59:T|C|
6052 U59:T|G|
6740 U59:T|T|
7672 U5:**
430 U5:A|A|
10 U5:A|C|
2822 U5:A|G|
1234 U5:A|T|
7782 U60:*
120 U60:A|
2400 U60:C|
1706 U60:G|
2664 U60:T|
7784 U61:**
122 U61:A|A|
5578 U61:A|C|
7016 U61:A|G|
1964 U61:A|T|
2558 U61:C|A|
6484 U61:C|C|
2402 U61:C|G|
5336 U61:C|T|
1708 U61:G|A|
5776 U61:G|C|
4416 U61:G|G|
5142 U61:G|T|
2666 U61:T|A|
6616 U61:T|C|
7382 U61:T|G|
5994 U61:T|T|
7786 U62:*
124 U62:A|
5580 U62:C|
2404 U62:G|
1966 U62:T|
7788 U63:**
126 U63:A|A|
1506 U63:A|C|
4906 U63:A|G|
766 U63:A|T|
5582 U63:C|A|
5778 U63:C|C|
6618 U63:C|T|
7018 U63:G|A|
2406 U63:G|C|
7252 U63:G|T|
2838 U63:T|A|
6664 U63:T|C|
4968 U63:T|G|
1968 U63:T|T|
7790 U64:*
128 U64:A|
1508 U64:C|
4908 U64:G|
768 U64:T|
7792 U65:**
512 U65:A|A|
130 U65:A|C|
1032 U65:A|G|
2840 U65:A|T|
5780 U65:C|A|
1510 U65:C|C|
2408 U65:C|G|
5890 U65:C|T|
6146 U65:G|A|
4910 U65:G|C|
4970 U65:G|T|
5492 U65:T|A|
1294 U65:T|C|
1970 U65:T|G|
770 U65:T|T|
7794 U66:*
514 U66:A|
132 U66:C|
1034 U66:G|
772 U66:T|
7796 U67:**
516 U67:A|A|
5144 U67:A|C|
3250 U67:A|G|
3906 U67:A|T|
3172 U67:C|A|
134 U67:C|C|
3746 U67:C|G|
1296 U67:C|T|
2410 U67:G|A|
1036 U67:G|C|
3560 U67:G|G|
1972 U67:G|T|
4248 U67:T|A|
774 U67:T|C|
2842 U67:T|G|
5996 U67:T|T|
7798 U68:*
518 U68:A|
136 U68:C|
2844 U68:G|
1298 U68:T|
7800 U69:**
520 U69:A|T|
138 U69:C|T|
2846 U69:G|T|
1300 U69:T|T|
7674 U6:*
12 U6:C|
4720 U6:G|
952 U6:T|
7802 U70:*
140 U70:T|
7804 U71:**
142 U71:T|+|
7806 U72:*
144 U72:+|
7808 U73:**
146 U73:+|3|
1038 U73:+|4|
7810 U74:**
2848 U74:+|1|
148 U74:+|2|
1302 U74:+|4|
522 U74:+|6|
7812 U75:*
150 U75:3|
1040 U75:4|
7814 U76:**
3836 U76:3|2|
152 U76:3|3|
5338 U76:3|4|
1042 U76:4|3|
5624 U76:4|4|
7816 U77:**
1512 U77:3|0|
154 U77:3|1|
1974 U77:3|2|
776 U77:3|3|
2412 U77:3|4|
4250 U77:3|5|
3908 U77:3|6|
524 U77:3|8|
1044 U77:4|1|
6722 U77:4|3|
7398 U77:4|5|
6714 U77:4|6|
7818 U78:*
3838 U78:2|
156 U78:3|
5340 U78:4|
7820 U79:**
3840 U79:2|1|
5244 U79:2|2|
6102 U79:2|3|
1046 U79:3|2|
158 U79:3|3|
1976 U79:3|4|
2990 U79:3|5|
5626 U79:4|4|
5342 U79:4|5|
7676 U7:**
14 U7:C|A|
4032 U7:C|C|
3824 U7:C|G|
1236 U7:C|T|
4722 U7:G|A|
7446 U7:G|T|
5622 U7:T|A|
7222 U7:T|C|
954 U7:T|G|
5324 U7:T|T|
7822 U80:**
7138 U80:2|1|
4044 U80:2|2|
4854 U80:2|3|
4496 U80:2|4|
3842 U80:2|5|
7020 U80:2|6|
5976 U80:2|7|
7324 U80:2|8|
4418 U80:3|0|
1514 U80:3|1|
1828 U80:3|2|
1304 U80:3|3|
160 U80:3|4|
3454 U80:3|5|
4252 U80:3|6|
3252 U80:3|7|
526 U80:3|8|
5344 U80:4|1|
6486 U80:4|2|
5628 U80:4|4|
6716 U80:4|8|
7824 U81:*
3844 U81:1|
1048 U81:2|
162 U81:3|
1978 U81:4|
2992 U81:5|
7826 U82:**
4316 U82:1|0|
4046 U82:1|1|
3846 U82:1|2|
1050 U82:2|0|
1710 U82:2|1|
1306 U82:2|2|
5942 U82:2|3|
7470 U82:2|4|
164 U82:3|2|
4632 U82:3|3|
3174 U82:3|4|
6620 U82:3|5|
5630 U82:4|2|
2850 U82:4|3|
1980 U82:4|4|
7078 U82:5|3|
5346 U82:5|4|
5102 U82:5|5|
2994 U82:5|6|
6742 U82:5|7|
7828 U83:**
6534 U83:1|3|
5910 U83:1|4|
4048 U83:1|5|
3848 U83:1|7|
5978 U83:1|8|
6850 U83:2|2|
4912 U83:2|4|
1308 U83:2|5|
6588 U83:2|6|
1052 U83:2|7|
4286 U83:2|8|
2414 U83:3|0|
5782 U83:3|1|
6666 U83:3|2|
4972 U83:3|3|
1516 U83:3|4|
2560 U83:3|5|
778 U83:3|6|
166 U83:3|7|
528 U83:3|8|
7412 U83:4|0|
7300 U83:4|2|
1982 U83:4|4|
2852 U83:4|5|
3456 U83:4|7|
6718 U83:4|8|
5348 U83:5|2|
4130 U83:5|4|
6958 U83:5|5|
3980 U83:5|6|
2996 U83:5|7|
4536 U83:5|8|
7830 U84:*
1054 U84:0|
1712 U84:1|
168 U84:2|
2854 U84:3|
1984 U84:4|
5104 U84:5|
2998 U84:6|
6744 U84:7|
7832 U85:**
4318 U85:0|0|
1056 U85:0|1|
7250 U85:0|2|
3562 U85:1|0|
1714 U85:1|1|
5980 U85:1|2|
4498 U85:1|3|
530 U85:2|1|
170 U85:2|2|
4814 U85:2|3|
7158 U85:2|5|
4728 U85:3|2|
2856 U85:3|3|
6300 U85:3|5|
5850 U85:4|3|
1986 U85:4|4|
6892 U85:4|5|
6792 U85:4|6|
5924 U85:5|4|
5106 U85:5|5|
6622 U85:5|7|
3000 U85:6|5|
4132 U85:6|6|
6746 U85:7|8|
7834 U86:**
6536 U86:0|2|
7140 U86:0|5|
5912 U86:0|6|
1058 U86:0|7|
6582 U86:0|8|
6852 U86:1|3|
1716 U86:1|5|
3564 U86:1|6|
6148 U86:1|7|
5982 U86:1|8|
4420 U86:2|0|
2416 U86:2|1|
5540 U86:2|2|
6948 U86:2|3|
2562 U86:2|4|
2668 U86:2|5|
780 U86:2|6|
1518 U86:2|7|
172 U86:2|8|
7246 U86:3|1|
7080 U86:3|2|
7450 U86:3|3|
5494 U86:3|4|
4730 U86:3|5|
2858 U86:3|6|
6172 U86:3|7|
4634 U86:3|8|
5350 U86:4|1|
5146 U86:4|2|
6824 U86:4|4|
7472 U86:4|5|
1988 U86:4|6|
3176 U86:4|7|
3342 U86:4|8|
7594 U86:5|1|
6624 U86:5|2|
5926 U86:5|7|
5108 U86:5|8|
3254 U86:6|5|
3982 U86:6|6|
4938 U86:6|7|
3002 U86:6|8|
6748 U86:7|5|
7836 U87:*
3566 U87:0|
532 U87:1|
174 U87:2|
2860 U87:3|
1990 U87:4|
3004 U87:5|
4134 U87:6|
6626 U87:7|
6750 U87:8|
7838 U88:**
6684 U88:0|0|
3568 U88:0|1|
534 U88:1|0|
4100 U88:1|1|
1310 U88:1|2|
1060 U88:1|3|
6584 U88:1|4|
176 U88:2|1|
782 U88:2|2|
2766 U88:2|3|
3504 U88:2|4|
7646 U88:2|5|
7208 U88:3|1|
2862 U88:3|2|
5676 U88:3|3|
4636 U88:3|4|
7200 U88:4|1|
3458 U88:4|2|
3344 U88:4|3|
1992 U88:4|4|
7414 U88:4|5|
5306 U88:4|6|
3984 U88:5|2|
3006 U88:5|3|
4716 U88:5|4|
6894 U88:5|5|
6302 U88:5|6|
7160 U88:5|7|
7236 U88:6|4|
6794 U88:6|5|
4136 U88:6|6|
6628 U88:7|8|
6752 U88:8|8|
7840 U89:**
3570 U89:0|5|
5914 U89:0|8|
4422 U89:1|1|
6538 U89:1|2|
2670 U89:1|3|
1062 U89:1|4|
1718 U89:1|5|
3814 U89:1|6|
4698 U89:1|7|
536 U89:1|8|
5784 U89:2|0|
7248 U89:2|1|
2418 U89:2|2|
4974 U89:2|3|
5050 U89:2|4|
784 U89:2|5|
3684 U89:2|6|
1520 U89:2|7|
178 U89:2|8|
7302 U89:3|3|
5496 U89:3|4|
6236 U89:3|5|
2864 U89:3|6|
4638 U89:3|7|
5292 U89:3|8|
5352 U89:4|1|
6488 U89:4|2|
5148 U89:4|4|
7584 U89:4|5|
1994 U89:4|6|
3346 U89:4|7|
3178 U89:4|8|
7596 U89:5|0|
7364 U89:5|2|
6960 U89:5|4|
3256 U89:5|5|
3986 U89:5|6|
5110 U89:5|7|
3008 U89:5|8|
7238 U89:6|5|
4138 U89:6|6|
6796 U89:6|7|
5284 U89:6|8|
6630 U89:7|1|
6754 U89:8|4|
7678 U8:**
432 U8:C|A|
16 U8:C|C|
1912 U8:C|G|
706 U8:C|T|
4724 U8:G|C|
7448 U8:G|T|
6712 U8:T|A|
6478 U8:T|C|
956 U8:T|G|
5326 U8:T|T|
7842 U90:*
538 U90:0|
180 U90:1|
786 U90:2|
1064 U90:3|
1996 U90:4|
6798 U90:5|
4140 U90:6|
7162 U90:7|
6632 U90:8|
7844 U91:**
540 U91:0|0|
5202 U91:0|1|
5998 U91:0|2|
3910 U91:1|0|
1522 U91:1|1|
182 U91:1|2|
3572 U91:1|3|
4102 U91:1|4|
7438 U91:2|0|
3988 U91:2|1|
1720 U91:2|2|
788 U91:2|3|
1866 U91:2|4|
4586 U91:2|5|
3258 U91:3|1|
3010 U91:3|2|
1066 U91:3|3|
2768 U91:3|4|
5646 U91:3|5|
7474 U91:4|1|
7240 U91:4|2|
3850 U91:4|3|
1998 U91:4|4|
5484 U91:4|5|
3506 U91:4|6|
7538 U91:4|7|
6896 U91:5|3|
7316 U91:5|4|
6800 U91:5|5|
7416 U91:5|6|
4142 U91:6|5|
5308 U91:6|6|
7164 U91:7|7|
6634 U91:8|5|
6756 U91:8|8|
7846 U92:**
2168 U92:0|1|
5220 U92:0|3|
6266 U92:0|4|
5542 U92:0|5|
6000 U92:0|6|
542 U92:0|7|
4424 U92:1|1|
2564 U92:1|2|
3574 U92:1|3|
1524 U92:1|4|
3912 U92:1|5|
4336 U92:1|6|
184 U92:1|7|
3644 U92:2|0|
2420 U92:2|1|
5134 U92:2|2|
2672 U92:2|3|
2866 U92:2|4|
790 U92:2|5|
3990 U92:2|6|
1312 U92:2|7|
6312 U92:2|8|
5354 U92:3|1|
1068 U92:3|2|
6660 U92:3|3|
3348 U92:3|4|
3260 U92:3|5|
7622 U92:3|6|
3012 U92:3|7|
6104 U92:4|2|
5498 U92:4|3|
4640 U92:4|4|
2000 U92:4|5|
7440 U92:4|6|
3180 U92:4|7|
7598 U92:5|1|
7418 U92:5|3|
6802 U92:5|5|
7624 U92:5|7|
7366 U92:6|2|
5310 U92:6|4|
4144 U92:6|6|
5286 U92:6|7|
7166 U92:7|4|
6636 U92:8|1|
6758 U92:8|4|
7848 U93:*
544 U93:0|
1526 U93:1|
186 U93:2|
792 U93:3|
1868 U93:4|
4146 U93:5|
3508 U93:6|
7168 U93:7|
6760 U93:8|
7850 U94:**
546 U94:0|0|
2170 U94:0|1|
7592 U94:0|2|
4500 U94:1|0|
2566 U94:1|1|
3262 U94:1|2|
1528 U94:1|3|
5520 U94:1|4|
3350 U94:2|1|
1722 U94:2|2|
188 U94:2|3|
2294 U94:2|4|
6376 U94:2|5|
2422 U94:3|2|
1070 U94:3|3|
3852 U94:3|4|
794 U94:3|5|
7318 U94:4|2|
6432 U94:4|3|
1870 U94:4|4|
2674 U94:4|5|
6568 U94:4|6|
5584 U94:4|7|
7368 U94:5|3|
5288 U94:5|4|
4148 U94:5|5|
5042 U94:5|6|
4588 U94:5|7|
4184 U94:6|5|
3510 U94:6|6|
7170 U94:7|5|
7540 U94:7|7|
7570 U94:7|8|
6762 U94:8|6|
7852 U95:**
2172 U95:0|0|
7202 U95:0|2|
6194 U95:0|3|
3914 U95:0|4|
548 U95:0|5|
7378 U95:1|0|
1530 U95:1|1|
2568 U95:1|2|
3610 U95:1|3|
4338 U95:1|4|
3064 U95:1|5|
6436 U95:1|6|
6998 U95:1|7|
7266 U95:2|0|
4426 U95:2|1|
4976 U95:2|2|
3352 U95:2|3|
190 U95:2|4|
1724 U95:2|5|
3014 U95:2|6|
1072 U95:3|0|
2424 U95:3|1|
2868 U95:3|2|
3576 U95:3|3|
1314 U95:3|4|
796 U95:3|5|
6668 U95:3|7|
3646 U95:4|1|
2676 U95:4|2|
4642 U95:4|3|
1872 U95:4|4|
3102 U95:4|5|
5880 U95:4|6|
6314 U95:4|7|
7630 U95:4|8|
6638 U95:5|1|
6724 U95:5|2|
7600 U95:5|3|
4590 U95:5|4|
4150 U95:5|5|
5842 U95:5|6|
7420 U95:6|2|
5312 U95:6|4|
3512 U95:6|5|
7172 U95:7|2|
7542 U95:7|3|
7572 U95:7|5|
6764 U95:8|3|
7854 U96:*
550 U96:0|
2174 U96:1|
1726 U96:2|
192 U96:3|
1874 U96:4|
798 U96:5|
3514 U96:6|
4592 U96:7|
7574 U96:8|
7856 U97:**
6410 U97:0|0|
4502 U97:0|1|
552 U97:0|2|
5222 U97:1|0|
2176 U97:1|1|
3066 U97:1|2|
3916 U97:1|3|
3992 U97:1|4|
1728 U97:2|1|
4174 U97:2|2|
3264 U97:2|3|
3778 U97:2|4|
4288 U97:2|5|
6940 U97:3|1|
1074 U97:3|2|
194 U97:3|3|
4254 U97:3|4|
4978 U97:3|5|
2002 U97:4|2|
1876 U97:4|3|
3104 U97:4|4|
4104 U97:4|5|
2296 U97:4|6|
7176 U97:4|7|
4186 U97:5|2|
2770 U97:5|3|
2678 U97:5|4|
3182 U97:5|5|
2870 U97:5|6|
800 U97:5|7|
3516 U97:6|4|
5044 U97:6|5|
6524 U97:6|6|
7544 U97:7|5|
4594 U97:7|7|
5586 U97:7|8|
7576 U97:8|5|
7858 U98:**
7498 U98:0|0|
4504 U98:0|1|
4816 U98:0|2|
554 U98:0|3|
7072 U98:0|4|
5414 U98:0|5|
2178 U98:1|0|
4340 U98:1|1|
2570 U98:1|2|
3354 U98:1|3|
6810 U98:1|4|
3068 U98:1|5|
7000 U98:1|8|
5632 U98:2|0|
4428 U98:2|1|
2426 U98:2|2|
1730 U98:2|3|
5136 U98:2|4|
5456 U98:2|5|
7044 U98:2|6|
1532 U98:3|0|
1076 U98:3|1|
196 U98:3|2|
1316 U98:3|3|
3016 U98:3|4|
4562 U98:3|5|
7326 U98:3|7|
5726 U98:4|0|
3964 U98:4|1|
1878 U98:4|2|
3106 U98:4|3|
5882 U98:4|4|
2004 U98:4|5|
6316 U98:4|6|
7632 U98:4|7|
6980 U98:5|0|
6304 U98:5|1|
2680 U98:5|2|
2772 U98:5|3|
802 U98:5|4|
3184 U98:5|5|
6590 U98:6|1|
6526 U98:6|2|
3518 U98:6|3|
5268 U98:6|5|
5588 U98:7|0|
6516 U98:7|1|
4596 U98:7|2|
4942 U98:7|3|
5844 U98:7|4|
5952 U98:7|5|
7578 U98:8|3|
7860 U99:*
5224 U99:0|
1732 U99:1|
556 U99:2|
198 U99:3|
2682 U99:4|
3186 U99:5|
2298 U99:6|
804 U99:7|
5590 U99:8|
7680 U9:*
18 U9:A|
4034 U9:C|
958 U9:G|
1238 U9:T|

-0.0867698654293334
0.0867698636058887
-0.0867698654293334
0.0867698636058887
-0.0867698654293334
0.0867698636058887
-0.0867698654293334
0.0867698636058887
-0.0734291285051766
0.0734291267212902
-0.0315337251931969
0.0315337240656953
-0.0734291285051766
0.0734291267212902
-0.0443067905235204
0.0443067891137965
-0.0343006507266060
0.0343006493584672
-0.0455764178842457
0.0455764164600391
-0.0303574919912097
0.0303574907762283
-0.0323643742105202
0.0323643729430405
-0.0446945548187390
0.0446945533417064
-0.0302934873380905
0.0302934861042403
-0.0347376592742203
0.0347376579197242
-0.0522497195918699
0.0522497181132815
-0.0350145605598763
0.0350145593223275
-0.0331860630778869
0.0331860617579324
-0.0423710373250398
0.0423710360143023
-0.0075472579583895
0.0075472577307435
-0.0249782126854268
0.0249782117952832
-0.0222915380534027
0.0222915377074769
-0.0055466229874435
0.0055466227851032
-0.0143325666009363
0.0143325663050586
-0.0312852252566827
0.0312852242805695
-0.0083710898626836
0.0083710896052392
-0.0219185170539014
0.0219185161432591
-0.0247283316478075
0.0247283312029257
-0.0085281920555945
0.0085281918406908
-0.0031712607704698
0.0031712607012544
-0.0279063243413786
0.0279063234666591
-0.0024504467918726
0.0024504466950868
-0.0075949984805715
0.0075949981464136
-0.0087988527586751
0.0087988526006646
-0.0029030467588608
0.0029030467160056
-0.0011971812544763
0.0011971812283707
-0.0282711905988093
0.0282711899506391
-0.0096940522001309
0.0096940520116883
-0.0085192525736412
0.0085192523661128
-0.0240175818219484
0.0240175812636193
-0.0055688307351552
0.0055688306171223
-0.0116670745493097
0.0116670741508749
-0.0213616873594796
0.0213616869808043
-0.0111810710703155
0.0111810708006423
-0.0411844500802918
0.0411844489028867
-0.0166975015389096
0.0166975010618090
-0.0254981113273457
0.0254981107337011
-0.0053845190509728
0.0053845189342709
-0.0177249488036237
0.0177249484518205
-0.0046082403164848
0.0046082401723762
-0.0205669834220809
0.0205669828556253
-0.0034910643109280
0.0034910642079809
-0.0147787669500705
0.0147787666699435
-0.0082056511915160
0.0082056509798888
-0.0527236851643944
0.0527236835885059
-0.0382506818861125
0.0382506805081137
-0.0485141748913879
0.0485141734080821
-0.0268662374558057
0.0268662364076097
-0.0497659424215848
0.0497659411557103
-0.0319875011230464
0.0319874999995343
-0.0526086353843560
0.0526086337999952
-0.0427342181268264
0.0427342166659547
-0.0577532688844931
0.0577532672540983
-0.0412204724996004
0.0412204710818594
-0.0538857243980742
0.0538857228611317
-0.0273003447352866
0.0273003435179002
-0.0370415981082877
0.0370415967243636
-0.0208675874750134
0.0208675865359868
-0.0315337251931969
0.0315337240656953
-0.0315337251931969
0.0315337240656953
-0.0867698654293334
0.0867698636058887
-0.0867698654293334
0.0867698636058887
-0.0867698654293334
0.0867698636058887
-0.0829639886235717
0.0829639868153590
-0.0315337251931969
0.0315337240656953
-0.0829639886235717
0.0829639868153590
-0.0596012242271938
0.0596012225678080
-0.0321027373494860
0.0321027363151168
-0.0627117813602902
0.0627117796927881
-0.0380752379024107
0.0380752366114097
-0.0242988851671819
0.0242988840801978
-0.0398499102839255
0.0398499089843571
-0.0283479671736132
0.0283479659966918
-0.0132588542384427
0.0132588533762197
-0.0415527338733004
0.0415527324787300
-0.0260063464295578
0.0260063453091049
-0.0135889793240872
0.0135889785356131
-0.0329857432813740
0.0329857421027843
-0.0088735852250492
0.0088735848440701
-0.0094011679002658
0.0094011672618273
-0.0158555563692434
0.0158555558705674
-0.0049960036010532
0.0049960034303074
-0.0051016521833586
0.0051016519149919
-0.0195603665571203
0.0195603662152821
-0.0057932469471665
0.0057932467698039
-0.0024911619758876
0.0024911619000865
-0.0243648562085273
0.0243648556932330
-0.0087285311101635
0.0087285308663848
-0.0053167917645286
0.0053167916833969
-0.0201962433942330
0.0201962429300853
-0.0100527997987272
0.0100527994880192
-0.0057459140924116
0.0057459139299686
-0.0228797857590936
0.0228797849502193
-0.0051410466541343
0.0051410465154980
-0.0055819300587116
0.0055819298606009
-0.0216951984919082
0.0216951981450336
-0.0087469431919538
0.0087469430810234
-0.0082558410444955
0.0082558408949890
-0.0161719485162446
0.0161719483176447
-0.0084570493133156
0.0084570492131242
-0.0053863600138272
0.0053863599566848
-0.0195952389799137
0.0195952385596338
-0.0079276066452273
0.0079276063759654
-0.0057159458373588
0.0057159456809214
-0.0135279947808541
0.0135279943581365
-0.0082689606249726
0.0082689603741601
-0.0124689541602431
0.0124689537492613
-0.0035336589685255
0.0035336588577665
-0.0204596918477508
0.0204596914364437
-0.0068721608572669
0.0068721606708622
-0.0217131960033905
0.0217131954863274
-0.0115612809082466
0.0115612806656376
-0.0271478841406642
0.0271478836727690
-0.0107400283111547
0.0107400280596834
-0.0247275268247723
0.0247275262928908
-0.0099303960884603
0.0099303959364820
-0.0201926619372639
0.0201926616783834
-0.0026470927611760
0.0026470926420756
-0.0146880891659619
0.0146880887421964
-0.0045210930695420
0.0045210928382659
-0.0193558414529504
0.0193558405288957
-0.0193558414529504
0.0193558405288957
-0.0198258434963578
0.0198258425611387
-0.0147149485060729
0.0147149476748344
-0.0227894662705855
0.0227894652850686
-0.0141627087048943
0.0141627079377733
-0.0275264222672024
0.0275264211100371
-0.0211830578837020
0.0211830568429091
-0.0297040351927969
0.0297040340307484
-0.0166900925242882
0.0166900916667306
-0.0333403583617808
0.0333403573205599
-0.0223580818335831
0.0223580808550442
-0.0315337251931969
0.0315337240656953
-0.0315337251931969
0.0315337240656953
-0.0867698654293334
0.0867698636058887
-0.0867698654293334
0.0867698636058887
-0.0315337251931969
0.0315337240656953
-0.0867698654293334
0.0867698636058887
-0.0734291285051766
0.0734291267212902
-0.0260961604897352
0.0260961594762887
-0.0734291285051766
0.0734291267212902
-0.0443067905235204
0.0443067891137965
-0.0263218475261059
0.0263218463139742
-0.0474681697064779
0.0474681682837930
-0.0322492438134419
0.0322492426000643
-0.0286802842927278
0.0286802831185298
-0.0345714432591331
0.0345714420270173
-0.0203920187326658
0.0203920177247104
-0.0221531171183823
0.0221531160804907
-0.0341551160960144
0.0341551148298091
-0.0295791342766506
0.0295791330775100
-0.0158782857992888
0.0158782849843083
-0.0519330566684431
0.0519330551734871
-0.0073285852870083
0.0073285850438423
-0.0199037427679838
0.0199037418834492
-0.0085312181553823
0.0085312179008886
-0.0038541758563386
0.0038541756818181
-0.0058449750580383
0.0058449748382809
-0.0094607990616972
0.0094607987834600
-0.0039164501581863
0.0039164500490566
-0.0022052878883211
0.0022052878391008
-0.0145189436262958
0.0145189432879593
-0.0043616199711202
0.0043616198178324
-0.0025837738781953
0.0025837738458023
-0.0105678845275156
0.0105678842526130
-0.0013982645127313
0.0013982644612246
-0.0020709576378825
0.0020709575791050
-0.0127579639059781
0.0127579637017702
-0.0015118203265914
0.0015118202835895
-0.0008525497276320
0.0008525497103050
-0.0083896512519069
0.0083896511349153
-0.0025663841741743
0.0025663841505207
-0.0012966857973048
0.0012966857579811
-0.0173119182837441
0.0173119179859730
-0.0048931180068986
0.0048931178869865
-0.0052055419559985
0.0052055418283159
-0.0170099993904268
0.0170099988901491
-0.0050750899025465
0.0050750897055302
-0.0280374719988440
0.0280374714044160
-0.0103073927072893
0.0103073925403529
-0.0244568048305200
0.0244568042594425
-0.0035809885352592
0.0035809884552376
-0.0078642965204585
0.0078642963732379
-0.0015122162305915
0.0015122161856585
-0.0148920877525651
0.0148920872681651
-0.0026046888016396
0.0026046887128314
-0.0106372702021152
0.0106372700348187
-0.0045623697906891
0.0045623696879730
-0.0154517299439336
0.0154517296805867
-0.0070876757415962
0.0070876755615923
-0.0458880947049189
0.0458880932741911
-0.0250379259510675
0.0250379249388789
-0.0293028024541374
0.0293028014013287
-0.0216498787567484
0.0216498778128106
-0.0341109513150223
0.0341109501818390
-0.0265052827769262
0.0265052817444111
-0.0465142534316635
0.0465142519472046
-0.0314908416570683
0.0314908403835819
-0.0430209529773317
0.0430209515462088
-0.0235132302972955
0.0235132291532707
-0.0357523854202318
0.0357523841803854
-0.0148150398477723
0.0148150390282099
-0.0260961604897352
0.0260961594762887
-0.0208675874750134
0.0208675865359868
-0.0315337251931969
0.0315337240656953
-0.0150836422078568
0.0150836420389557
-0.0158331853203947
0.0158331851953241
-0.0086125604867404
0.0086125603037478
-0.0215316961544325
0.0215316959013168
-0.0057250746987892
0.0057250746135091
-0.0139181270144704
0.0139181268103001
-0.0111571779592564
0.0111571777972832
-0.0030206045877338
0.0030206045433588
-0.0049346135439115
0.0049346134373021
-0.0104167533911049
0.0104167531427819
-0.0013247581379698
0.0013247581217802
-0.0068108113873797
0.0068108111807105
-0.0172455374991396
0.0172455372725493
-0.0035877823240505
0.0035877822722031
-0.0095926255734804
0.0095926254061631
-0.0143501590280597
0.0143501588130075
-0.0020396924719211
0.0020396924119127
-0.0048299417076864
0.0048299415933642
-0.0185643926297820
0.0185643923510265
-0.0062942314924816
0.0062942314268611
-0.0044982632289072
0.0044982631956646
-0.0227386758366383
0.0227386755435353
-0.0044178077644531
0.0044178077095674
-0.0034827540468792
0.0034827539874415
-0.0165957569868777
0.0165957566482857
-0.0040450313474696
0.0040450312624173
-0.0033894901047766
0.0033894900133046
-0.0220717601198446
0.0220717596272919
-0.0082280925282562
0.0082280922079263
-0.0100766219536280
0.0100766216829460
-0.0323290253284800
0.0323290243369968
-0.0159993495770944
0.0159993489705960
-0.0101500374899757
0.0101500371243325
-0.0204047838668307
0.0204047833785796
-0.0048157799225484
0.0048157797849711
-0.0185762591434920
0.0185762587404327
-0.0042134795266308
0.0042134794609242
-0.0174213819317132
0.0174213817005587
-0.0071060525721092
0.0071060524157928
-0.0407351062306848
0.0407351050455586
-0.0295526490961846
0.0295526479866509
-0.0109942338661382
0.0109942337668253
-0.0166106668016135
0.0166106666736388
-0.0075725833984626
0.0075725833650465
-0.0150836422078568
0.0150836420389557
-0.0150836422078568
0.0150836420389557
-0.0150836422078568
0.0150836420389557
-0.0047181858817916
0.0047181858573153
-0.0025165467352166
0.0025165467009385
-0.0034475553594414
0.0034475552549561
-0.0118082989672116
0.0118082987173042
-0.0214981858917223
0.0214981855421129
-0.0046361176565960
0.0046361175811354
-0.0052861981437091
0.0052861979695704
-0.0052232357825701
0.0052232357049099
-0.0015402857810402
0.0015402857519203
-0.0014637749947030
0.0014637749563947
-0.0029419517739661
0.0029419517016545
-0.0020158909374276
0.0020158908978850
-0.0016716342963281
0.0016716342515397
-0.0045307214679155
0.0045307213933516
-0.0004523417559469
0.0004523417458016
-0.0018050991560164
0.0018050991148648
-0.0220981450823543
0.0220981446809061
-0.0113296138001906
0.0113296136246537
-0.0071178087665897
0.0071178086209194
-0.0225154660454394
0.0225154656772680
-0.0102127484564665
0.0102127483409414
-0.0090497246403111
0.0090497245240052
-0.0029338759591983
0.0029338759069723
-0.0037561696505981
0.0037561695758383
-0.0052105466924941
0.0052105465816580
-0.0034467288689252
0.0034467287800760
-0.0013696049896779
0.0013696049567729
-0.0042142963670710
0.0042142962216179
-0.0237459477253697
0.0237459471709677
-0.0076555604022059
0.0076555601995699
-0.0256699010512994
0.0256699004205212
-0.0095477026203711
0.0095477024054582
-0.0073022630318775
0.0073022627710039
-0.0268565069445236
0.0268565061003829
-0.0138385831503273
0.0138385826174769
-0.0230074421951587
0.0230074414139811
-0.0146075278681983
0.0146075271855255
-0.0047429549400156
0.0047429548302871
-0.0073607210592847
0.0073607209184555
-0.0022692828107446
0.0022692827788167
-0.0043605786028296
0.0043605785605869
-0.0025413164521388
0.0025413164372813
-0.0047181858817916
0.0047181858573153
-0.0047181858817916
0.0047181858573153
-0.0150836422078568
0.0150836420389557
-0.0150836422078568
0.0150836420389557
-0.0150836422078568
0.0150836420389557
-0.0105208012915853
0.0105208012394491
-0.0134740467093845
0.0134740466004783
-0.0066368141687928
0.0066368140080974
-0.0162565112827242
0.0162565110287915
-0.0034342866970586
0.0034342866275660
-0.0048829087991393
0.0048829086521726
-0.0060563823477274
0.0060563822593077
-0.0024134830081627
0.0024134829738952
-0.0021432680489616
0.0021432679939567
-0.0203010468135734
0.0203010465492479
-0.0001717733779094
0.0001717733765569
-0.0111673263758240
0.0111673261884422
-0.0013247581379698
0.0013247581217802
-0.0003957434881139
0.0003957434819132
-0.0005348857960879
0.0005348857837034
-0.0081177153182244
0.0081177152178960
-0.0010677166736391
0.0010677166454046
-0.0013797713273358
0.0013797712840165
-0.0014458908356524
0.0014458907737660
-0.0036825849140040
0.0036825848825719
-0.0015198408094620
0.0015198407635685
-0.0274611662812380
0.0274611656717505
-0.0055376872651062
0.0055376871289073
-0.0083514563022836
0.0083514561259120
-0.0057833237353967
0.0057833236406390
-0.0054935936955972
0.0054935935026290
-0.0226899356991571
0.0226899350217993
-0.0083187409536021
0.0083187407418882
-0.0223593683020168
0.0223593677429718
-0.0066733067394737
0.0066733065810382
-0.0146629962688880
0.0146629959232919
-0.0033631538975121
0.0033631538584935
-0.0195621858288001
0.0195621855331190
-0.0076425457867451
0.0076425456101814
-0.0328077665647835
0.0328077657494492
-0.0183107243462938
0.0183107237050637
-0.0307501757473426
0.0307501746265771
-0.0253319776535389
0.0253319766087363
-0.0069348635077047
0.0069348634266110
-0.0136070305677991
0.0136070304581355
-0.0047181858817916
0.0047181858573153
-0.0105208012915853
0.0105208012394491
-0.0075725833984626
0.0075725833650465
-0.0150836422078568
0.0150836420389557
-0.0121469341152523
0.0121469339760340
-0.0051446015264590
0.0051446014434361
-0.0093819892536221
0.0093819891480104
-0.0226514319920380
0.0226514317101817
-0.0066838497960160
0.0066838496796766
-0.0062827801950783
0.0062827801521399
-0.0232379003374896
0.0232379000133295
-0.0044427385841346
0.0044427385567265
-0.0084282399784837
0.0084282397441520
-0.0160113384899192
0.0160113383344140
-0.0061478537636122
0.0061478536826837
-0.0024276822238958
0.0024276822032597
-0.0379508797283408
0.0379508787031703
-0.0094750922098414
0.0094750920616619
-0.0049722187183474
0.0049722186651629
-0.0080731255117479
0.0080731253455001
-0.0421800218273922
0.0421800206108526
-0.0168903754110260
0.0168903749163239
-0.0094097209908068
0.0094097207617746
-0.0021603276905432
0.0021603276392197
-0.0233579043584293
0.0233579040226904
-0.0071146551471988
0.0071146550829939
-0.0035159999586104
0.0035159999442473
-0.0151779725586344
0.0151779724299300
-0.0025737024264072
0.0025737024013919
-0.0088986524315275
0.0088986523419012
-0.0014200708627907
0.0014200708342467
-0.0098067919444249
0.0098067917696329
-0.0137573430190664
0.0137573428117943
-0.0084236215103923
0.0084236213294445
-0.0075495283240141
0.0075495281698278
-0.0114566189493833
0.0114566187783481
-0.0026127967016609
0.0026127966913109
-0.0199955667321592
0.0199955665762887
-0.0030575210741985
0.0030575209989573
-0.0199447087644329
0.0199447083084713
-0.0030045520779174
0.0030045520454990
-0.0042584146882322
0.0042584145665974
-0.0196195354912480
0.0196195347837457
-0.0058221192432476
0.0058221190713913
-0.0340696215907299
0.0340696206587616
-0.0137809334794377
0.0137809331367845
-0.0042934071583610
0.0042934071067625
-0.0226852840161058
0.0226852835559312
-0.0015665198901505
0.0015665198798564
-0.0041915870575407
0.0041915869208859
-0.0091909631110629
0.0091909629638784
-0.0003638066425644
0.0003638066382501
-0.0012904116931822
0.0012904116834907
-0.0011290257570004
0.0011290257259586
-0.0002795266073314
0.0002795266050201
-0.0002478589492649
0.0002478589431596
-0.0004972153121444
0.0004972153019641
-0.0002347212744257
0.0002347212727127
-0.0002500375404989
0.0002500375387286
-0.0034190691293943
0.0034190690538846
-0.0020377652936317
0.0020377652686653
-0.0004644564811691
0.0004644564700528
-0.0129452947924412
0.0129452945730958
-0.0024357844537535
0.0024357844301463
-0.0051775638468735
0.0051775637394139
-0.0042702971085034
0.0042702969401147
-0.0047039153006571
0.0047039151364745
-0.0114032168688667
0.0114032165285513
-0.0041694682362910
0.0041694681773176
-0.0001978214533850
0.0001978214523064
-0.0075208020304323
0.0075208019506205
-0.0003197371759930
0.0003197371682685
-0.0030616758137172
0.0030616757673771
-0.0085047362386493
0.0085047361363431
-0.0026863957171114
0.0026863956701705
-0.0135806560621178
0.0135806557663165
-0.0018523759229956
0.0018523758962275
-0.0087927573722216
0.0087927572059875
-0.0010108191751172
0.0010108191544908
-0.0040696381079161
0.0040696380728033
-0.0005385633723725
0.0005385633666693
-0.0111298857764398
0.0111298855080121
-0.0216795610694614
0.0216795606090112
-0.0040422000062947
0.0040421999208169
-0.0055478632618451
0.0055478631752100
-0.0039512375522480
0.0039512374690959
-0.0076623508204382
0.0076623506949306
-0.0031362551253912
0.0031362550879775
-0.0111493972979145
0.0111493970250419
-0.0103656840102102
0.0103656838603453
-0.0165139539651204
0.0165139536342867
-0.0037285472289433
0.0037285471977381
-0.0001978214533850
0.0001978214523064
-0.0117856099858809
0.0117856098712777
-0.0021050135807697
0.0021050135668768
-0.0004609053827447
0.0004609053727693
-0.0035556368976468
0.0035556368267386
-0.0010105050602420
0.0010105050458793
-0.0142046246353258
0.0142046243909841
-0.0062878575568871
0.0062878574404719
-0.0012957402079794
0.0012957401904222
-0.0098553309756892
0.0098553307931411
-0.0026312566401462
0.0026312566000485
-0.0017968603677042
0.0017968603364730
-0.0073119014017268
0.0073119012367531
-0.0081868767732478
0.0081868766496125
-0.0195957580923722
0.0195957577555869
-0.0094846837551929
0.0094846836592144
-0.0149562721624645
0.0149562719405444
-0.0004771106772206
0.0004771106755282
-0.0079560700978866
0.0079560700087326
-0.0024053318765639
0.0024053318565599
-0.0065763673023854
0.0065763672480228
-0.0010539638956163
0.0010539638807485
-0.0020629934213413
0.0020629933912662
-0.0002330885506949
0.0002330885484293
-0.0132345470760567
0.0132345468724609
-0.0090412357823887
0.0090412356139950
-0.0120298819630828
0.0120298817671955
-0.0076651295157892
0.0076651293417908
-0.0059071908165671
0.0059071906790513
-0.0081357801828042
0.0081357800204617
-0.0009374838480452
0.0009374838391997
-0.0006701711541886
0.0006701711466417
-0.0055478632618451
0.0055478631752100
-0.0030575210741985
0.0030575209989573
-0.0118966763741034
0.0118966763452491
-0.0118966763741034
0.0118966763452491
-0.0024660595102922
0.0024660595043805
-0.0019736754443493
0.0019736754403346
-0.0073333047870586
0.0073333047312430
-0.0032640328199533
0.0032640328089533
-0.0062431056554928
0.0062431056149077
-0.0142759613185829
0.0142759612107411
-0.0059786638312885
0.0059786638058130
-0.0082465152064067
0.0082465151353591
-0.0105717395756216
0.0105717395083686
-0.0073428714017464
0.0073428713145641
-0.0037240524506527
0.0037240524286625
-0.0222277641835920
0.0222277637196650
-0.0088924931067834
0.0088924929883676
-0.0146875006098988
0.0146875002207944
-0.0086377495837854
0.0086377494908890
-0.0073594581477210
0.0073594580842310
-0.0211876682454658
0.0211876679287187
-0.0040132856216240
0.0040132855798223
-0.0045551996109148
0.0045551995544246
-0.0130523150066278
0.0130523148521642
-0.0061529831057589
0.0061529830455013
-0.0057218820404884
0.0057218820159158
-0.0176040837901010
0.0176040834823767
-0.0058544622186807
0.0058544621066097
-0.0039508869877265
0.0039508869440932
-0.0057597169637746
0.0057597168949184
-0.0070416644690674
0.0070416644402296
-0.0162599276887777
0.0162599274000758
-0.0033660311082206
0.0033660310892052
-0.0126315359833567
0.0126315358927318
-0.0030003219896281
0.0030003219724418
-0.0143326627815160
0.0143326625452864
-0.0053266012319933
0.0053266011536102
-0.0053439887140027
0.0053439885784481
-0.0054522625667655
0.0054522625150234
-0.0056757708266031
0.0056757707531440
-0.0034687823354870
0.0034687822963102
-0.0112702151396136
0.0112702150566558
-0.0009116416998877
0.0009116416945503
-0.0078765704767463
0.0078765703744238
-0.0131220337872730
0.0131220336324505
-0.0037954787680620
0.0037954787014242
-0.0038058768057617
0.0038058767907349
-0.0038058768057617
0.0038058767907349
-0.0031105571330964
0.0031105571250429
-0.0012376210122947
0.0012376210054588
-0.0144054794202531
0.0144054791991326
-0.0179612703085779
0.0179612700600426
-0.0024660595102922
0.0024660595043805
-0.0076565272989992
0.0076565271557240
-0.0057707094022518
0.0057707093722607
-0.0044962469413892
0.0044962469185190
-0.0031079964107094
0.0031079964034195
-0.0034542408018692
0.0034542407946983
-0.0030208128029550
0.0030208127866776
-0.0164069215162465
0.0164069213884955
-0.0058558487265314
0.0058558486646818
-0.0041082975326238
0.0041082975198796
-0.0157768078704620
0.0157768075450366
-0.0014832786897278
0.0014832786626462
-0.0096522342524800
0.0096522341475512
-0.0037890985849383
0.0037890985186471
-0.0060984416087201
0.0060984415522260
-0.0112607635990649
0.0112607634640625
-0.0071520373837406
0.0071520373349638
-0.0035623785362420
0.0035623785098277
-0.0144904026086455
0.0144904024569510
-0.0056850588571451
0.0056850588023999
-0.0022774486955077
0.0022774486829079
-0.0041212854145226
0.0041212853725325
-0.0210533183918216
0.0210533180226726
-0.0089979018262024
0.0089979017235262
-0.0070388795154837
0.0070388794095151
-0.0236701310495439
0.0236701305656309
-0.0110140692543014
0.0110140690444346
-0.0100257088413325
0.0100257086434461
-0.0091374913922552
0.0091374912458835
-0.0175972225978495
0.0175972222980065
-0.0093387539627977
0.0093387538116341
-0.0070748418861767
0.0070748417764753
-0.0145147155401339
0.0145147153173889
-0.0008478490461155
0.0008478490373234
-0.0021330726227852
0.0021330725861607
-0.0007632699694387
0.0007632699653021
-0.0111423225986706
0.0111423225333870
-0.0017659728638053
0.0017659728548061
-0.0125237185019618
0.0125237184079269
-0.0023608955948472
0.0023608955562011
-0.0158396747637194
0.0158396743281786
-0.0099674118928893
0.0099674115277964
-0.0118966763741034
0.0118966763452491
-0.0159777300638879
0.0159777296759073
-0.0118966763741034
0.0118966763452491
-0.0031613791829575
0.0031613791700727
-0.0019736754443493
0.0019736754403346
-0.0040117761180521
0.0040117760986674
-0.0133179716183315
0.0133179714475194
-0.0088651990579310
0.0088651989271375
-0.0027287970576199
0.0027287970358025
-0.0111844595533836
0.0111844593716325
-0.0058737215255360
0.0058737213380009
-0.0054769626752273
0.0054769626400157
-0.0015151375285460
0.0015151375195152
-0.0053298802987246
0.0053298802654293
-0.0021219478870992
0.0021219478782897
-0.0147354328035458
0.0147354326524867
-0.0039811076805033
0.0039811076392180
-0.0040111091334212
0.0040111091105169
-0.0156873575318050
0.0156873573683076
-0.0082358622573417
0.0082358622017255
-0.0029322287616040
0.0029322287538244
-0.0026031169416426
0.0026031169142778
-0.0075544908152816
0.0075544906041942
-0.0063850462208652
0.0063850460951352
-0.0134276674142612
0.0134276670779041
-0.0045119988188215
0.0045119987379420
-0.0033072309769348
0.0033072309369752
-0.0250213695036224
0.0250213690048831
-0.0038771217233073
0.0038771216979586
-0.0080949675090023
0.0080949673926505
-0.0026269368430035
0.0026269368346137
-0.0174590026163088
0.0174590022899444
-0.0059142482689943
0.0059142482148041
-0.0169205198942813
0.0169205194829361
-0.0029612930060284
0.0029612929680041
-0.0091856779835828
0.0091856777742830
-0.0020271018099129
0.0020271018055081
-0.0083863530938719
0.0083863529718144
-0.0022163706429906
0.0022163706233239
-0.0135943925088130
0.0135943923892657
-0.0006752851980440
0.0006752851974272
-0.0034687823354870
0.0034687822963102
-0.0007861008682548
0.0007861008650215
-0.0084366563328086
0.0084366561349586
-0.0013778203194468
0.0013778203147225
-0.0051083997415707
0.0051083996581095
-0.0100668196218400
0.0100668194988999
-0.0025487723440408
0.0025487722804556
-0.0159777300638879
0.0159777296759073
-0.0037954787680620
0.0037954787014242
-0.0190081436626349
0.0190081432825084
-0.0147201260156135
0.0147201257738387
-0.0236806784459486
0.0236806781872997
-0.0089561914580630
0.0089561912597362
-0.0041407714627136
0.0041407714089042
-0.0218182185405190
0.0218182177851481
-0.0308236736473362
0.0308236727434688
-0.0100466765535326
0.0100466762687835
-0.0189425569245882
0.0189425561785582
-0.0103835319352068
0.0103835316247354
-0.0055968610088287
0.0055968608564555
-0.0051296307985304
0.0051296306564455
-0.0021807562613986
0.0021807562386093
-0.0077805670546388
0.0077805669038428
-0.0014470733945414
0.0014470733652708
-0.0014938955104317
0.0014938954670475
-0.0242988340535454
0.0242988335256952
-0.0067900769401497
0.0067900768019697
-0.0061615131790073
0.0061615130110245
-0.0234938408846428
0.0234938403038728
-0.0087754874745460
0.0087754871401147
-0.0056765727902699
0.0056765726436135
-0.0112352493121188
0.0112352490210101
-0.0224883519680808
0.0224883515323833
-0.0051562953368759
0.0051562952618368
-0.0078416170152657
0.0078416168575735
-0.0354953935707122
0.0354953928014511
-0.0062983292297107
0.0062983291577530
-0.0160780196899437
0.0160780194613358
-0.0092896140500908
0.0092896138694432
-0.0055255999777194
0.0055255998627936
-0.0094556324966219
0.0094556321944608
-0.0190081436626349
0.0190081432825084
-0.0190081436626349
0.0190081432825084
-0.0190081436626349
0.0190081432825084
-0.0054302346506284
0.0054302345773520
-0.0117086107724284
0.0117086105728228
-0.0035702331322847
0.0035702330690041
-0.0073965551368839
0.0073965549829961
-0.0076594726328404
0.0076594721653039
-0.0029744379194851
0.0029744378143056
-0.0081985200054150
0.0081985197663326
-0.0036807536374019
0.0036807535416882
-0.0033492781919036
0.0033492781149917
-0.0010083373512302
0.0010083373244339
-0.0044889746014974
0.0044889745516608
-0.0016938665017477
0.0016938664655512
-0.0083274535015803
0.0083274533879975
-0.0047861237508556
0.0047861236996983
-0.0014229248297521
0.0014229247861665
-0.0105971385860235
0.0105971384277227
-0.0016273122328138
0.0016273121902780
-0.0102911698991271
0.0102911696607567
-0.0047786454671695
0.0047786453384358
-0.0171457389208154
0.0171457385342209
-0.0037937691789634
0.0037937691333125
-0.0062340592356273
0.0062340591252355
-0.0150375972896030
0.0150375969668727
-0.0069725389375145
0.0069725388077581
-0.0029233694191101
0.0029233693202618
-0.0036632197216179
0.0036632196149519
-0.0134734147411004
0.0134734144993096
-0.0016003993099516
0.0016003992937611
-0.0069380531598495
0.0069380530752856
-0.0050168104605711
0.0050168103819001
-0.0129463892920229
0.0129463889644645
-0.0190081436626349
0.0190081432825084
-0.0190081436626349
0.0190081432825084
-0.0190081436626349
0.0190081432825084
-0.0147201260156135
0.0147201257738387
-0.0079087261356162
0.0079087260087058
-0.0147201260156135
0.0147201257738387
-0.0116764590417837
0.0116764588238434
-0.0024654586090979
0.0024654585567943
-0.0161671304412629
0.0161671301953400
-0.0088524015460380
0.0088524013656803
-0.0089154401449607
0.0089154399384211
-0.0193808161875760
0.0193808154549010
-0.0219335489709840
0.0219335482132420
-0.0074334241382795
0.0074334238931935
-0.0138071803863282
0.0138071797838445
-0.0209149948675428
0.0209149944001820
-0.0118711008922823
0.0118711005606905
-0.0031969196092271
0.0031969195334101
-0.0274210946294200
0.0274210936909102
-0.0057712693453803
0.0057712691726626
-0.0062620508344707
0.0062620505481730
-0.0127709770570222
0.0127709767865092
-0.0006701437357963
0.0006701437265647
-0.0019840332916774
0.0019840332420701
-0.0039923476454884
0.0039923475979728
-0.0008572372870543
0.0008572372609987
-0.0006458995319530
0.0006458995202078
-0.0013726962781125
0.0013726962436715
-0.0011848108439901
0.0011848108145575
-0.0111686783651644
0.0111686781840295
-0.0026057910016354
0.0026057909267754
-0.0016840762914127
0.0016840762433470
-0.0124036529999285
0.0124036525361250
-0.0023654259062164
0.0023654258174603
-0.0063356388301695
0.0063356386585997
-0.0021904560946250
0.0021904560426401
-0.0014669354621492
0.0014669354355862
-0.0155082320472275
0.0155082316099261
-0.0029628454673498
0.0029628454061501
-0.0108038334134616
0.0108038331943406
-0.0064614875147322
0.0064614873811449
-0.0045484072634254
0.0045484071599672
-0.0085532237584204
0.0085532236293755
-0.0024448834621069
0.0024448834353988
-0.0094556324966219
0.0094556321944608
-0.0190081436626349
0.0190081432825084
-0.0062636990532842
0.0062636989985270
-0.0062968581759133
0.0062968580011885
-0.0030347809060807
0.0030347808740817
-0.0013609944354774
0.0013609944183384
-0.0034344710361943
0.0034344710063606
-0.0018977612178422
0.0018977612140795
-0.0186573972753077
0.0186573966132023
-0.0103712063285913
0.0103712059854535
-0.0065305791518316
0.0065305789882849
-0.0078777275456926
0.0078777272699781
-0.0049794817559434
0.0049794816564700
-0.0041575040115866
0.0041575038889562
-0.0041470101374147
0.0041470100869778
-0.0018406121093670
0.0018406120823872
-0.0168192250525963
0.0168192248892548
-0.0056211516164097
0.0056211515827074
-0.0016887177752150
0.0016887177612071
-0.0055716021871255
0.0055716020811474
-0.0068939030319993
0.0068939029037659
-0.0038613697440257
0.0038613697251372
-0.0129151691452622
0.0129151690704991
-0.0046012965612272
0.0046012965420952
-0.0168228324141049
0.0168228322368730
-0.0105856926364123
0.0105856925190261
-0.0036746629162963
0.0036746628857294
-0.0089737624967857
0.0089737624329615
-0.0032415582758380
0.0032415582392695
-0.0023049844094923
0.0023049843823291
-0.0046155803384871
0.0046155802898784
-0.0067859549340082
0.0067859548161034
-0.0084044881841255
0.0084044878367300
-0.0046822513329879
0.0046822512375297
-0.0079689677384257
0.0079689674682750
-0.0029682038137415
0.0029682037361455
-0.0183590489124013
0.0183590485180350
-0.0008513642274396
0.0008513642220747
-0.0031592714882979
0.0031592714545885
-0.0007077340386465
0.0007077340271656
-0.0030123589580926
0.0030123589147204
-0.0113862397833699
0.0113862393491734
-0.0027193520200106
0.0027193519548203
-0.0194315828163430
0.0194315822496297
-0.0096161699129108
0.0096161696477629
-0.0046427081919633
0.0046427080797562
-0.0152177247172137
0.0152177242964184
-0.0009568030093525
0.0009568029711360
-0.0059820482613394
0.0059820481255421
-0.0129020112955041
0.0129020109396894
-0.0019403293980862
0.0019403293524332
-0.0010214505370895
0.0010214504899930
-0.0138918741911254
0.0138918739357988
-0.0033083759566651
0.0033083758377507
-0.0035360898898490
0.0035360898079676
-0.0034506561526017
0.0034506560963108
-0.0059087164752300
0.0059087163826112
-0.0121067781936899
0.0121067780176872
-0.0050305662731331
0.0050305662097703
-0.0138158624253927
0.0138158622816231
-0.0043459452892755
0.0043459452678062
-0.0056035539345227
0.0056035539021310
-0.0041904371219155
0.0041904371098897
-0.0122935946056706
0.0122935945019974
-0.0027664338916548
0.0027664338306488
-0.0163630172921246
0.0163630170031699
-0.0065827808571272
0.0065827807396867
-0.0103300086559561
0.0103300084739657
-0.0020935860682492
0.0020935860476650
-0.0026055319589584
0.0026055319213308
-0.0124593814053601
0.0124593812397597
-0.0017026074389631
0.0017026074132301
-0.0104359846420880
0.0104359845825499
-0.0014218067734968
0.0014218067516244
-0.0023049844094923
0.0023049843823291
-0.0023049844094923
0.0023049843823291
-0.0097970914912785
0.0097970913424295
-0.0014110073466537
0.0014110073233600
-0.0075036111143026
0.0075036109737838
-0.0029800000825785
0.0029800000502083
-0.0024730105177429
0.0024730104966304
-0.0124368245702936
0.0124368244819149
-0.0020332937381404
0.0020332937260567
-0.0018567568693480
0.0018567568654786
-0.0060470897780577
0.0060470896445874
-0.0011476632107678
0.0011476631859450
-0.0307736401185629
0.0307736391542860
-0.0058404977504735
0.0058404976109973
-0.0050738878494164
0.0050738876725877
-0.0163873740816479
0.0163873737654511
-0.0025016451527672
0.0025016450740510
-0.0004740718891900
0.0004740718868449
-0.0141100405048560
0.0141100401870159
-0.0006265390500081
0.0006265390424712
-0.0047418977104158
0.0047418976105513
-0.0087988800390964
0.0087988799120120
-0.0029739628083089
0.0029739627806014
-0.0005662096072876
0.0005662096000291
-0.0052507826463828
0.0052507826117953
-0.0029711824097615
0.0029711823934775
-0.0082054243014967
0.0082054241487261
-0.0042306015123421
0.0042306014792032
-0.0015633383745255
0.0015633383649265
-0.0144526449948441
0.0144526449031460
-0.0069021096249702
0.0069021095720737
-0.0173316786269965
0.0173316784396188
-0.0084550942846578
0.0084550941426067
-0.0026864816247193
0.0026864815954112
-0.0041059602103185
0.0041059601778437
-0.0014703275990695
0.0014703275757624
-0.0109561335957413
0.0109561334420484
-0.0018151407755640
0.0018151407532412
-0.0101353531160394
0.0101353529419588
-0.0014690877264512
0.0014690877059096
-0.0112345693245496
0.0112345691049721
-0.0108683183140102
0.0108683181314452
-0.0041543530106294
0.0041543528887178
-0.0050268534778482
0.0050268534205275
-0.0096328497230758
0.0096328495377079
-0.0149166022804979
0.0149166017810538
-0.0106735754239960
0.0106735751635949
-0.0123816623987042
0.0123816620790336
-0.0271107531237885
0.0271107523920808
-0.0129852164181281
0.0129852161000838
-0.0188078109606750
0.0188078104296762
-0.0033306194370706
0.0033306193973705
-0.0069640835918864
0.0069640835157306
-0.0038630647177052
0.0038630646587981
-0.0027885325031544
0.0027885324764491
-0.0088526476750211
0.0088526475827184
-0.0051936399831216
0.0051936399062639
-0.0020234418799406
0.0020234418646709
-0.0054680681176020
0.0054680680474298
-0.0068837238790912
0.0068837237572291
-0.0078702342903136
0.0078702341635849
-0.0058296859067475
0.0058296857207088
-0.0175108225664013
0.0175108222004575
-0.0037834231209633
0.0037834230912012
-0.0046416016440384
0.0046416014538909
-0.0117052883186063
0.0117052881824330
-0.0039146552704052
0.0039146552212264
-0.0016490756194169
0.0016490755942303
-0.0036544996186791
0.0036544995200182
-0.0095229152273909
0.0095229150890115
-0.0021900683532316
0.0021900682953456
-0.0236236513902123
0.0236236509283087
-0.0079370210265880
0.0079370207479508
-0.0055059967010709
0.0055059965750546
-0.0077446714236073
0.0077446712451762
-0.0193527151378275
0.0193527146711440
-0.0098689470878781
0.0098689468211734
-0.0183957495093915
0.0183957490405305
-0.0110545312622616
0.0110545309783696
-0.0228542491557914
0.0228542487381467
-0.0120905584526232
0.0120905581061503
-0.0044519008471923
0.0044519008026308
-0.0106816799899072
0.0106816798895814
-0.0037008605648617
0.0037008605120096
-0.0058556959771753
0.0058556958709261
-0.0069815240600820
0.0069815238928862
-0.0025643814397047
0.0025643814134249
-0.0027428698328166
0.0027428698181846
-0.0009425443477607
0.0009425443327492
-0.0013247141708761
0.0013247141100787
-0.0083245437769104
0.0083245435185479
-0.0061100403528557
0.0061100400858046
-0.0071006609648835
0.0071006608031246
-0.0142105693303535
0.0142105689176894
-0.0184359330524727
0.0184359327741549
-0.0053425383208674
0.0053425382836020
-0.0042266843814094
0.0042266843004630
-0.0148458816285866
0.0148458814099026
-0.0061653797860703
0.0061653796895408
-0.0050881024381690
0.0050881023398065
-0.0032074290125472
0.0032074289280761
-0.0044530088317902
0.0044530086643018
-0.0066340579049603
0.0066340576657934
-0.0090281745291371
0.0090281742410814
-0.0192356333824011
0.0192356329883373
-0.0107655065341096
0.0107655063271494
-0.0186246806848649
0.0186246802965323
-0.0116076221494449
0.0116076218487709
-0.0023752828496210
0.0023752828177873
-0.0088453802685324
0.0088453801960925
-0.0042933708497592
0.0042933708123051
-0.0067645464559325
0.0067645463934707
-0.0034503528921456
0.0034503528345763
-0.0105155253015597
0.0105155251369398
-0.0041392863584515
0.0041392862450507
-0.0161387991182489
0.0161387989137112
-0.0097260442792749
0.0097260441094792
-0.0037475632177488
0.0037475631252856
-0.0104182615679507
0.0104182611268749
-0.0058765726997860
0.0058765726089757
-0.0097404950251255
0.0097404948880496
-0.0014869705558489
0.0014869705062632
-0.0036043447768625
0.0036043447366709
-0.0191114802127071
0.0191114798606318
-0.0052130319055107
0.0052130318722043
-0.0038743133794029
0.0038743132579565
-0.0021194136516291
0.0021194136060942
-0.0018581527161474
0.0018581526844442
-0.0067390203584503
0.0067390201933613
-0.0057951817183003
0.0057951816271506
-0.0085880771158518
0.0085880769464993
-0.0118963250257175
0.0118963246585634
-0.0056901844629422
0.0056901841239146
-0.0147137602778573
0.0147137598622562
-0.0060867079148417
0.0060867076128608
-0.0029631080441054
0.0029631079284692
-0.0125892553848559
0.0125892549575808
-0.0034135584669970
0.0034135584078025
-0.0016862355498928
0.0016862354710660
-0.0048595013705344
0.0048595012861854
-0.0025569245372301
0.0025569245114327
-0.0072890070787101
0.0072890067103056
-0.0167172726985346
0.0167172721360061
-0.0026087331491483
0.0026087330916173
-0.0020547330434033
0.0020547329759396
-0.0144128570457240
0.0144128568271974
-0.0033717881843386
0.0033717881096721
-0.0019604985006961
0.0019604984917421
-0.0038356329829208
0.0038356328800591
-0.0011271901472130
0.0011271900915889
-0.0034259472463414
0.0034259472084222
-0.0017702286945284
0.0017702286823205
-0.0063072664529806
0.0063072663007114
-0.0072514542925890
0.0072514541655711
-0.0091801868636199
0.0091801866711579
-0.0111483583429237
0.0111483581921127
-0.0045494555899344
0.0045494555585003
-0.0140018823415981
0.0140018822801803
-0.0100702930326747
0.0100702929883201
-0.0062002725174586
0.0062002725008257
-0.0075365068549447
0.0075365067035721
-0.0046196429254502
0.0046196429052260
-0.0012124313338489
0.0012124313187735
-0.0016772671803550
0.0016772671604905
-0.0051608531210673
0.0051608530979483
-0.0019262041750035
0.0019262041608531
-0.0050999939263838
0.0050999938441307
-0.0046335436169527
0.0046335435643777
-0.0067859626776125
0.0067859624999409
-0.0055194886194515
0.0055194884778405
-0.0010777450770915
0.0010777450631688
-0.0025960634055398
0.0025960633809683
-0.0058738178139125
0.0058738175899903
-0.0053085573112238
0.0053085571873152
-0.0132861065048272
0.0132861062492859
-0.0056113398803838
0.0056113397479416
-0.0040572519381843
0.0040572519109740
-0.0122323586881492
0.0122323586055181
-0.0006429225585506
0.0006429225570185
-0.0101626429842270
0.0101626429048598
-0.0047281820288718
0.0047281819783746
-0.0083914379031274
0.0083914377918755
-0.0174487957999908
0.0174487956509368
-0.0018004804777313
0.0018004804643174
-0.0029311048719146
0.0029311048285698
-0.0041059665448665
0.0041059665140634
-0.0070050978066422
0.0070050977541996
-0.0045494555899344
0.0045494555585003
-0.0070782787987074
0.0070782787556118
-0.0047437578514684
0.0047437578254945
-0.0012048580349557
0.0012048580294524
-0.0129845317720005
0.0129845317002970
-0.0095847642791445
0.0095847642357132
-0.0006141622328937
0.0006141622315263
-0.0102045297067259
0.0102045296599611
-0.0018070042190281
